
network "RecogniserBN" {
   property software aGrUM;
}

variable I {
   type discrete[201] {0, 1, 2, 3, 4, 5, 6, 7, 8, 9, 10, 11, 12, 13, 14, 15, 16, 17, 18, 19, 20, 21, 22, 23, 24, 25, 26, 27, 28, 29, 30, 31, 32, 33, 34, 35, 36, 37, 38, 39, 40, 41, 42, 43, 44, 45, 46, 47, 48, 49, 50, 51, 52, 53, 54, 55, 56, 57, 58, 59, 60, 61, 62, 63, 64, 65, 66, 67, 68, 69, 70, 71, 72, 73, 74, 75, 76, 77, 78, 79, 80, 81, 82, 83, 84, 85, 86, 87, 88, 89, 90, 91, 92, 93, 94, 95, 96, 97, 98, 99, 100, 101, 102, 103, 104, 105, 106, 107, 108, 109, 110, 111, 112, 113, 114, 115, 116, 117, 118, 119, 120, 121, 122, 123, 124, 125, 126, 127, 128, 129, 130, 131, 132, 133, 134, 135, 136, 137, 138, 139, 140, 141, 142, 143, 144, 145, 146, 147, 148, 149, 150, 151, 152, 153, 154, 155, 156, 157, 158, 159, 160, 161, 162, 163, 164, 165, 166, 167, 168, 169, 170, 171, 172, 173, 174, 175, 176, 177, 178, 179, 180, 181, 182, 183, 184, 185, 186, 187, 188, 189, 190, 191, 192, 193, 194, 195, 196, 197, 198, 199, 200};
}

variable F {
   type discrete[201] {0, 1, 2, 3, 4, 5, 6, 7, 8, 9, 10, 11, 12, 13, 14, 15, 16, 17, 18, 19, 20, 21, 22, 23, 24, 25, 26, 27, 28, 29, 30, 31, 32, 33, 34, 35, 36, 37, 38, 39, 40, 41, 42, 43, 44, 45, 46, 47, 48, 49, 50, 51, 52, 53, 54, 55, 56, 57, 58, 59, 60, 61, 62, 63, 64, 65, 66, 67, 68, 69, 70, 71, 72, 73, 74, 75, 76, 77, 78, 79, 80, 81, 82, 83, 84, 85, 86, 87, 88, 89, 90, 91, 92, 93, 94, 95, 96, 97, 98, 99, 100, 101, 102, 103, 104, 105, 106, 107, 108, 109, 110, 111, 112, 113, 114, 115, 116, 117, 118, 119, 120, 121, 122, 123, 124, 125, 126, 127, 128, 129, 130, 131, 132, 133, 134, 135, 136, 137, 138, 139, 140, 141, 142, 143, 144, 145, 146, 147, 148, 149, 150, 151, 152, 153, 154, 155, 156, 157, 158, 159, 160, 161, 162, 163, 164, 165, 166, 167, 168, 169, 170, 171, 172, 173, 174, 175, 176, 177, 178, 179, 180, 181, 182, 183, 184, 185, 186, 187, 188, 189, 190, 191, 192, 193, 194, 195, 196, 197, 198, 199, 200};
}

variable G {
   type discrete[2] {Female, Male};
}

variable A {
   type discrete[76] {0, 1, 2, 3, 4, 5, 6, 7, 8, 9, 10, 11, 12, 13, 14, 15, 16, 17, 18, 19, 20, 21, 22, 23, 24, 25, 26, 27, 28, 29, 30, 31, 32, 33, 34, 35, 36, 37, 38, 39, 40, 41, 42, 43, 44, 45, 46, 47, 48, 49, 50, 51, 52, 53, 54, 55, 56, 57, 58, 59, 60, 61, 62, 63, 64, 65, 66, 67, 68, 69, 70, 71, 72, 73, 74, 75};
}

variable H {
   type discrete[191] {50, 51, 52, 53, 54, 55, 56, 57, 58, 59, 60, 61, 62, 63, 64, 65, 66, 67, 68, 69, 70, 71, 72, 73, 74, 75, 76, 77, 78, 79, 80, 81, 82, 83, 84, 85, 86, 87, 88, 89, 90, 91, 92, 93, 94, 95, 96, 97, 98, 99, 100, 101, 102, 103, 104, 105, 106, 107, 108, 109, 110, 111, 112, 113, 114, 115, 116, 117, 118, 119, 120, 121, 122, 123, 124, 125, 126, 127, 128, 129, 130, 131, 132, 133, 134, 135, 136, 137, 138, 139, 140, 141, 142, 143, 144, 145, 146, 147, 148, 149, 150, 151, 152, 153, 154, 155, 156, 157, 158, 159, 160, 161, 162, 163, 164, 165, 166, 167, 168, 169, 170, 171, 172, 173, 174, 175, 176, 177, 178, 179, 180, 181, 182, 183, 184, 185, 186, 187, 188, 189, 190, 191, 192, 193, 194, 195, 196, 197, 198, 199, 200, 201, 202, 203, 204, 205, 206, 207, 208, 209, 210, 211, 212, 213, 214, 215, 216, 217, 218, 219, 220, 221, 222, 223, 224, 225, 226, 227, 228, 229, 230, 231, 232, 233, 234, 235, 236, 237, 238, 239, 240};
}

variable T {
   type discrete[336] {0, 1, 2, 3, 4, 5, 6, 7, 8, 9, 10, 11, 12, 13, 14, 15, 16, 17, 18, 19, 20, 21, 22, 23, 24, 25, 26, 27, 28, 29, 30, 31, 32, 33, 34, 35, 36, 37, 38, 39, 40, 41, 42, 43, 44, 45, 46, 47, 48, 49, 50, 51, 52, 53, 54, 55, 56, 57, 58, 59, 60, 61, 62, 63, 64, 65, 66, 67, 68, 69, 70, 71, 72, 73, 74, 75, 76, 77, 78, 79, 80, 81, 82, 83, 84, 85, 86, 87, 88, 89, 90, 91, 92, 93, 94, 95, 96, 97, 98, 99, 100, 101, 102, 103, 104, 105, 106, 107, 108, 109, 110, 111, 112, 113, 114, 115, 116, 117, 118, 119, 120, 121, 122, 123, 124, 125, 126, 127, 128, 129, 130, 131, 132, 133, 134, 135, 136, 137, 138, 139, 140, 141, 142, 143, 144, 145, 146, 147, 148, 149, 150, 151, 152, 153, 154, 155, 156, 157, 158, 159, 160, 161, 162, 163, 164, 165, 166, 167, 168, 169, 170, 171, 172, 173, 174, 175, 176, 177, 178, 179, 180, 181, 182, 183, 184, 185, 186, 187, 188, 189, 190, 191, 192, 193, 194, 195, 196, 197, 198, 199, 200, 201, 202, 203, 204, 205, 206, 207, 208, 209, 210, 211, 212, 213, 214, 215, 216, 217, 218, 219, 220, 221, 222, 223, 224, 225, 226, 227, 228, 229, 230, 231, 232, 233, 234, 235, 236, 237, 238, 239, 240, 241, 242, 243, 244, 245, 246, 247, 248, 249, 250, 251, 252, 253, 254, 255, 256, 257, 258, 259, 260, 261, 262, 263, 264, 265, 266, 267, 268, 269, 270, 271, 272, 273, 274, 275, 276, 277, 278, 279, 280, 281, 282, 283, 284, 285, 286, 287, 288, 289, 290, 291, 292, 293, 294, 295, 296, 297, 298, 299, 300, 301, 302, 303, 304, 305, 306, 307, 308, 309, 310, 311, 312, 313, 314, 315, 316, 317, 318, 319, 320, 321, 322, 323, 324, 325, 326, 327, 328, 329, 330, 331, 332, 333, 334, 335};
}

probability (I) {
   default 0.00497512 0.00497512 0.00497512 0.00497512 0.00497512 0.00497512 0.00497512 0.00497512 0.00497512 0.00497512 0.00497512 0.00497512 0.00497512 0.00497512 0.00497512 0.00497512 0.00497512 0.00497512 0.00497512 0.00497512 0.00497512 0.00497512 0.00497512 0.00497512 0.00497512 0.00497512 0.00497512 0.00497512 0.00497512 0.00497512 0.00497512 0.00497512 0.00497512 0.00497512 0.00497512 0.00497512 0.00497512 0.00497512 0.00497512 0.00497512 0.00497512 0.00497512 0.00497512 0.00497512 0.00497512 0.00497512 0.00497512 0.00497512 0.00497512 0.00497512 0.00497512 0.00497512 0.00497512 0.00497512 0.00497512 0.00497512 0.00497512 0.00497512 0.00497512 0.00497512 0.00497512 0.00497512 0.00497512 0.00497512 0.00497512 0.00497512 0.00497512 0.00497512 0.00497512 0.00497512 0.00497512 0.00497512 0.00497512 0.00497512 0.00497512 0.00497512 0.00497512 0.00497512 0.00497512 0.00497512 0.00497512 0.00497512 0.00497512 0.00497512 0.00497512 0.00497512 0.00497512 0.00497512 0.00497512 0.00497512 0.00497512 0.00497512 0.00497512 0.00497512 0.00497512 0.00497512 0.00497512 0.00497512 0.00497512 0.00497512 0.00497512 0.00497512 0.00497512 0.00497512 0.00497512 0.00497512 0.00497512 0.00497512 0.00497512 0.00497512 0.00497512 0.00497512 0.00497512 0.00497512 0.00497512 0.00497512 0.00497512 0.00497512 0.00497512 0.00497512 0.00497512 0.00497512 0.00497512 0.00497512 0.00497512 0.00497512 0.00497512 0.00497512 0.00497512 0.00497512 0.00497512 0.00497512 0.00497512 0.00497512 0.00497512 0.00497512 0.00497512 0.00497512 0.00497512 0.00497512 0.00497512 0.00497512 0.00497512 0.00497512 0.00497512 0.00497512 0.00497512 0.00497512 0.00497512 0.00497512 0.00497512 0.00497512 0.00497512 0.00497512 0.00497512 0.00497512 0.00497512 0.00497512 0.00497512 0.00497512 0.00497512 0.00497512 0.00497512 0.00497512 0.00497512 0.00497512 0.00497512 0.00497512 0.00497512 0.00497512 0.00497512 0.00497512 0.00497512 0.00497512 0.00497512 0.00497512 0.00497512 0.00497512 0.00497512 0.00497512 0.00497512 0.00497512 0.00497512 0.00497512 0.00497512 0.00497512 0.00497512 0.00497512 0.00497512 0.00497512 0.00497512 0.00497512 0.00497512 0.00497512 0.00497512 0.00497512 0.00497512 0.00497512 0.00497512 0.00497512 0.00497512;
}
probability (F | I) {
   (0) 0.9 0.0005 0.0005 0.0005 0.0005 0.0005 0.0005 0.0005 0.0005 0.0005 0.0005 0.0005 0.0005 0.0005 0.0005 0.0005 0.0005 0.0005 0.0005 0.0005 0.0005 0.0005 0.0005 0.0005 0.0005 0.0005 0.0005 0.0005 0.0005 0.0005 0.0005 0.0005 0.0005 0.0005 0.0005 0.0005 0.0005 0.0005 0.0005 0.0005 0.0005 0.0005 0.0005 0.0005 0.0005 0.0005 0.0005 0.0005 0.0005 0.0005 0.0005 0.0005 0.0005 0.0005 0.0005 0.0005 0.0005 0.0005 0.0005 0.0005 0.0005 0.0005 0.0005 0.0005 0.0005 0.0005 0.0005 0.0005 0.0005 0.0005 0.0005 0.0005 0.0005 0.0005 0.0005 0.0005 0.0005 0.0005 0.0005 0.0005 0.0005 0.0005 0.0005 0.0005 0.0005 0.0005 0.0005 0.0005 0.0005 0.0005 0.0005 0.0005 0.0005 0.0005 0.0005 0.0005 0.0005 0.0005 0.0005 0.0005 0.0005 0.0005 0.0005 0.0005 0.0005 0.0005 0.0005 0.0005 0.0005 0.0005 0.0005 0.0005 0.0005 0.0005 0.0005 0.0005 0.0005 0.0005 0.0005 0.0005 0.0005 0.0005 0.0005 0.0005 0.0005 0.0005 0.0005 0.0005 0.0005 0.0005 0.0005 0.0005 0.0005 0.0005 0.0005 0.0005 0.0005 0.0005 0.0005 0.0005 0.0005 0.0005 0.0005 0.0005 0.0005 0.0005 0.0005 0.0005 0.0005 0.0005 0.0005 0.0005 0.0005 0.0005 0.0005 0.0005 0.0005 0.0005 0.0005 0.0005 0.0005 0.0005 0.0005 0.0005 0.0005 0.0005 0.0005 0.0005 0.0005 0.0005 0.0005 0.0005 0.0005 0.0005 0.0005 0.0005 0.0005 0.0005 0.0005 0.0005 0.0005 0.0005 0.0005 0.0005 0.0005 0.0005 0.0005 0.0005 0.0005 0.0005 0.0005 0.0005 0.0005 0.0005 0.0005 0.0005 0.0005 0.0005 0.0005 0.0005 0.0005;
   (1) 0.0817369 0.735632 0.0204342 0.0139634 0.0106471 0.00862413 0.00725864 0.00627354 0.00552856 0.00494499 0.00447522 0.00408872 0.00376503 0.00348989 0.00325308 0.00304705 0.00286613 0.00270597 0.00256315 0.00243499 0.00231933 0.00221441 0.00211879 0.00203127 0.00195087 0.00187673 0.00180816 0.00174454 0.00168535 0.00163014 0.00157852 0.00153015 0.00148472 0.00144198 0.00140169 0.00136364 0.00132766 0.00129357 0.00126123 0.00123051 0.00120128 0.00117345 0.00114691 0.00112157 0.00109735 0.00107418 0.001052 0.00103074 0.00101034 0.000990748 0.000971924 0.00095382 0.000936394 0.00091961 0.000903431 0.000591884 0.000581667 0.000571803 0.000562273 0.00055306 0.00054415 0.000535527 0.000527177 0.000519088 0.000511248 0.000503645 0.000496268 0.000489108 0.000482155 0.0004754 0.000468835 0.000346839 0.000342142 0.000337572 0.000333125 0.000328794 0.000324576 0.000320466 0.00031646 0.000312555 0.000308745 0.000305029 0.000301402 0.000297862 0.000294404 0.000291027 0.000287728 0.000284503 0.000281351 0.000278269 0.000275254 0.000272305 0.000269419 0.000266595 0.00026383 0.000261122 0.00025847 0.000255872 0.000253326 0.000250831 0.000198708 8.94457e-05 8.85767e-05 8.77246e-05 8.68887e-05 8.60687e-05 8.52641e-05 8.44745e-05 8.36995e-05 8.29386e-05 8.21914e-05 8.14577e-05 8.0737e-05 8.0029e-05 7.93334e-05 7.86498e-05 7.7978e-05 7.73175e-05 7.66683e-05 7.60298e-05 7.5402e-05 7.47845e-05 7.41771e-05 7.35795e-05 7.29915e-05 7.24129e-05 7.18434e-05 7.12829e-05 7.0731e-05 7.01877e-05 6.96527e-05 6.91259e-05 6.86069e-05 6.80958e-05 6.75922e-05 6.70961e-05 6.66072e-05 6.61255e-05 6.56507e-05 6.51826e-05 6.47213e-05 6.42664e-05 6.3818e-05 6.33758e-05 6.29396e-05 6.25095e-05 6.20853e-05 6.16668e-05 6.12539e-05 6.08465e-05 6.04446e-05 6.00479e-05 5.96564e-05 5.92701e-05 5.88887e-05 5.85122e-05 5.81406e-05 5.77736e-05 5.74113e-05 5.70535e-05 5.67001e-05 5.63512e-05 5.60065e-05 5.5666e-05 5.53297e-05 5.49974e-05 5.46691e-05 5.43447e-05 5.40242e-05 5.37074e-05 5.33943e-05 5.30849e-05 5.27791e-05 5.24768e-05 5.2178e-05 5.18825e-05 5.15904e-05 5.13016e-05 5.1016e-05 5.07336e-05 5.04543e-05 5.01781e-05 4.99049e-05 4.96346e-05 4.93673e-05 4.91029e-05 4.88413e-05 4.85825e-05 4.83264e-05 4.80731e-05 4.78224e-05 4.75743e-05 4.73287e-05 4.70857e-05 4.68452e-05 4.66072e-05 4.63715e-05 4.61383e-05 4.59074e-05 4.56788e-05 4.54525e-05;
   (2) 0.0428645 0.0428645 0.771562 0.0142882 0.0108947 0.00882474 0.00742749 0.00641947 0.00565716 0.00506001 0.00457931 0.00418383 0.00385261 0.00357107 0.00332875 0.00311793 0.0029328 0.00276891 0.00174851 0.00165955 0.00157934 0.00150664 0.00144044 0.0013799 0.00132432 0.00127312 0.00122578 0.0011819 0.00114109 0.00110306 0.00106751 0.00103422 0.00100298 0.000973602 0.000945921 0.000919796 0.000895097 0.000871712 0.000849537 0.00082848 0.000808458 0.000789397 0.000771229 0.000753891 0.000737328 0.000721489 0.000706327 0.0006918 0.000677868 0.000664495 0.000488736 0.000479393 0.000470404 0.00046175 0.000453413 0.000445375 0.000437621 0.000430136 0.000422905 0.000415916 0.000409158 0.000402618 0.000396286 0.000390153 0.000384209 0.000378446 0.000372856 0.00036743 0.000362161 0.000357044 0.000352071 0.000347236 0.000342534 0.000337959 0.000333506 0.000329171 0.000324948 0.000320833 0.000316823 0.000312912 0.000309099 0.000305378 0.000301747 0.000298203 0.000294741 0.00029136 0.000230446 0.00022785 0.000225313 0.000222832 0.000183671 0.000181686 0.000179744 0.000177844 0.000175983 0.000174162 0.000172378 0.00017063 0.000168918 0.00016724 0.000165596 8.94457e-05 8.85767e-05 8.77246e-05 8.68887e-05 8.60687e-05 8.52641e-05 8.44745e-05 8.36995e-05 8.29386e-05 8.21914e-05 8.14577e-05 8.0737e-05 8.0029e-05 7.93334e-05 7.86498e-05 7.7978e-05 7.73175e-05 7.66683e-05 7.60298e-05 7.5402e-05 7.47845e-05 7.41771e-05 7.35795e-05 7.29915e-05 7.24129e-05 7.18434e-05 7.12829e-05 7.0731e-05 7.01877e-05 6.96527e-05 6.91259e-05 6.86069e-05 6.80958e-05 6.75922e-05 6.70961e-05 6.66072e-05 6.61255e-05 6.56507e-05 6.51826e-05 6.47213e-05 6.42664e-05 6.3818e-05 6.33758e-05 6.29396e-05 6.25095e-05 6.20853e-05 6.16668e-05 6.12539e-05 6.08465e-05 6.04446e-05 6.00479e-05 5.96564e-05 5.92701e-05 5.88887e-05 5.85122e-05 5.81406e-05 5.77736e-05 5.74113e-05 5.70535e-05 5.67001e-05 5.63512e-05 5.60065e-05 5.5666e-05 5.53297e-05 5.49974e-05 5.46691e-05 5.43447e-05 5.40242e-05 5.37074e-05 5.33943e-05 5.30849e-05 5.27791e-05 5.24768e-05 5.2178e-05 5.18825e-05 5.15904e-05 5.13016e-05 5.1016e-05 5.07336e-05 5.04543e-05 5.01781e-05 4.99049e-05 4.96346e-05 4.93673e-05 4.91029e-05 4.88413e-05 4.85825e-05 4.83264e-05 4.80731e-05 4.78224e-05 4.75743e-05 4.73287e-05 4.70857e-05 4.68452e-05 4.66072e-05 4.63715e-05 4.61383e-05 4.59074e-05 4.56788e-05 4.54525e-05;
   (3) 0.0280765 0.0280765 0.0280765 0.758065 0.0105287 0.00852823 0.00717793 0.00620378 0.00546708 0.00489 0.00442545 0.00404325 0.00372316 0.00345108 0.0032169 0.00301317 0.00283426 0.00267587 0.00253465 0.00240792 0.00229354 0.00218978 0.00209523 0.00200868 0.00192917 0.00185586 0.00178805 0.00172514 0.00166661 0.00161201 0.00156097 0.00151313 0.00146821 0.00142594 0.0013861 0.00134848 0.00131289 0.00127918 0.0012472 0.00121682 0.00118792 0.0011604 0.00113415 0.00110909 0.00108515 0.00106224 0.0010403 0.00101927 0.000999102 0.000979731 0.000961116 0.000943213 0.000925981 0.000909384 0.000893385 0.000877954 0.00086306 0.000848676 0.000834775 0.000821334 0.000808329 0.000795741 0.000783548 0.000771732 0.000760277 0.000749165 0.000738382 0.000727912 0.000717743 0.000707861 0.000698254 0.000688911 0.000679822 0.000670975 0.000662361 0.000653971 0.000645796 0.000637829 0.00063006 0.000622483 0.000615091 0.000607877 0.000600835 0.000593958 0.000587241 0.000580677 0.000574263 0.000567992 0.00056186 0.000555863 0.000366664 0.000362769 0.000358957 0.000355226 0.000351573 0.000347996 0.000344491 0.000341058 0.000337694 0.000334397 0.000248373 8.94457e-05 8.85767e-05 8.77246e-05 8.68887e-05 8.60687e-05 8.52641e-05 8.44745e-05 8.36995e-05 8.29386e-05 8.21914e-05 8.14577e-05 8.0737e-05 8.0029e-05 7.93334e-05 7.86498e-05 7.7978e-05 7.73175e-05 7.66683e-05 7.60298e-05 7.5402e-05 7.47845e-05 7.41771e-05 7.35795e-05 7.29915e-05 7.24129e-05 7.18434e-05 7.12829e-05 7.0731e-05 7.01877e-05 6.96527e-05 6.91259e-05 6.86069e-05 6.80958e-05 6.75922e-05 6.70961e-05 6.66072e-05 6.61255e-05 6.56507e-05 6.51826e-05 6.47213e-05 6.42664e-05 6.3818e-05 6.33758e-05 6.29396e-05 6.25095e-05 6.20853e-05 6.16668e-05 6.12539e-05 6.08465e-05 6.04446e-05 6.00479e-05 5.96564e-05 5.92701e-05 5.88887e-05 5.85122e-05 5.81406e-05 5.77736e-05 5.74113e-05 5.70535e-05 5.67001e-05 5.63512e-05 5.60065e-05 5.5666e-05 5.53297e-05 5.49974e-05 5.46691e-05 5.43447e-05 5.40242e-05 5.37074e-05 5.33943e-05 5.30849e-05 5.27791e-05 5.24768e-05 5.2178e-05 5.18825e-05 5.15904e-05 5.13016e-05 5.1016e-05 5.07336e-05 5.04543e-05 5.01781e-05 4.99049e-05 4.96346e-05 4.93673e-05 4.91029e-05 4.88413e-05 4.85825e-05 4.83264e-05 4.80731e-05 4.78224e-05 4.75743e-05 4.73287e-05 4.70857e-05 4.68452e-05 4.66072e-05 4.63715e-05 4.61383e-05 4.59074e-05 4.56788e-05 4.54525e-05;
   (4) 0.0215651 0.0215651 0.0215651 0.0215651 0.776342 0.00862602 0.00726023 0.00627492 0.00552977 0.00494607 0.0044762 0.00408961 0.00376585 0.00349066 0.00325379 0.00304772 0.00286676 0.00270656 0.00256371 0.00243553 0.00231984 0.00221489 0.00211925 0.00203172 0.00195129 0.00187714 0.00180856 0.00174492 0.00168572 0.0016305 0.00157887 0.00153048 0.00148504 0.00144229 0.00140199 0.00136394 0.00132795 0.00129385 0.0012615 0.00123078 0.00120154 0.0011737 0.00114716 0.00112181 0.00109759 0.00107442 0.00105223 0.00103096 0.000673705 0.000660414 0.000647646 0.000635371 0.000623559 0.000612186 0.000601227 0.00059066 0.000580464 0.00057062 0.00056111 0.000551917 0.000543025 0.000534419 0.000526087 0.000518015 0.000510191 0.000502603 0.000495242 0.000488096 0.000481158 0.000474417 0.000467865 0.000461495 0.000455299 0.00044927 0.000443402 0.000437687 0.00043212 0.000426695 0.000421407 0.00041625 0.00041122 0.000406313 0.000401523 0.000396847 0.00039228 0.000387818 0.000383459 0.000379199 0.000375033 0.00037096 0.000366975 0.000363077 0.000269447 0.000266622 0.000263856 0.000261148 0.000258496 0.000255898 0.000202681 0.000200675 0.000198708 8.94457e-05 8.85767e-05 8.77246e-05 8.68887e-05 8.60687e-05 8.52641e-05 8.44745e-05 8.36995e-05 8.29386e-05 8.21914e-05 8.14577e-05 8.0737e-05 8.0029e-05 7.93334e-05 7.86498e-05 7.7978e-05 7.73175e-05 7.66683e-05 7.60298e-05 7.5402e-05 7.47845e-05 7.41771e-05 7.35795e-05 7.29915e-05 7.24129e-05 7.18434e-05 7.12829e-05 7.0731e-05 7.01877e-05 6.96527e-05 6.91259e-05 6.86069e-05 6.80958e-05 6.75922e-05 6.70961e-05 6.66072e-05 6.61255e-05 6.56507e-05 6.51826e-05 6.47213e-05 6.42664e-05 6.3818e-05 6.33758e-05 6.29396e-05 6.25095e-05 6.20853e-05 6.16668e-05 6.12539e-05 6.08465e-05 6.04446e-05 6.00479e-05 5.96564e-05 5.92701e-05 5.88887e-05 5.85122e-05 5.81406e-05 5.77736e-05 5.74113e-05 5.70535e-05 5.67001e-05 5.63512e-05 5.60065e-05 5.5666e-05 5.53297e-05 5.49974e-05 5.46691e-05 5.43447e-05 5.40242e-05 5.37074e-05 5.33943e-05 5.30849e-05 5.27791e-05 5.24768e-05 5.2178e-05 5.18825e-05 5.15904e-05 5.13016e-05 5.1016e-05 5.07336e-05 5.04543e-05 5.01781e-05 4.99049e-05 4.96346e-05 4.93673e-05 4.91029e-05 4.88413e-05 4.85825e-05 4.83264e-05 4.80731e-05 4.78224e-05 4.75743e-05 4.73287e-05 4.70857e-05 4.68452e-05 4.66072e-05 4.63715e-05 4.61383e-05 4.59074e-05 4.56788e-05 4.54525e-05;
   (5) 0.0181424 0.0181424 0.0181424 0.0181424 0.0181424 0.816406 0.00755932 0.00435561 0.0038293 0.00341801 0.0030876 0.00281627 0.0025894 0.00239686 0.00223136 0.00208756 0.00196144 0.0018499 0.00175056 0.00166149 0.00158119 0.0015084 0.00144212 0.00138151 0.00132587 0.0012746 0.00122721 0.00118328 0.00114242 0.00110434 0.00106876 0.00103543 0.00100415 0.000974739 0.000947026 0.00092087 0.000896143 0.00087273 0.000637897 0.00062195 0.00060679 0.00059236 0.000578609 0.000565489 0.000552958 0.000540978 0.000529511 0.000518527 0.000507994 0.000497886 0.000488177 0.000478844 0.000469866 0.000461222 0.000452895 0.000444866 0.000437121 0.000429644 0.000422421 0.00041544 0.00040869 0.000402157 0.000395833 0.000389707 0.00038377 0.000378014 0.000372429 0.00036701 0.000361747 0.000356636 0.000351668 0.000346839 0.000342142 0.000337572 0.000333125 0.000328794 0.000324576 0.000320466 0.00031646 0.000312555 0.000308745 0.000305029 0.000301402 0.000297862 0.000294404 0.000291027 0.000287728 0.000284503 0.000281351 0.000278269 0.000275254 0.000272305 0.000269419 0.000266595 0.00026383 0.000261122 0.00025847 0.000255872 0.000253326 0.000250831 0.000198708 8.94457e-05 8.85767e-05 8.77246e-05 8.68887e-05 8.60687e-05 8.52641e-05 8.44745e-05 8.36995e-05 8.29386e-05 8.21914e-05 8.14577e-05 8.0737e-05 8.0029e-05 7.93334e-05 7.86498e-05 7.7978e-05 7.73175e-05 7.66683e-05 7.60298e-05 7.5402e-05 7.47845e-05 7.41771e-05 7.35795e-05 7.29915e-05 7.24129e-05 7.18434e-05 7.12829e-05 7.0731e-05 7.01877e-05 6.96527e-05 6.91259e-05 6.86069e-05 6.80958e-05 6.75922e-05 6.70961e-05 6.66072e-05 6.61255e-05 6.56507e-05 6.51826e-05 6.47213e-05 6.42664e-05 6.3818e-05 6.33758e-05 6.29396e-05 6.25095e-05 6.20853e-05 6.16668e-05 6.12539e-05 6.08465e-05 6.04446e-05 6.00479e-05 5.96564e-05 5.92701e-05 5.88887e-05 5.85122e-05 5.81406e-05 5.77736e-05 5.74113e-05 5.70535e-05 5.67001e-05 5.63512e-05 5.60065e-05 5.5666e-05 5.53297e-05 5.49974e-05 5.46691e-05 5.43447e-05 5.40242e-05 5.37074e-05 5.33943e-05 5.30849e-05 5.27791e-05 5.24768e-05 5.2178e-05 5.18825e-05 5.15904e-05 5.13016e-05 5.1016e-05 5.07336e-05 5.04543e-05 5.01781e-05 4.99049e-05 4.96346e-05 4.93673e-05 4.91029e-05 4.88413e-05 4.85825e-05 4.83264e-05 4.80731e-05 4.78224e-05 4.75743e-05 4.73287e-05 4.70857e-05 4.68452e-05 4.66072e-05 4.63715e-05 4.61383e-05 4.59074e-05 4.56788e-05 4.54525e-05;
   (6) 0.014529 0.014529 0.014529 0.014529 0.014529 0.014529 0.784568 0.00622673 0.0054873 0.00490809 0.00444182 0.00405821 0.00373693 0.00346385 0.0032288 0.00302431 0.00284474 0.00268577 0.00254402 0.00241682 0.00230202 0.00219788 0.00210298 0.00201611 0.00193631 0.00186273 0.00179467 0.00173152 0.00167277 0.00161798 0.00156674 0.00151873 0.00147364 0.00143122 0.00139123 0.00135347 0.00131775 0.00128391 0.00125182 0.00122132 0.00119232 0.00116469 0.00113835 0.0011132 0.00108916 0.00106617 0.00104415 0.00102304 0.0010028 0.000983355 0.000964671 0.000946702 0.000929406 0.000912747 0.00089669 0.000881201 0.000866252 0.000851815 0.000837863 0.000824372 0.000811319 0.000798684 0.000786446 0.000774587 0.000763089 0.000751936 0.000741113 0.000730605 0.000720398 0.000710479 0.000700837 0.000691459 0.000682336 0.000673456 0.000664811 0.00065639 0.000648185 0.000640188 0.000632391 0.000416524 0.000411491 0.00040658 0.000401787 0.000397108 0.000392538 0.000388074 0.000383712 0.000379448 0.00037528 0.000371204 0.000275413 0.000217969 0.000215648 0.000213375 0.000211151 0.000208972 0.000206839 0.000204749 0.000168918 0.00016724 0.000165596 8.94457e-05 8.85767e-05 8.77246e-05 8.68887e-05 8.60687e-05 8.52641e-05 8.44745e-05 8.36995e-05 8.29386e-05 8.21914e-05 8.14577e-05 8.0737e-05 8.0029e-05 7.93334e-05 7.86498e-05 7.7978e-05 7.73175e-05 7.66683e-05 7.60298e-05 7.5402e-05 7.47845e-05 7.41771e-05 7.35795e-05 7.29915e-05 7.24129e-05 7.18434e-05 7.12829e-05 7.0731e-05 7.01877e-05 6.96527e-05 6.91259e-05 6.86069e-05 6.80958e-05 6.75922e-05 6.70961e-05 6.66072e-05 6.61255e-05 6.56507e-05 6.51826e-05 6.47213e-05 6.42664e-05 6.3818e-05 6.33758e-05 6.29396e-05 6.25095e-05 6.20853e-05 6.16668e-05 6.12539e-05 6.08465e-05 6.04446e-05 6.00479e-05 5.96564e-05 5.92701e-05 5.88887e-05 5.85122e-05 5.81406e-05 5.77736e-05 5.74113e-05 5.70535e-05 5.67001e-05 5.63512e-05 5.60065e-05 5.5666e-05 5.53297e-05 5.49974e-05 5.46691e-05 5.43447e-05 5.40242e-05 5.37074e-05 5.33943e-05 5.30849e-05 5.27791e-05 5.24768e-05 5.2178e-05 5.18825e-05 5.15904e-05 5.13016e-05 5.1016e-05 5.07336e-05 5.04543e-05 5.01781e-05 4.99049e-05 4.96346e-05 4.93673e-05 4.91029e-05 4.88413e-05 4.85825e-05 4.83264e-05 4.80731e-05 4.78224e-05 4.75743e-05 4.73287e-05 4.70857e-05 4.68452e-05 4.66072e-05 4.63715e-05 4.61383e-05 4.59074e-05 4.56788e-05 4.54525e-05;
   (7) 0.0124752 0.0124752 0.0124752 0.0124752 0.0124752 0.0124752 0.0124752 0.785939 0.00545791 0.0048818 0.00441802 0.00403647 0.00371691 0.00344529 0.00321151 0.00300811 0.0028295 0.00267138 0.00253039 0.00240388 0.00228969 0.00218611 0.00209171 0.00200531 0.00192594 0.00185275 0.00178505 0.00172225 0.00166381 0.00160931 0.00155835 0.00151059 0.00146575 0.00142355 0.00138377 0.00134621 0.00131069 0.00127704 0.00124511 0.00121478 0.00118593 0.00115845 0.00113225 0.00110723 0.00108333 0.00106046 0.00103856 0.00101756 0.000997425 0.000978087 0.000959503 0.00094163 0.000924427 0.000907858 0.000891886 0.000876481 0.000861612 0.000847252 0.000833374 0.000819955 0.000806973 0.000794405 0.000782233 0.000770437 0.000759001 0.000747908 0.000737143 0.000726691 0.000716538 0.000706673 0.000697082 0.000687755 0.000678681 0.000669849 0.000661249 0.000652873 0.000644712 0.000636758 0.000629003 0.000621439 0.000614059 0.000606857 0.000599827 0.000592961 0.000586255 0.000579703 0.000573299 0.000567039 0.000560918 0.00055493 0.000549073 0.000543341 0.00053773 0.000532237 0.000526858 0.000521589 0.000516428 0.00051137 0.000506413 0.000334369 0.000331137 8.94457e-05 8.85767e-05 8.77246e-05 8.68887e-05 8.60687e-05 8.52641e-05 8.44745e-05 8.36995e-05 8.29386e-05 8.21914e-05 8.14577e-05 8.0737e-05 8.0029e-05 7.93334e-05 7.86498e-05 7.7978e-05 7.73175e-05 7.66683e-05 7.60298e-05 7.5402e-05 7.47845e-05 7.41771e-05 7.35795e-05 7.29915e-05 7.24129e-05 7.18434e-05 7.12829e-05 7.0731e-05 7.01877e-05 6.96527e-05 6.91259e-05 6.86069e-05 6.80958e-05 6.75922e-05 6.70961e-05 6.66072e-05 6.61255e-05 6.56507e-05 6.51826e-05 6.47213e-05 6.42664e-05 6.3818e-05 6.33758e-05 6.29396e-05 6.25095e-05 6.20853e-05 6.16668e-05 6.12539e-05 6.08465e-05 6.04446e-05 6.00479e-05 5.96564e-05 5.92701e-05 5.88887e-05 5.85122e-05 5.81406e-05 5.77736e-05 5.74113e-05 5.70535e-05 5.67001e-05 5.63512e-05 5.60065e-05 5.5666e-05 5.53297e-05 5.49974e-05 5.46691e-05 5.43447e-05 5.40242e-05 5.37074e-05 5.33943e-05 5.30849e-05 5.27791e-05 5.24768e-05 5.2178e-05 5.18825e-05 5.15904e-05 5.13016e-05 5.1016e-05 5.07336e-05 5.04543e-05 5.01781e-05 4.99049e-05 4.96346e-05 4.93673e-05 4.91029e-05 4.88413e-05 4.85825e-05 4.83264e-05 4.80731e-05 4.78224e-05 4.75743e-05 4.73287e-05 4.70857e-05 4.68452e-05 4.66072e-05 4.63715e-05 4.61383e-05 4.59074e-05 4.56788e-05 4.54525e-05;
   (8) 0.01121 0.01121 0.01121 0.01121 0.01121 0.01121 0.01121 0.01121 0.807123 0.00498224 0.00450893 0.00411952 0.00379339 0.00351618 0.00327758 0.00307 0.00288772 0.00272635 0.00258246 0.00245334 0.0023368 0.00223109 0.00213475 0.00204657 0.00196556 0.00189087 0.00182178 0.00175768 0.00169805 0.00164242 0.00159041 0.00154167 0.0014959 0.00145284 0.00141225 0.00137391 0.000891772 0.000868473 0.00084638 0.000825402 0.000805455 0.000786464 0.000768363 0.00075109 0.000734588 0.000718808 0.000703703 0.00068923 0.000675349 0.000662026 0.000649227 0.000636921 0.000625081 0.00061368 0.000602695 0.000592102 0.000581881 0.000572013 0.000562479 0.000553264 0.00054435 0.000535724 0.000527371 0.000519279 0.000511436 0.00050383 0.00049645 0.000489288 0.000482332 0.000475575 0.000469007 0.000462622 0.000456411 0.000450367 0.000444484 0.000438755 0.000433174 0.000427736 0.000422435 0.00031295 0.000309135 0.000305414 0.000301783 0.000298238 0.000235821 0.000233102 0.000230446 0.00022785 0.000225313 0.000222832 0.000183671 0.000181686 0.000179744 0.000177844 0.000175983 0.000174162 0.000172378 0.00017063 0.000168918 0.00016724 0.000165596 8.94457e-05 8.85767e-05 8.77246e-05 8.68887e-05 8.60687e-05 8.52641e-05 8.44745e-05 8.36995e-05 8.29386e-05 8.21914e-05 8.14577e-05 8.0737e-05 8.0029e-05 7.93334e-05 7.86498e-05 7.7978e-05 7.73175e-05 7.66683e-05 7.60298e-05 7.5402e-05 7.47845e-05 7.41771e-05 7.35795e-05 7.29915e-05 7.24129e-05 7.18434e-05 7.12829e-05 7.0731e-05 7.01877e-05 6.96527e-05 6.91259e-05 6.86069e-05 6.80958e-05 6.75922e-05 6.70961e-05 6.66072e-05 6.61255e-05 6.56507e-05 6.51826e-05 6.47213e-05 6.42664e-05 6.3818e-05 6.33758e-05 6.29396e-05 6.25095e-05 6.20853e-05 6.16668e-05 6.12539e-05 6.08465e-05 6.04446e-05 6.00479e-05 5.96564e-05 5.92701e-05 5.88887e-05 5.85122e-05 5.81406e-05 5.77736e-05 5.74113e-05 5.70535e-05 5.67001e-05 5.63512e-05 5.60065e-05 5.5666e-05 5.53297e-05 5.49974e-05 5.46691e-05 5.43447e-05 5.40242e-05 5.37074e-05 5.33943e-05 5.30849e-05 5.27791e-05 5.24768e-05 5.2178e-05 5.18825e-05 5.15904e-05 5.13016e-05 5.1016e-05 5.07336e-05 5.04543e-05 5.01781e-05 4.99049e-05 4.96346e-05 4.93673e-05 4.91029e-05 4.88413e-05 4.85825e-05 4.83264e-05 4.80731e-05 4.78224e-05 4.75743e-05 4.73287e-05 4.70857e-05 4.68452e-05 4.66072e-05 4.63715e-05 4.61383e-05 4.59074e-05 4.56788e-05 4.54525e-05;
   (9) 0.00988176 0.00988176 0.00988176 0.00988176 0.00988176 0.00988176 0.00988176 0.00988176 0.00988176 0.800423 0.00444679 0.00406275 0.00374112 0.00346773 0.00323242 0.0030277 0.00284793 0.00268878 0.00254687 0.00241953 0.0023046 0.00220034 0.00210533 0.00201837 0.00193848 0.00186481 0.00179668 0.00173346 0.00167465 0.00161979 0.00156849 0.00152043 0.00147529 0.00143282 0.00139278 0.00135498 0.00131922 0.00128535 0.00125322 0.00122269 0.00119365 0.00116599 0.00113962 0.00111444 0.00109038 0.00106736 0.00104532 0.00102419 0.00100392 0.000984456 0.000965751 0.000947762 0.000930447 0.000913769 0.000897694 0.000882188 0.000867222 0.000852769 0.000838801 0.000825295 0.000812228 0.000799578 0.000787327 0.000775454 0.000763943 0.000752778 0.000741943 0.000731423 0.000721204 0.000711275 0.000701622 0.000692234 0.0004554 0.00044937 0.000443499 0.000437783 0.000432215 0.000426789 0.0004215 0.000416342 0.000411311 0.000406403 0.000401612 0.000396934 0.000392366 0.000387904 0.000383544 0.000379282 0.000281337 0.000278255 0.000275241 0.000272292 0.000269406 0.000266581 0.000263816 0.000261109 0.000258457 0.000255859 0.000253313 0.000250819 0.000248373 8.94457e-05 8.85767e-05 8.77246e-05 8.68887e-05 8.60687e-05 8.52641e-05 8.44745e-05 8.36995e-05 8.29386e-05 8.21914e-05 8.14577e-05 8.0737e-05 8.0029e-05 7.93334e-05 7.86498e-05 7.7978e-05 7.73175e-05 7.66683e-05 7.60298e-05 7.5402e-05 7.47845e-05 7.41771e-05 7.35795e-05 7.29915e-05 7.24129e-05 7.18434e-05 7.12829e-05 7.0731e-05 7.01877e-05 6.96527e-05 6.91259e-05 6.86069e-05 6.80958e-05 6.75922e-05 6.70961e-05 6.66072e-05 6.61255e-05 6.56507e-05 6.51826e-05 6.47213e-05 6.42664e-05 6.3818e-05 6.33758e-05 6.29396e-05 6.25095e-05 6.20853e-05 6.16668e-05 6.12539e-05 6.08465e-05 6.04446e-05 6.00479e-05 5.96564e-05 5.92701e-05 5.88887e-05 5.85122e-05 5.81406e-05 5.77736e-05 5.74113e-05 5.70535e-05 5.67001e-05 5.63512e-05 5.60065e-05 5.5666e-05 5.53297e-05 5.49974e-05 5.46691e-05 5.43447e-05 5.40242e-05 5.37074e-05 5.33943e-05 5.30849e-05 5.27791e-05 5.24768e-05 5.2178e-05 5.18825e-05 5.15904e-05 5.13016e-05 5.1016e-05 5.07336e-05 5.04543e-05 5.01781e-05 4.99049e-05 4.96346e-05 4.93673e-05 4.91029e-05 4.88413e-05 4.85825e-05 4.83264e-05 4.80731e-05 4.78224e-05 4.75743e-05 4.73287e-05 4.70857e-05 4.68452e-05 4.66072e-05 4.63715e-05 4.61383e-05 4.59074e-05 4.56788e-05 4.54525e-05;
   (10) 0.00892115 0.00892115 0.00892115 0.00892115 0.00892115 0.00892115 0.00892115 0.00892115 0.00892115 0.00892115 0.802903 0.00405507 0.00373404 0.00346117 0.0032263 0.00302197 0.00284254 0.00268369 0.00254205 0.00241495 0.00230024 0.00219618 0.00210135 0.00201455 0.00193481 0.00186129 0.00179328 0.00173018 0.00167148 0.00161672 0.00156553 0.00151755 0.0014725 0.00143011 0.00139015 0.00135242 0.00131673 0.00128292 0.00125085 0.00122038 0.00119139 0.00116379 0.00113747 0.00111234 0.00108832 0.00106534 0.00104334 0.00102225 0.00100202 0.000982594 0.000963925 0.000945969 0.000928687 0.000912041 0.000895996 0.000880519 0.000865582 0.000851156 0.000837214 0.000823734 0.000810691 0.000798066 0.000785837 0.000773987 0.000762499 0.000751354 0.000740539 0.000730039 0.00071984 0.000709929 0.000700295 0.000690924 0.000681808 0.000672935 0.000664296 0.000655882 0.000431789 0.000426368 0.000421084 0.000415932 0.000410906 0.000406002 0.000401216 0.000396543 0.000391979 0.000387522 0.000383166 0.000378908 0.000374746 0.000370676 0.000366695 0.000362799 0.000358987 0.000355256 0.000351603 0.000348025 0.00034452 0.000341087 0.000337723 0.000250819 0.000248373 8.94457e-05 8.85767e-05 8.77246e-05 8.68887e-05 8.60687e-05 8.52641e-05 8.44745e-05 8.36995e-05 8.29386e-05 8.21914e-05 8.14577e-05 8.0737e-05 8.0029e-05 7.93334e-05 7.86498e-05 7.7978e-05 7.73175e-05 7.66683e-05 7.60298e-05 7.5402e-05 7.47845e-05 7.41771e-05 7.35795e-05 7.29915e-05 7.24129e-05 7.18434e-05 7.12829e-05 7.0731e-05 7.01877e-05 6.96527e-05 6.91259e-05 6.86069e-05 6.80958e-05 6.75922e-05 6.70961e-05 6.66072e-05 6.61255e-05 6.56507e-05 6.51826e-05 6.47213e-05 6.42664e-05 6.3818e-05 6.33758e-05 6.29396e-05 6.25095e-05 6.20853e-05 6.16668e-05 6.12539e-05 6.08465e-05 6.04446e-05 6.00479e-05 5.96564e-05 5.92701e-05 5.88887e-05 5.85122e-05 5.81406e-05 5.77736e-05 5.74113e-05 5.70535e-05 5.67001e-05 5.63512e-05 5.60065e-05 5.5666e-05 5.53297e-05 5.49974e-05 5.46691e-05 5.43447e-05 5.40242e-05 5.37074e-05 5.33943e-05 5.30849e-05 5.27791e-05 5.24768e-05 5.2178e-05 5.18825e-05 5.15904e-05 5.13016e-05 5.1016e-05 5.07336e-05 5.04543e-05 5.01781e-05 4.99049e-05 4.96346e-05 4.93673e-05 4.91029e-05 4.88413e-05 4.85825e-05 4.83264e-05 4.80731e-05 4.78224e-05 4.75743e-05 4.73287e-05 4.70857e-05 4.68452e-05 4.66072e-05 4.63715e-05 4.61383e-05 4.59074e-05 4.56788e-05 4.54525e-05;
   (11) 0.00814712 0.00814712 0.00814712 0.00814712 0.00814712 0.00814712 0.00814712 0.00814712 0.00814712 0.00814712 0.00814712 0.806565 0.0037341 0.00346122 0.00322635 0.00302202 0.00284258 0.00268373 0.00254209 0.00241499 0.00230028 0.00219622 0.00210138 0.00201458 0.00193484 0.00186132 0.00179331 0.00173021 0.0016715 0.00161675 0.00156555 0.00151757 0.00147252 0.00143013 0.00139017 0.00135244 0.00131675 0.00128294 0.00125087 0.0012204 0.00119141 0.00116381 0.00113748 0.00111235 0.00108834 0.00106536 0.00104336 0.00102227 0.00100204 0.000982609 0.000963939 0.000945984 0.000928701 0.000912055 0.000896009 0.000880533 0.000865595 0.000851168 0.000837227 0.000823746 0.000810703 0.000798078 0.000785849 0.000773999 0.00076251 0.000751366 0.000740551 0.00073005 0.000719851 0.00070994 0.000700305 0.000690935 0.000681818 0.000672945 0.000664306 0.000655892 0.000647693 0.000639702 0.000631911 0.000416208 0.000411179 0.000406272 0.000401482 0.000396806 0.00039224 0.000387779 0.00038342 0.00037916 0.000374995 0.000370922 0.000366938 0.00036304 0.000269419 0.000266595 0.00026383 0.000261122 0.00025847 0.000255872 0.000253326 0.000250831 0.000198708 8.94457e-05 8.85767e-05 8.77246e-05 8.68887e-05 8.60687e-05 8.52641e-05 8.44745e-05 8.36995e-05 8.29386e-05 8.21914e-05 8.14577e-05 8.0737e-05 8.0029e-05 7.93334e-05 7.86498e-05 7.7978e-05 7.73175e-05 7.66683e-05 7.60298e-05 7.5402e-05 7.47845e-05 7.41771e-05 7.35795e-05 7.29915e-05 7.24129e-05 7.18434e-05 7.12829e-05 7.0731e-05 7.01877e-05 6.96527e-05 6.91259e-05 6.86069e-05 6.80958e-05 6.75922e-05 6.70961e-05 6.66072e-05 6.61255e-05 6.56507e-05 6.51826e-05 6.47213e-05 6.42664e-05 6.3818e-05 6.33758e-05 6.29396e-05 6.25095e-05 6.20853e-05 6.16668e-05 6.12539e-05 6.08465e-05 6.04446e-05 6.00479e-05 5.96564e-05 5.92701e-05 5.88887e-05 5.85122e-05 5.81406e-05 5.77736e-05 5.74113e-05 5.70535e-05 5.67001e-05 5.63512e-05 5.60065e-05 5.5666e-05 5.53297e-05 5.49974e-05 5.46691e-05 5.43447e-05 5.40242e-05 5.37074e-05 5.33943e-05 5.30849e-05 5.27791e-05 5.24768e-05 5.2178e-05 5.18825e-05 5.15904e-05 5.13016e-05 5.1016e-05 5.07336e-05 5.04543e-05 5.01781e-05 4.99049e-05 4.96346e-05 4.93673e-05 4.91029e-05 4.88413e-05 4.85825e-05 4.83264e-05 4.80731e-05 4.78224e-05 4.75743e-05 4.73287e-05 4.70857e-05 4.68452e-05 4.66072e-05 4.63715e-05 4.61383e-05 4.59074e-05 4.56788e-05 4.54525e-05;
   (12) 0.00759949 0.00759949 0.00759949 0.00759949 0.00759949 0.00759949 0.00759949 0.00759949 0.00759949 0.00759949 0.00759949 0.00759949 0.820745 0.00350746 0.00326945 0.00306239 0.00288056 0.00271958 0.00257605 0.00244725 0.002331 0.00222555 0.00212945 0.00204149 0.00196069 0.00188618 0.00181726 0.00175332 0.00169383 0.00163835 0.00158646 0.00153785 0.00149219 0.00144923 0.00140874 0.0013705 0.00133434 0.00130008 0.00126758 0.0012367 0.00120733 0.00117935 0.00115268 0.00112721 0.00110287 0.000719727 0.000704602 0.000690111 0.000676213 0.000662872 0.000650057 0.000637735 0.00062588 0.000614465 0.000603465 0.000592859 0.000582625 0.000572744 0.000563198 0.000553971 0.000545046 0.000536408 0.000528045 0.000519943 0.000512089 0.000504474 0.000497085 0.000489913 0.000482949 0.000476183 0.000352205 0.000347368 0.000342665 0.000338088 0.000333633 0.000329296 0.000325072 0.000320955 0.000253555 0.000250409 0.000247342 0.000244349 0.000241429 0.000238578 0.000235795 0.000233076 0.00023042 0.000227825 0.000225288 0.000222807 0.000220381 0.000218008 0.000215685 0.000177844 0.000175983 0.000174162 0.000172378 0.00017063 0.000168918 0.00016724 0.000165596 8.94457e-05 8.85767e-05 8.77246e-05 8.68887e-05 8.60687e-05 8.52641e-05 8.44745e-05 8.36995e-05 8.29386e-05 8.21914e-05 8.14577e-05 8.0737e-05 8.0029e-05 7.93334e-05 7.86498e-05 7.7978e-05 7.73175e-05 7.66683e-05 7.60298e-05 7.5402e-05 7.47845e-05 7.41771e-05 7.35795e-05 7.29915e-05 7.24129e-05 7.18434e-05 7.12829e-05 7.0731e-05 7.01877e-05 6.96527e-05 6.91259e-05 6.86069e-05 6.80958e-05 6.75922e-05 6.70961e-05 6.66072e-05 6.61255e-05 6.56507e-05 6.51826e-05 6.47213e-05 6.42664e-05 6.3818e-05 6.33758e-05 6.29396e-05 6.25095e-05 6.20853e-05 6.16668e-05 6.12539e-05 6.08465e-05 6.04446e-05 6.00479e-05 5.96564e-05 5.92701e-05 5.88887e-05 5.85122e-05 5.81406e-05 5.77736e-05 5.74113e-05 5.70535e-05 5.67001e-05 5.63512e-05 5.60065e-05 5.5666e-05 5.53297e-05 5.49974e-05 5.46691e-05 5.43447e-05 5.40242e-05 5.37074e-05 5.33943e-05 5.30849e-05 5.27791e-05 5.24768e-05 5.2178e-05 5.18825e-05 5.15904e-05 5.13016e-05 5.1016e-05 5.07336e-05 5.04543e-05 5.01781e-05 4.99049e-05 4.96346e-05 4.93673e-05 4.91029e-05 4.88413e-05 4.85825e-05 4.83264e-05 4.80731e-05 4.78224e-05 4.75743e-05 4.73287e-05 4.70857e-05 4.68452e-05 4.66072e-05 4.63715e-05 4.61383e-05 4.59074e-05 4.56788e-05 4.54525e-05;
   (13) 0.00704188 0.00704188 0.00704188 0.00704188 0.00704188 0.00704188 0.00704188 0.00704188 0.00704188 0.00704188 0.00704188 0.00704188 0.00704188 0.8239 0.00326944 0.00306238 0.00288055 0.00271958 0.00257605 0.00244724 0.002331 0.00222555 0.00212945 0.00204149 0.00196068 0.00188618 0.00181726 0.00175332 0.00169383 0.00163834 0.00158646 0.00153784 0.00149219 0.00144923 0.00140874 0.0013705 0.00133434 0.00130008 0.00126757 0.0012367 0.00120733 0.00117935 0.00115268 0.00112721 0.00110287 0.000719726 0.000704601 0.000690109 0.000676211 0.000662871 0.000650056 0.000637734 0.000625879 0.000614464 0.000603464 0.000592858 0.000582624 0.000572743 0.000563197 0.00055397 0.000545045 0.000536407 0.000528044 0.000519942 0.000384066 0.000378305 0.000372717 0.000367293 0.000362027 0.000356911 0.00035194 0.000347107 0.000342406 0.000337833 0.000333382 0.000329048 0.000324827 0.000320714 0.000316705 0.000312796 0.000308984 0.000305264 0.000301635 0.000298091 0.000294631 0.000291252 0.00028795 0.000284723 0.000281568 0.000278484 0.000220373 0.000218 0.000215678 0.000213405 0.00021118 0.000209002 0.00017239 0.000170643 0.000144798 0.000143356 0.000141943 8.94457e-05 8.85767e-05 8.77246e-05 8.68887e-05 8.60687e-05 8.52641e-05 8.44745e-05 8.36995e-05 8.29386e-05 8.21914e-05 8.14577e-05 8.0737e-05 8.0029e-05 7.93334e-05 7.86498e-05 7.7978e-05 7.73175e-05 7.66683e-05 7.60298e-05 7.5402e-05 7.47845e-05 7.41771e-05 7.35795e-05 7.29915e-05 7.24129e-05 7.18434e-05 7.12829e-05 7.0731e-05 7.01877e-05 6.96527e-05 6.91259e-05 6.86069e-05 6.80958e-05 6.75922e-05 6.70961e-05 6.66072e-05 6.61255e-05 6.56507e-05 6.51826e-05 6.47213e-05 6.42664e-05 6.3818e-05 6.33758e-05 6.29396e-05 6.25095e-05 6.20853e-05 6.16668e-05 6.12539e-05 6.08465e-05 6.04446e-05 6.00479e-05 5.96564e-05 5.92701e-05 5.88887e-05 5.85122e-05 5.81406e-05 5.77736e-05 5.74113e-05 5.70535e-05 5.67001e-05 5.63512e-05 5.60065e-05 5.5666e-05 5.53297e-05 5.49974e-05 5.46691e-05 5.43447e-05 5.40242e-05 5.37074e-05 5.33943e-05 5.30849e-05 5.27791e-05 5.24768e-05 5.2178e-05 5.18825e-05 5.15904e-05 5.13016e-05 5.1016e-05 5.07336e-05 5.04543e-05 5.01781e-05 4.99049e-05 4.96346e-05 4.93673e-05 4.91029e-05 4.88413e-05 4.85825e-05 4.83264e-05 4.80731e-05 4.78224e-05 4.75743e-05 4.73287e-05 4.70857e-05 4.68452e-05 4.66072e-05 4.63715e-05 4.61383e-05 4.59074e-05 4.56788e-05 4.54525e-05;
   (14) 0.00646468 0.00646468 0.00646468 0.00646468 0.00646468 0.00646468 0.00646468 0.00646468 0.00646468 0.00646468 0.00646468 0.00646468 0.00646468 0.00646468 0.814549 0.00301685 0.00283772 0.00267914 0.00253775 0.00241086 0.00229634 0.00219246 0.00209779 0.00201114 0.00193153 0.00185813 0.00179024 0.00172725 0.00166865 0.00161398 0.00156287 0.00151498 0.00147 0.00142769 0.00138779 0.00135013 0.0013145 0.00128075 0.00124873 0.00121831 0.00118938 0.00116182 0.00113554 0.00111045 0.00108647 0.00106354 0.00104157 0.00102052 0.00100032 0.000980928 0.000962291 0.000944366 0.000927113 0.000910495 0.000894477 0.000879027 0.000864115 0.000849713 0.000835795 0.000822337 0.000809317 0.000796713 0.000784505 0.000772675 0.000761206 0.000750081 0.000739284 0.000728802 0.00071862 0.000708726 0.000699107 0.000689753 0.000680652 0.000671794 0.00066317 0.00065477 0.000646585 0.000638608 0.00063083 0.000623244 0.000615843 0.00060862 0.000601569 0.000594684 0.000587958 0.000581387 0.000574964 0.000568686 0.000562547 0.000371028 0.000275282 0.000272333 0.000269447 0.000266622 0.000263856 0.000261148 0.000258496 0.000255898 0.000202681 0.000200675 0.000198708 8.94457e-05 8.85767e-05 8.77246e-05 8.68887e-05 8.60687e-05 8.52641e-05 8.44745e-05 8.36995e-05 8.29386e-05 8.21914e-05 8.14577e-05 8.0737e-05 8.0029e-05 7.93334e-05 7.86498e-05 7.7978e-05 7.73175e-05 7.66683e-05 7.60298e-05 7.5402e-05 7.47845e-05 7.41771e-05 7.35795e-05 7.29915e-05 7.24129e-05 7.18434e-05 7.12829e-05 7.0731e-05 7.01877e-05 6.96527e-05 6.91259e-05 6.86069e-05 6.80958e-05 6.75922e-05 6.70961e-05 6.66072e-05 6.61255e-05 6.56507e-05 6.51826e-05 6.47213e-05 6.42664e-05 6.3818e-05 6.33758e-05 6.29396e-05 6.25095e-05 6.20853e-05 6.16668e-05 6.12539e-05 6.08465e-05 6.04446e-05 6.00479e-05 5.96564e-05 5.92701e-05 5.88887e-05 5.85122e-05 5.81406e-05 5.77736e-05 5.74113e-05 5.70535e-05 5.67001e-05 5.63512e-05 5.60065e-05 5.5666e-05 5.53297e-05 5.49974e-05 5.46691e-05 5.43447e-05 5.40242e-05 5.37074e-05 5.33943e-05 5.30849e-05 5.27791e-05 5.24768e-05 5.2178e-05 5.18825e-05 5.15904e-05 5.13016e-05 5.1016e-05 5.07336e-05 5.04543e-05 5.01781e-05 4.99049e-05 4.96346e-05 4.93673e-05 4.91029e-05 4.88413e-05 4.85825e-05 4.83264e-05 4.80731e-05 4.78224e-05 4.75743e-05 4.73287e-05 4.70857e-05 4.68452e-05 4.66072e-05 4.63715e-05 4.61383e-05 4.59074e-05 4.56788e-05 4.54525e-05;
   (15) 0.00622301 0.00622301 0.00622301 0.00622301 0.00622301 0.00622301 0.00622301 0.00622301 0.00622301 0.00622301 0.00622301 0.00622301 0.00622301 0.00622301 0.00622301 0.840107 0.00291704 0.00275403 0.00260868 0.00165216 0.00157231 0.00149993 0.00143402 0.00137375 0.00131842 0.00126744 0.00122032 0.00117663 0.00113601 0.00109814 0.00106276 0.00102962 0.000998514 0.000969264 0.000941707 0.000915698 0.00089111 0.000867828 0.000845752 0.000824789 0.000804857 0.00078588 0.000767793 0.000750532 0.000734043 0.000718275 0.000703181 0.000688718 0.000674848 0.000661535 0.000648745 0.000636449 0.000624617 0.000613225 0.000602247 0.000591662 0.000581449 0.000571588 0.000562062 0.000552853 0.000543946 0.000535326 0.000526979 0.000518893 0.000511056 0.000503456 0.000496082 0.000488924 0.000481974 0.000475222 0.000468659 0.000462278 0.000456072 0.000450033 0.000444154 0.000438429 0.000432853 0.000427419 0.000422121 0.000312717 0.000308906 0.000305188 0.000301559 0.000298016 0.000294557 0.000291179 0.000287877 0.000284651 0.000281497 0.000278414 0.000275397 0.000272447 0.000215648 0.000213375 0.000211151 0.000208972 0.000206839 0.000204749 0.000168918 0.00016724 0.000165596 8.94457e-05 8.85767e-05 8.77246e-05 8.68887e-05 8.60687e-05 8.52641e-05 8.44745e-05 8.36995e-05 8.29386e-05 8.21914e-05 8.14577e-05 8.0737e-05 8.0029e-05 7.93334e-05 7.86498e-05 7.7978e-05 7.73175e-05 7.66683e-05 7.60298e-05 7.5402e-05 7.47845e-05 7.41771e-05 7.35795e-05 7.29915e-05 7.24129e-05 7.18434e-05 7.12829e-05 7.0731e-05 7.01877e-05 6.96527e-05 6.91259e-05 6.86069e-05 6.80958e-05 6.75922e-05 6.70961e-05 6.66072e-05 6.61255e-05 6.56507e-05 6.51826e-05 6.47213e-05 6.42664e-05 6.3818e-05 6.33758e-05 6.29396e-05 6.25095e-05 6.20853e-05 6.16668e-05 6.12539e-05 6.08465e-05 6.04446e-05 6.00479e-05 5.96564e-05 5.92701e-05 5.88887e-05 5.85122e-05 5.81406e-05 5.77736e-05 5.74113e-05 5.70535e-05 5.67001e-05 5.63512e-05 5.60065e-05 5.5666e-05 5.53297e-05 5.49974e-05 5.46691e-05 5.43447e-05 5.40242e-05 5.37074e-05 5.33943e-05 5.30849e-05 5.27791e-05 5.24768e-05 5.2178e-05 5.18825e-05 5.15904e-05 5.13016e-05 5.1016e-05 5.07336e-05 5.04543e-05 5.01781e-05 4.99049e-05 4.96346e-05 4.93673e-05 4.91029e-05 4.88413e-05 4.85825e-05 4.83264e-05 4.80731e-05 4.78224e-05 4.75743e-05 4.73287e-05 4.70857e-05 4.68452e-05 4.66072e-05 4.63715e-05 4.61383e-05 4.59074e-05 4.56788e-05 4.54525e-05;
   (16) 0.00570753 0.00570753 0.00570753 0.00570753 0.00570753 0.00570753 0.00570753 0.00570753 0.00570753 0.00570753 0.00570753 0.00570753 0.00570753 0.00570753 0.00570753 0.00570753 0.821884 0.0026859 0.00254414 0.00241693 0.00230213 0.00219798 0.00210307 0.00201621 0.0019364 0.00186281 0.00179475 0.0017316 0.00167285 0.00161805 0.00156681 0.0015188 0.00147371 0.00143128 0.00139129 0.00135353 0.00131781 0.00128397 0.00125187 0.00122138 0.00119237 0.00116474 0.0011384 0.00111325 0.00108921 0.00106622 0.0010442 0.00102309 0.00100284 0.0009834 0.000964716 0.000946745 0.000929449 0.000912789 0.000896731 0.000881242 0.000866292 0.000851854 0.000837901 0.00082441 0.000811356 0.000798721 0.000786482 0.000774622 0.000763124 0.000751971 0.000741147 0.000730638 0.000720431 0.000710512 0.000700869 0.000691491 0.000682367 0.000673487 0.000664841 0.00065642 0.000648215 0.000640217 0.00063242 0.000624815 0.000617395 0.000610154 0.000301542 0.000298 0.000294541 0.000291163 0.000287862 0.000284636 0.000281482 0.000278398 0.000275383 0.000272432 0.000269545 0.000213375 0.000211151 0.000208972 0.000206839 0.000204749 0.000168918 0.00016724 0.000165596 8.94457e-05 8.85767e-05 8.77246e-05 8.68887e-05 8.60687e-05 8.52641e-05 8.44745e-05 8.36995e-05 8.29386e-05 8.21914e-05 8.14577e-05 8.0737e-05 8.0029e-05 7.93334e-05 7.86498e-05 7.7978e-05 7.73175e-05 7.66683e-05 7.60298e-05 7.5402e-05 7.47845e-05 7.41771e-05 7.35795e-05 7.29915e-05 7.24129e-05 7.18434e-05 7.12829e-05 7.0731e-05 7.01877e-05 6.96527e-05 6.91259e-05 6.86069e-05 6.80958e-05 6.75922e-05 6.70961e-05 6.66072e-05 6.61255e-05 6.56507e-05 6.51826e-05 6.47213e-05 6.42664e-05 6.3818e-05 6.33758e-05 6.29396e-05 6.25095e-05 6.20853e-05 6.16668e-05 6.12539e-05 6.08465e-05 6.04446e-05 6.00479e-05 5.96564e-05 5.92701e-05 5.88887e-05 5.85122e-05 5.81406e-05 5.77736e-05 5.74113e-05 5.70535e-05 5.67001e-05 5.63512e-05 5.60065e-05 5.5666e-05 5.53297e-05 5.49974e-05 5.46691e-05 5.43447e-05 5.40242e-05 5.37074e-05 5.33943e-05 5.30849e-05 5.27791e-05 5.24768e-05 5.2178e-05 5.18825e-05 5.15904e-05 5.13016e-05 5.1016e-05 5.07336e-05 5.04543e-05 5.01781e-05 4.99049e-05 4.96346e-05 4.93673e-05 4.91029e-05 4.88413e-05 4.85825e-05 4.83264e-05 4.80731e-05 4.78224e-05 4.75743e-05 4.73287e-05 4.70857e-05 4.68452e-05 4.66072e-05 4.63715e-05 4.61383e-05 4.59074e-05 4.56788e-05 4.54525e-05;
   (17) 0.00537554 0.00537554 0.00537554 0.00537554 0.00537554 0.00537554 0.00537554 0.00537554 0.00537554 0.00537554 0.00537554 0.00537554 0.00537554 0.00537554 0.00537554 0.00537554 0.00537554 0.822457 0.00253845 0.00241153 0.00229698 0.00219307 0.00209837 0.00201169 0.00193206 0.00185865 0.00179073 0.00172773 0.00166911 0.00161443 0.00156331 0.0015154 0.00147041 0.00142808 0.00138818 0.0013505 0.00131486 0.0012811 0.00124907 0.00121865 0.0011897 0.00116214 0.00113585 0.00111076 0.00108677 0.00106383 0.00104186 0.0010208 0.0010006 0.0009812 0.000962557 0.000944627 0.000927369 0.000910747 0.000894724 0.00087927 0.000864354 0.000849948 0.000836026 0.000822565 0.000809541 0.000796933 0.000784722 0.000772889 0.000761417 0.000750288 0.000739489 0.000729003 0.000718819 0.000708922 0.000699301 0.000689944 0.000680841 0.00067198 0.000663354 0.000654951 0.000646764 0.000638785 0.000631005 0.000623417 0.000616013 0.000608789 0.000601736 0.000594848 0.000392081 0.000387622 0.000383265 0.000379006 0.000374843 0.000370771 0.000366789 0.000362893 0.00035908 0.000355347 0.000351693 0.000348114 0.000258457 0.000255859 0.000253313 0.000250819 0.000248373 8.94457e-05 8.85767e-05 8.77246e-05 8.68887e-05 8.60687e-05 8.52641e-05 8.44745e-05 8.36995e-05 8.29386e-05 8.21914e-05 8.14577e-05 8.0737e-05 8.0029e-05 7.93334e-05 7.86498e-05 7.7978e-05 7.73175e-05 7.66683e-05 7.60298e-05 7.5402e-05 7.47845e-05 7.41771e-05 7.35795e-05 7.29915e-05 7.24129e-05 7.18434e-05 7.12829e-05 7.0731e-05 7.01877e-05 6.96527e-05 6.91259e-05 6.86069e-05 6.80958e-05 6.75922e-05 6.70961e-05 6.66072e-05 6.61255e-05 6.56507e-05 6.51826e-05 6.47213e-05 6.42664e-05 6.3818e-05 6.33758e-05 6.29396e-05 6.25095e-05 6.20853e-05 6.16668e-05 6.12539e-05 6.08465e-05 6.04446e-05 6.00479e-05 5.96564e-05 5.92701e-05 5.88887e-05 5.85122e-05 5.81406e-05 5.77736e-05 5.74113e-05 5.70535e-05 5.67001e-05 5.63512e-05 5.60065e-05 5.5666e-05 5.53297e-05 5.49974e-05 5.46691e-05 5.43447e-05 5.40242e-05 5.37074e-05 5.33943e-05 5.30849e-05 5.27791e-05 5.24768e-05 5.2178e-05 5.18825e-05 5.15904e-05 5.13016e-05 5.1016e-05 5.07336e-05 5.04543e-05 5.01781e-05 4.99049e-05 4.96346e-05 4.93673e-05 4.91029e-05 4.88413e-05 4.85825e-05 4.83264e-05 4.80731e-05 4.78224e-05 4.75743e-05 4.73287e-05 4.70857e-05 4.68452e-05 4.66072e-05 4.63715e-05 4.61383e-05 4.59074e-05 4.56788e-05 4.54525e-05;
   (18) 0.00509571 0.00509571 0.00509571 0.00509571 0.00509571 0.00509571 0.00509571 0.00509571 0.00509571 0.00509571 0.00509571 0.00509571 0.00509571 0.00509571 0.00509571 0.00509571 0.00509571 0.00509571 0.825505 0.00241376 0.0022991 0.0021951 0.00210031 0.00201356 0.00193385 0.00186037 0.00179239 0.00172933 0.00167065 0.00161592 0.00156475 0.0015168 0.00147177 0.0014294 0.00138946 0.00135175 0.00131608 0.00128229 0.00125023 0.00121978 0.00119081 0.00116321 0.0011369 0.00111179 0.00108778 0.00106482 0.00104283 0.00102175 0.00100153 0.000982108 0.000963448 0.000945502 0.000928228 0.00091159 0.000895553 0.000880084 0.000865154 0.000850735 0.0008368 0.000823326 0.00081029 0.000797671 0.000785449 0.000773605 0.000762122 0.000750983 0.000740173 0.000729678 0.000719484 0.000709578 0.000699948 0.000690583 0.000681471 0.000672602 0.000663968 0.000655557 0.000647363 0.000639376 0.000631589 0.000623994 0.000616584 0.000406235 0.000401446 0.00039677 0.000392204 0.000387744 0.000383386 0.000379126 0.000374961 0.000370889 0.000366905 0.000363007 0.000359193 0.000266595 0.00026383 0.000261122 0.00025847 0.000255872 0.000253326 0.000250831 0.000198708 8.94457e-05 8.85767e-05 8.77246e-05 8.68887e-05 8.60687e-05 8.52641e-05 8.44745e-05 8.36995e-05 8.29386e-05 8.21914e-05 8.14577e-05 8.0737e-05 8.0029e-05 7.93334e-05 7.86498e-05 7.7978e-05 7.73175e-05 7.66683e-05 7.60298e-05 7.5402e-05 7.47845e-05 7.41771e-05 7.35795e-05 7.29915e-05 7.24129e-05 7.18434e-05 7.12829e-05 7.0731e-05 7.01877e-05 6.96527e-05 6.91259e-05 6.86069e-05 6.80958e-05 6.75922e-05 6.70961e-05 6.66072e-05 6.61255e-05 6.56507e-05 6.51826e-05 6.47213e-05 6.42664e-05 6.3818e-05 6.33758e-05 6.29396e-05 6.25095e-05 6.20853e-05 6.16668e-05 6.12539e-05 6.08465e-05 6.04446e-05 6.00479e-05 5.96564e-05 5.92701e-05 5.88887e-05 5.85122e-05 5.81406e-05 5.77736e-05 5.74113e-05 5.70535e-05 5.67001e-05 5.63512e-05 5.60065e-05 5.5666e-05 5.53297e-05 5.49974e-05 5.46691e-05 5.43447e-05 5.40242e-05 5.37074e-05 5.33943e-05 5.30849e-05 5.27791e-05 5.24768e-05 5.2178e-05 5.18825e-05 5.15904e-05 5.13016e-05 5.1016e-05 5.07336e-05 5.04543e-05 5.01781e-05 4.99049e-05 4.96346e-05 4.93673e-05 4.91029e-05 4.88413e-05 4.85825e-05 4.83264e-05 4.80731e-05 4.78224e-05 4.75743e-05 4.73287e-05 4.70857e-05 4.68452e-05 4.66072e-05 4.63715e-05 4.61383e-05 4.59074e-05 4.56788e-05 4.54525e-05;
   (19) 0.00484335 0.00484335 0.00484335 0.00484335 0.00484335 0.00484335 0.00484335 0.00484335 0.00484335 0.00484335 0.00484335 0.00484335 0.00484335 0.00484335 0.00484335 0.00484335 0.00484335 0.00484335 0.00484335 0.828213 0.00230059 0.00219652 0.00210167 0.00201486 0.00193511 0.00186157 0.00179355 0.00173045 0.00167173 0.00161697 0.00156577 0.00151778 0.00147272 0.00143033 0.00139036 0.00135262 0.00131693 0.00128312 0.00125104 0.00122056 0.00119158 0.00116397 0.00113764 0.00111251 0.00108849 0.00106551 0.0010435 0.00102241 0.00100217 0.000982744 0.000964072 0.000946114 0.000928829 0.00091218 0.000896132 0.000880654 0.000865714 0.000851285 0.000837342 0.000823859 0.000810815 0.000798187 0.000785957 0.000774105 0.000762615 0.000751469 0.000740652 0.000730151 0.00071995 0.000710038 0.000700401 0.00069103 0.000681912 0.000673038 0.000664397 0.000655982 0.000647782 0.00063979 0.000631998 0.000624398 0.000616983 0.000609747 0.000401788 0.000397109 0.000294404 0.000291027 0.000287728 0.000284503 0.000281351 0.000278269 0.000275254 0.000272305 0.000269419 0.000266595 0.00026383 0.000261122 0.00025847 0.000255872 0.000253326 0.000250831 0.000198708 8.94457e-05 8.85767e-05 8.77246e-05 8.68887e-05 8.60687e-05 8.52641e-05 8.44745e-05 8.36995e-05 8.29386e-05 8.21914e-05 8.14577e-05 8.0737e-05 8.0029e-05 7.93334e-05 7.86498e-05 7.7978e-05 7.73175e-05 7.66683e-05 7.60298e-05 7.5402e-05 7.47845e-05 7.41771e-05 7.35795e-05 7.29915e-05 7.24129e-05 7.18434e-05 7.12829e-05 7.0731e-05 7.01877e-05 6.96527e-05 6.91259e-05 6.86069e-05 6.80958e-05 6.75922e-05 6.70961e-05 6.66072e-05 6.61255e-05 6.56507e-05 6.51826e-05 6.47213e-05 6.42664e-05 6.3818e-05 6.33758e-05 6.29396e-05 6.25095e-05 6.20853e-05 6.16668e-05 6.12539e-05 6.08465e-05 6.04446e-05 6.00479e-05 5.96564e-05 5.92701e-05 5.88887e-05 5.85122e-05 5.81406e-05 5.77736e-05 5.74113e-05 5.70535e-05 5.67001e-05 5.63512e-05 5.60065e-05 5.5666e-05 5.53297e-05 5.49974e-05 5.46691e-05 5.43447e-05 5.40242e-05 5.37074e-05 5.33943e-05 5.30849e-05 5.27791e-05 5.24768e-05 5.2178e-05 5.18825e-05 5.15904e-05 5.13016e-05 5.1016e-05 5.07336e-05 5.04543e-05 5.01781e-05 4.99049e-05 4.96346e-05 4.93673e-05 4.91029e-05 4.88413e-05 4.85825e-05 4.83264e-05 4.80731e-05 4.78224e-05 4.75743e-05 4.73287e-05 4.70857e-05 4.68452e-05 4.66072e-05 4.63715e-05 4.61383e-05 4.59074e-05 4.56788e-05 4.54525e-05;
   (20) 0.00460754 0.00460754 0.00460754 0.00460754 0.00460754 0.00460754 0.00460754 0.00460754 0.00460754 0.00460754 0.00460754 0.00460754 0.00460754 0.00460754 0.00460754 0.00460754 0.00460754 0.00460754 0.00460754 0.00460754 0.829358 0.00219407 0.00209933 0.00201261 0.00193295 0.0018595 0.00179155 0.00172852 0.00166987 0.00161517 0.00156402 0.00151609 0.00147108 0.00142873 0.00138881 0.00135112 0.00131546 0.00128169 0.00124964 0.0012192 0.00119025 0.00116267 0.00113637 0.00111126 0.00108727 0.00106432 0.00104234 0.00102127 0.00100106 0.000981648 0.000962997 0.000945059 0.000927793 0.000911163 0.000895133 0.000879672 0.000864749 0.000850336 0.000836408 0.000822941 0.000809911 0.000797298 0.000785081 0.000773242 0.000761765 0.000750631 0.000739827 0.000729336 0.000719147 0.000709246 0.00069962 0.000690259 0.000681152 0.000672287 0.000663657 0.00065525 0.00064706 0.000639077 0.000631293 0.000623701 0.000616295 0.000609067 0.000602011 0.00059512 0.00039226 0.000387799 0.00038344 0.000379179 0.000375014 0.000370941 0.000366957 0.000363059 0.000269433 0.000266608 0.000263843 0.000261135 0.000258483 0.000255885 0.000253339 0.000200675 0.000198708 8.94457e-05 8.85767e-05 8.77246e-05 8.68887e-05 8.60687e-05 8.52641e-05 8.44745e-05 8.36995e-05 8.29386e-05 8.21914e-05 8.14577e-05 8.0737e-05 8.0029e-05 7.93334e-05 7.86498e-05 7.7978e-05 7.73175e-05 7.66683e-05 7.60298e-05 7.5402e-05 7.47845e-05 7.41771e-05 7.35795e-05 7.29915e-05 7.24129e-05 7.18434e-05 7.12829e-05 7.0731e-05 7.01877e-05 6.96527e-05 6.91259e-05 6.86069e-05 6.80958e-05 6.75922e-05 6.70961e-05 6.66072e-05 6.61255e-05 6.56507e-05 6.51826e-05 6.47213e-05 6.42664e-05 6.3818e-05 6.33758e-05 6.29396e-05 6.25095e-05 6.20853e-05 6.16668e-05 6.12539e-05 6.08465e-05 6.04446e-05 6.00479e-05 5.96564e-05 5.92701e-05 5.88887e-05 5.85122e-05 5.81406e-05 5.77736e-05 5.74113e-05 5.70535e-05 5.67001e-05 5.63512e-05 5.60065e-05 5.5666e-05 5.53297e-05 5.49974e-05 5.46691e-05 5.43447e-05 5.40242e-05 5.37074e-05 5.33943e-05 5.30849e-05 5.27791e-05 5.24768e-05 5.2178e-05 5.18825e-05 5.15904e-05 5.13016e-05 5.1016e-05 5.07336e-05 5.04543e-05 5.01781e-05 4.99049e-05 4.96346e-05 4.93673e-05 4.91029e-05 4.88413e-05 4.85825e-05 4.83264e-05 4.80731e-05 4.78224e-05 4.75743e-05 4.73287e-05 4.70857e-05 4.68452e-05 4.66072e-05 4.63715e-05 4.61383e-05 4.59074e-05 4.56788e-05 4.54525e-05;
   (21) 0.00438448 0.00438448 0.00438448 0.00438448 0.00438448 0.00438448 0.00438448 0.00438448 0.00438448 0.00438448 0.00438448 0.00438448 0.00438448 0.00438448 0.00438448 0.00438448 0.00438448 0.00438448 0.00438448 0.00438448 0.00438448 0.828667 0.00209259 0.00200616 0.00192675 0.00185353 0.00178581 0.00172297 0.00166452 0.00160999 0.00155901 0.00151123 0.00146637 0.00142415 0.00138436 0.00134678 0.00131124 0.00127758 0.00124564 0.00121529 0.00118643 0.00115894 0.00113273 0.0011077 0.00108379 0.00106091 0.001039 0.00101799 0.000997846 0.0009785 0.000959909 0.000942028 0.000924818 0.000908241 0.000892263 0.000876851 0.000861976 0.00084761 0.000833726 0.000820302 0.000807314 0.000794741 0.000782563 0.000770763 0.000759322 0.000748224 0.000737454 0.000726998 0.000716841 0.000706972 0.000697377 0.000688046 0.000678968 0.000670132 0.000661529 0.000653149 0.000644985 0.000637027 0.000629269 0.000621701 0.000614319 0.000607114 0.00060008 0.000593212 0.000586503 0.000579948 0.000573541 0.000567279 0.000561155 0.000555165 0.000549305 0.00054357 0.000537957 0.000532462 0.000527081 0.00052181 0.000516646 0.000511586 0.000253313 0.000250819 0.000248373 8.94457e-05 8.85767e-05 8.77246e-05 8.68887e-05 8.60687e-05 8.52641e-05 8.44745e-05 8.36995e-05 8.29386e-05 8.21914e-05 8.14577e-05 8.0737e-05 8.0029e-05 7.93334e-05 7.86498e-05 7.7978e-05 7.73175e-05 7.66683e-05 7.60298e-05 7.5402e-05 7.47845e-05 7.41771e-05 7.35795e-05 7.29915e-05 7.24129e-05 7.18434e-05 7.12829e-05 7.0731e-05 7.01877e-05 6.96527e-05 6.91259e-05 6.86069e-05 6.80958e-05 6.75922e-05 6.70961e-05 6.66072e-05 6.61255e-05 6.56507e-05 6.51826e-05 6.47213e-05 6.42664e-05 6.3818e-05 6.33758e-05 6.29396e-05 6.25095e-05 6.20853e-05 6.16668e-05 6.12539e-05 6.08465e-05 6.04446e-05 6.00479e-05 5.96564e-05 5.92701e-05 5.88887e-05 5.85122e-05 5.81406e-05 5.77736e-05 5.74113e-05 5.70535e-05 5.67001e-05 5.63512e-05 5.60065e-05 5.5666e-05 5.53297e-05 5.49974e-05 5.46691e-05 5.43447e-05 5.40242e-05 5.37074e-05 5.33943e-05 5.30849e-05 5.27791e-05 5.24768e-05 5.2178e-05 5.18825e-05 5.15904e-05 5.13016e-05 5.1016e-05 5.07336e-05 5.04543e-05 5.01781e-05 4.99049e-05 4.96346e-05 4.93673e-05 4.91029e-05 4.88413e-05 4.85825e-05 4.83264e-05 4.80731e-05 4.78224e-05 4.75743e-05 4.73287e-05 4.70857e-05 4.68452e-05 4.66072e-05 4.63715e-05 4.61383e-05 4.59074e-05 4.56788e-05 4.54525e-05;
   (22) 0.00426187 0.00426187 0.00426187 0.00426187 0.00426187 0.00426187 0.00426187 0.00426187 0.00426187 0.00426187 0.00426187 0.00426187 0.00426187 0.00426187 0.00426187 0.00426187 0.00426187 0.00426187 0.00426187 0.00426187 0.00426187 0.00426187 0.84385 0.00203829 0.0019576 0.00188321 0.0018144 0.00175056 0.00169117 0.00163577 0.00158397 0.00153543 0.00148985 0.00144696 0.00140653 0.00136835 0.00133224 0.00129803 0.00126558 0.00123476 0.00120543 0.0011775 0.00115087 0.00112544 0.00110114 0.000718596 0.000703495 0.000689026 0.00067515 0.00066183 0.000649035 0.000636733 0.000624896 0.000613499 0.000602517 0.000591927 0.000581709 0.000571844 0.000562313 0.0005531 0.000544189 0.000535565 0.000527215 0.000519125 0.000511285 0.000503681 0.000496304 0.000489143 0.00048219 0.000475434 0.000468869 0.000462485 0.000456276 0.000450234 0.000444352 0.000438625 0.000324785 0.000320672 0.000316664 0.000312755 0.000308944 0.000305225 0.000301596 0.000298053 0.000294593 0.000291214 0.000287913 0.000284686 0.000225226 0.000222746 0.00022032 0.000217947 0.000215626 0.000213354 0.000211129 0.000208951 0.000206818 0.000204729 0.000202681 0.000200675 0.000198708 8.94457e-05 8.85767e-05 8.77246e-05 8.68887e-05 8.60687e-05 8.52641e-05 8.44745e-05 8.36995e-05 8.29386e-05 8.21914e-05 8.14577e-05 8.0737e-05 8.0029e-05 7.93334e-05 7.86498e-05 7.7978e-05 7.73175e-05 7.66683e-05 7.60298e-05 7.5402e-05 7.47845e-05 7.41771e-05 7.35795e-05 7.29915e-05 7.24129e-05 7.18434e-05 7.12829e-05 7.0731e-05 7.01877e-05 6.96527e-05 6.91259e-05 6.86069e-05 6.80958e-05 6.75922e-05 6.70961e-05 6.66072e-05 6.61255e-05 6.56507e-05 6.51826e-05 6.47213e-05 6.42664e-05 6.3818e-05 6.33758e-05 6.29396e-05 6.25095e-05 6.20853e-05 6.16668e-05 6.12539e-05 6.08465e-05 6.04446e-05 6.00479e-05 5.96564e-05 5.92701e-05 5.88887e-05 5.85122e-05 5.81406e-05 5.77736e-05 5.74113e-05 5.70535e-05 5.67001e-05 5.63512e-05 5.60065e-05 5.5666e-05 5.53297e-05 5.49974e-05 5.46691e-05 5.43447e-05 5.40242e-05 5.37074e-05 5.33943e-05 5.30849e-05 5.27791e-05 5.24768e-05 5.2178e-05 5.18825e-05 5.15904e-05 5.13016e-05 5.1016e-05 5.07336e-05 5.04543e-05 5.01781e-05 4.99049e-05 4.96346e-05 4.93673e-05 4.91029e-05 4.88413e-05 4.85825e-05 4.83264e-05 4.80731e-05 4.78224e-05 4.75743e-05 4.73287e-05 4.70857e-05 4.68452e-05 4.66072e-05 4.63715e-05 4.61383e-05 4.59074e-05 4.56788e-05 4.54525e-05;
   (23) 0.00405686 0.00405686 0.00405686 0.00405686 0.00405686 0.00405686 0.00405686 0.00405686 0.00405686 0.00405686 0.00405686 0.00405686 0.00405686 0.00405686 0.00405686 0.00405686 0.00405686 0.00405686 0.00405686 0.00405686 0.00405686 0.00405686 0.00405686 0.83977 0.00194391 0.00187004 0.00180171 0.00173832 0.00167934 0.00162433 0.00157289 0.00152469 0.00147943 0.00143684 0.00139669 0.00135878 0.00132292 0.00128896 0.00125673 0.00122612 0.001197 0.00116926 0.00114282 0.00111757 0.00109344 0.00107035 0.00104825 0.00102706 0.00100673 0.000987216 0.000968459 0.000950419 0.000933056 0.000916331 0.00090021 0.000884661 0.000869654 0.000855159 0.000841153 0.000827609 0.000814505 0.00080182 0.000789534 0.000777628 0.000766085 0.000754889 0.000496015 0.000488859 0.000481909 0.000475158 0.000468596 0.000462216 0.000456011 0.000449972 0.000444094 0.000328778 0.00032456 0.00032045 0.000316444 0.000312539 0.00030873 0.000305014 0.000301387 0.000297847 0.00029439 0.000291013 0.000287713 0.000284489 0.000281337 0.000278255 0.000275241 0.000272292 0.000269406 0.000266581 0.000263816 0.000261109 0.000258457 0.000255859 0.000253313 0.000250819 0.000248373 8.94457e-05 8.85767e-05 8.77246e-05 8.68887e-05 8.60687e-05 8.52641e-05 8.44745e-05 8.36995e-05 8.29386e-05 8.21914e-05 8.14577e-05 8.0737e-05 8.0029e-05 7.93334e-05 7.86498e-05 7.7978e-05 7.73175e-05 7.66683e-05 7.60298e-05 7.5402e-05 7.47845e-05 7.41771e-05 7.35795e-05 7.29915e-05 7.24129e-05 7.18434e-05 7.12829e-05 7.0731e-05 7.01877e-05 6.96527e-05 6.91259e-05 6.86069e-05 6.80958e-05 6.75922e-05 6.70961e-05 6.66072e-05 6.61255e-05 6.56507e-05 6.51826e-05 6.47213e-05 6.42664e-05 6.3818e-05 6.33758e-05 6.29396e-05 6.25095e-05 6.20853e-05 6.16668e-05 6.12539e-05 6.08465e-05 6.04446e-05 6.00479e-05 5.96564e-05 5.92701e-05 5.88887e-05 5.85122e-05 5.81406e-05 5.77736e-05 5.74113e-05 5.70535e-05 5.67001e-05 5.63512e-05 5.60065e-05 5.5666e-05 5.53297e-05 5.49974e-05 5.46691e-05 5.43447e-05 5.40242e-05 5.37074e-05 5.33943e-05 5.30849e-05 5.27791e-05 5.24768e-05 5.2178e-05 5.18825e-05 5.15904e-05 5.13016e-05 5.1016e-05 5.07336e-05 5.04543e-05 5.01781e-05 4.99049e-05 4.96346e-05 4.93673e-05 4.91029e-05 4.88413e-05 4.85825e-05 4.83264e-05 4.80731e-05 4.78224e-05 4.75743e-05 4.73287e-05 4.70857e-05 4.68452e-05 4.66072e-05 4.63715e-05 4.61383e-05 4.59074e-05 4.56788e-05 4.54525e-05;
   (24) 0.00387877 0.00387877 0.00387877 0.00387877 0.00387877 0.00387877 0.00387877 0.00387877 0.00387877 0.00387877 0.00387877 0.00387877 0.00387877 0.00387877 0.00387877 0.00387877 0.00387877 0.00387877 0.00387877 0.00387877 0.00387877 0.00387877 0.00387877 0.00387877 0.837814 0.00186181 0.00179378 0.00173067 0.00167195 0.00161718 0.00156597 0.00151798 0.00147291 0.00143051 0.00139054 0.0013528 0.0013171 0.00128328 0.0012512 0.00122072 0.00119173 0.00116411 0.00113778 0.00111265 0.00108862 0.00106564 0.00104363 0.00102254 0.0010023 0.000982869 0.000964194 0.000946234 0.000928947 0.000912296 0.000896246 0.000880766 0.000865824 0.000851394 0.000837449 0.000823964 0.000810918 0.000798289 0.000786057 0.000774204 0.000762712 0.000751565 0.000740747 0.000730243 0.000720042 0.000710128 0.00070049 0.000691118 0.000681999 0.000673123 0.000442988 0.000437278 0.000431717 0.000426297 0.000421014 0.000415862 0.000410837 0.000405934 0.000401148 0.000396476 0.000391914 0.000387457 0.000383102 0.000378845 0.000374683 0.000370614 0.000366633 0.000362739 0.000358927 0.000355196 0.000351544 0.000347967 0.000344463 0.00034103 0.000337666 0.000334369 0.000331137 8.94457e-05 8.85767e-05 8.77246e-05 8.68887e-05 8.60687e-05 8.52641e-05 8.44745e-05 8.36995e-05 8.29386e-05 8.21914e-05 8.14577e-05 8.0737e-05 8.0029e-05 7.93334e-05 7.86498e-05 7.7978e-05 7.73175e-05 7.66683e-05 7.60298e-05 7.5402e-05 7.47845e-05 7.41771e-05 7.35795e-05 7.29915e-05 7.24129e-05 7.18434e-05 7.12829e-05 7.0731e-05 7.01877e-05 6.96527e-05 6.91259e-05 6.86069e-05 6.80958e-05 6.75922e-05 6.70961e-05 6.66072e-05 6.61255e-05 6.56507e-05 6.51826e-05 6.47213e-05 6.42664e-05 6.3818e-05 6.33758e-05 6.29396e-05 6.25095e-05 6.20853e-05 6.16668e-05 6.12539e-05 6.08465e-05 6.04446e-05 6.00479e-05 5.96564e-05 5.92701e-05 5.88887e-05 5.85122e-05 5.81406e-05 5.77736e-05 5.74113e-05 5.70535e-05 5.67001e-05 5.63512e-05 5.60065e-05 5.5666e-05 5.53297e-05 5.49974e-05 5.46691e-05 5.43447e-05 5.40242e-05 5.37074e-05 5.33943e-05 5.30849e-05 5.27791e-05 5.24768e-05 5.2178e-05 5.18825e-05 5.15904e-05 5.13016e-05 5.1016e-05 5.07336e-05 5.04543e-05 5.01781e-05 4.99049e-05 4.96346e-05 4.93673e-05 4.91029e-05 4.88413e-05 4.85825e-05 4.83264e-05 4.80731e-05 4.78224e-05 4.75743e-05 4.73287e-05 4.70857e-05 4.68452e-05 4.66072e-05 4.63715e-05 4.61383e-05 4.59074e-05 4.56788e-05 4.54525e-05;
   (25) 0.00374793 0.00374793 0.00374793 0.00374793 0.00374793 0.00374793 0.00374793 0.00374793 0.00374793 0.00374793 0.00374793 0.00374793 0.00374793 0.00374793 0.00374793 0.00374793 0.00374793 0.00374793 0.00374793 0.00374793 0.00374793 0.00374793 0.00374793 0.00374793 0.00374793 0.843285 0.00180189 0.00173849 0.00167951 0.00162449 0.00157305 0.00152484 0.00147957 0.00143698 0.00139683 0.00135891 0.00132305 0.00128908 0.00125685 0.00122624 0.00119712 0.00116938 0.00114293 0.00111768 0.00109355 0.00107046 0.00104835 0.00102716 0.00100683 0.000987312 0.000968553 0.000950512 0.000933147 0.00091642 0.000900298 0.000884748 0.000869738 0.000855243 0.000841235 0.000827689 0.000814584 0.000801898 0.000789611 0.000777704 0.00076616 0.000754962 0.000744095 0.000733545 0.000723297 0.000713338 0.000703657 0.000462828 0.000456614 0.000450568 0.000333511 0.000329176 0.000324953 0.000320838 0.000316828 0.000312917 0.000309104 0.000244306 0.000241387 0.000238537 0.000235754 0.000233036 0.00023038 0.000227785 0.000225248 0.000222768 0.000220342 0.000217969 0.000215648 0.000213375 0.000211151 0.000208972 0.000206839 0.000204749 0.000168918 0.00016724 0.000165596 8.94457e-05 8.85767e-05 8.77246e-05 8.68887e-05 8.60687e-05 8.52641e-05 8.44745e-05 8.36995e-05 8.29386e-05 8.21914e-05 8.14577e-05 8.0737e-05 8.0029e-05 7.93334e-05 7.86498e-05 7.7978e-05 7.73175e-05 7.66683e-05 7.60298e-05 7.5402e-05 7.47845e-05 7.41771e-05 7.35795e-05 7.29915e-05 7.24129e-05 7.18434e-05 7.12829e-05 7.0731e-05 7.01877e-05 6.96527e-05 6.91259e-05 6.86069e-05 6.80958e-05 6.75922e-05 6.70961e-05 6.66072e-05 6.61255e-05 6.56507e-05 6.51826e-05 6.47213e-05 6.42664e-05 6.3818e-05 6.33758e-05 6.29396e-05 6.25095e-05 6.20853e-05 6.16668e-05 6.12539e-05 6.08465e-05 6.04446e-05 6.00479e-05 5.96564e-05 5.92701e-05 5.88887e-05 5.85122e-05 5.81406e-05 5.77736e-05 5.74113e-05 5.70535e-05 5.67001e-05 5.63512e-05 5.60065e-05 5.5666e-05 5.53297e-05 5.49974e-05 5.46691e-05 5.43447e-05 5.40242e-05 5.37074e-05 5.33943e-05 5.30849e-05 5.27791e-05 5.24768e-05 5.2178e-05 5.18825e-05 5.15904e-05 5.13016e-05 5.1016e-05 5.07336e-05 5.04543e-05 5.01781e-05 4.99049e-05 4.96346e-05 4.93673e-05 4.91029e-05 4.88413e-05 4.85825e-05 4.83264e-05 4.80731e-05 4.78224e-05 4.75743e-05 4.73287e-05 4.70857e-05 4.68452e-05 4.66072e-05 4.63715e-05 4.61383e-05 4.59074e-05 4.56788e-05 4.54525e-05;
   (26) 0.00359956 0.00359956 0.00359956 0.00359956 0.00359956 0.00359956 0.00359956 0.00359956 0.00359956 0.00359956 0.00359956 0.00359956 0.00359956 0.00359956 0.00359956 0.00359956 0.00359956 0.00359956 0.00359956 0.00359956 0.00359956 0.00359956 0.00359956 0.00359956 0.00359956 0.00359956 0.842298 0.00173312 0.00167432 0.00161947 0.00156819 0.00152013 0.001475 0.00143254 0.00139251 0.00135472 0.00131897 0.0012851 0.00125297 0.00122245 0.00119342 0.00116577 0.0011394 0.00111423 0.00109017 0.00106715 0.00104512 0.00102399 0.00100372 0.000984264 0.000965563 0.000947577 0.000930266 0.000913591 0.000897519 0.000882016 0.000867053 0.000852602 0.000838637 0.000825134 0.000812069 0.000799422 0.000787173 0.000775303 0.000763795 0.000752631 0.000741798 0.00073128 0.000480709 0.000473974 0.000467429 0.000461065 0.000454875 0.000448851 0.000442988 0.000437278 0.000431717 0.000426297 0.000421014 0.000415862 0.000410837 0.000405934 0.000401148 0.000396476 0.000391914 0.000387457 0.000383102 0.000378845 0.000374683 0.000370614 0.000366633 0.000362739 0.000358927 0.000355196 0.000351544 0.000347967 0.000344463 0.00034103 0.000337666 0.000334369 0.000331137 8.94457e-05 8.85767e-05 8.77246e-05 8.68887e-05 8.60687e-05 8.52641e-05 8.44745e-05 8.36995e-05 8.29386e-05 8.21914e-05 8.14577e-05 8.0737e-05 8.0029e-05 7.93334e-05 7.86498e-05 7.7978e-05 7.73175e-05 7.66683e-05 7.60298e-05 7.5402e-05 7.47845e-05 7.41771e-05 7.35795e-05 7.29915e-05 7.24129e-05 7.18434e-05 7.12829e-05 7.0731e-05 7.01877e-05 6.96527e-05 6.91259e-05 6.86069e-05 6.80958e-05 6.75922e-05 6.70961e-05 6.66072e-05 6.61255e-05 6.56507e-05 6.51826e-05 6.47213e-05 6.42664e-05 6.3818e-05 6.33758e-05 6.29396e-05 6.25095e-05 6.20853e-05 6.16668e-05 6.12539e-05 6.08465e-05 6.04446e-05 6.00479e-05 5.96564e-05 5.92701e-05 5.88887e-05 5.85122e-05 5.81406e-05 5.77736e-05 5.74113e-05 5.70535e-05 5.67001e-05 5.63512e-05 5.60065e-05 5.5666e-05 5.53297e-05 5.49974e-05 5.46691e-05 5.43447e-05 5.40242e-05 5.37074e-05 5.33943e-05 5.30849e-05 5.27791e-05 5.24768e-05 5.2178e-05 5.18825e-05 5.15904e-05 5.13016e-05 5.1016e-05 5.07336e-05 5.04543e-05 5.01781e-05 4.99049e-05 4.96346e-05 4.93673e-05 4.91029e-05 4.88413e-05 4.85825e-05 4.83264e-05 4.80731e-05 4.78224e-05 4.75743e-05 4.73287e-05 4.70857e-05 4.68452e-05 4.66072e-05 4.63715e-05 4.61383e-05 4.59074e-05 4.56788e-05 4.54525e-05;
   (27) 0.00349261 0.00349261 0.00349261 0.00349261 0.00349261 0.00349261 0.00349261 0.00349261 0.00349261 0.00349261 0.00349261 0.00349261 0.00349261 0.00349261 0.00349261 0.00349261 0.00349261 0.00349261 0.00349261 0.00349261 0.00349261 0.00349261 0.00349261 0.00349261 0.00349261 0.00349261 0.00349261 0.848705 0.00168394 0.00162878 0.0015772 0.00152886 0.00148348 0.00144077 0.00140051 0.0013625 0.00132654 0.00129248 0.00126017 0.00122948 0.00120028 0.00117246 0.00114594 0.00112063 0.00109643 0.00107328 0.00105112 0.00102987 0.00100949 0.000989918 0.000647407 0.000635135 0.000623328 0.00061196 0.000601005 0.000590442 0.000580249 0.000570409 0.000560902 0.000551712 0.000542824 0.000534221 0.000525892 0.000517823 0.000510002 0.000502417 0.000495058 0.000487916 0.00048098 0.000474241 0.000467692 0.000461325 0.000455131 0.000449104 0.000443237 0.000437525 0.00043196 0.000426537 0.000421251 0.000416096 0.000411068 0.000406162 0.000401374 0.0003967 0.000392134 0.000387675 0.000383317 0.000379058 0.000374894 0.000370822 0.00036684 0.000362943 0.000359129 0.000355396 0.000351742 0.000261122 0.00025847 0.000255872 0.000253326 0.000250831 0.000198708 8.94457e-05 8.85767e-05 8.77246e-05 8.68887e-05 8.60687e-05 8.52641e-05 8.44745e-05 8.36995e-05 8.29386e-05 8.21914e-05 8.14577e-05 8.0737e-05 8.0029e-05 7.93334e-05 7.86498e-05 7.7978e-05 7.73175e-05 7.66683e-05 7.60298e-05 7.5402e-05 7.47845e-05 7.41771e-05 7.35795e-05 7.29915e-05 7.24129e-05 7.18434e-05 7.12829e-05 7.0731e-05 7.01877e-05 6.96527e-05 6.91259e-05 6.86069e-05 6.80958e-05 6.75922e-05 6.70961e-05 6.66072e-05 6.61255e-05 6.56507e-05 6.51826e-05 6.47213e-05 6.42664e-05 6.3818e-05 6.33758e-05 6.29396e-05 6.25095e-05 6.20853e-05 6.16668e-05 6.12539e-05 6.08465e-05 6.04446e-05 6.00479e-05 5.96564e-05 5.92701e-05 5.88887e-05 5.85122e-05 5.81406e-05 5.77736e-05 5.74113e-05 5.70535e-05 5.67001e-05 5.63512e-05 5.60065e-05 5.5666e-05 5.53297e-05 5.49974e-05 5.46691e-05 5.43447e-05 5.40242e-05 5.37074e-05 5.33943e-05 5.30849e-05 5.27791e-05 5.24768e-05 5.2178e-05 5.18825e-05 5.15904e-05 5.13016e-05 5.1016e-05 5.07336e-05 5.04543e-05 5.01781e-05 4.99049e-05 4.96346e-05 4.93673e-05 4.91029e-05 4.88413e-05 4.85825e-05 4.83264e-05 4.80731e-05 4.78224e-05 4.75743e-05 4.73287e-05 4.70857e-05 4.68452e-05 4.66072e-05 4.63715e-05 4.61383e-05 4.59074e-05 4.56788e-05 4.54525e-05;
   (28) 0.00334719 0.00334719 0.00334719 0.00334719 0.00334719 0.00334719 0.00334719 0.00334719 0.00334719 0.00334719 0.00334719 0.00334719 0.00334719 0.00334719 0.00334719 0.00334719 0.00334719 0.00334719 0.00334719 0.00334719 0.00334719 0.00334719 0.00334719 0.00334719 0.00334719 0.00334719 0.00334719 0.00334719 0.843493 0.00161589 0.00156472 0.00151677 0.00147174 0.00142937 0.00138943 0.00135172 0.00131605 0.00128226 0.0012502 0.00121975 0.00119078 0.00116319 0.00113688 0.00111176 0.00108776 0.00106479 0.0010428 0.00102172 0.0010015 0.000982085 0.000963425 0.000945479 0.000928206 0.000911568 0.000895532 0.000880063 0.000865134 0.000850715 0.000836781 0.000823307 0.000810271 0.000797652 0.00078543 0.000773586 0.000762104 0.000750965 0.000740156 0.000729661 0.000719467 0.000709562 0.000699932 0.000690566 0.000681455 0.000672587 0.000663952 0.000655542 0.000647348 0.000639361 0.000631574 0.000623979 0.000616569 0.000609338 0.000401519 0.000396843 0.000392276 0.000387815 0.000383455 0.000379195 0.000375029 0.000370956 0.000366972 0.000272305 0.000269419 0.000266595 0.00026383 0.000261122 0.00025847 0.000255872 0.000253326 0.000250831 0.000198708 8.94457e-05 8.85767e-05 8.77246e-05 8.68887e-05 8.60687e-05 8.52641e-05 8.44745e-05 8.36995e-05 8.29386e-05 8.21914e-05 8.14577e-05 8.0737e-05 8.0029e-05 7.93334e-05 7.86498e-05 7.7978e-05 7.73175e-05 7.66683e-05 7.60298e-05 7.5402e-05 7.47845e-05 7.41771e-05 7.35795e-05 7.29915e-05 7.24129e-05 7.18434e-05 7.12829e-05 7.0731e-05 7.01877e-05 6.96527e-05 6.91259e-05 6.86069e-05 6.80958e-05 6.75922e-05 6.70961e-05 6.66072e-05 6.61255e-05 6.56507e-05 6.51826e-05 6.47213e-05 6.42664e-05 6.3818e-05 6.33758e-05 6.29396e-05 6.25095e-05 6.20853e-05 6.16668e-05 6.12539e-05 6.08465e-05 6.04446e-05 6.00479e-05 5.96564e-05 5.92701e-05 5.88887e-05 5.85122e-05 5.81406e-05 5.77736e-05 5.74113e-05 5.70535e-05 5.67001e-05 5.63512e-05 5.60065e-05 5.5666e-05 5.53297e-05 5.49974e-05 5.46691e-05 5.43447e-05 5.40242e-05 5.37074e-05 5.33943e-05 5.30849e-05 5.27791e-05 5.24768e-05 5.2178e-05 5.18825e-05 5.15904e-05 5.13016e-05 5.1016e-05 5.07336e-05 5.04543e-05 5.01781e-05 4.99049e-05 4.96346e-05 4.93673e-05 4.91029e-05 4.88413e-05 4.85825e-05 4.83264e-05 4.80731e-05 4.78224e-05 4.75743e-05 4.73287e-05 4.70857e-05 4.68452e-05 4.66072e-05 4.63715e-05 4.61383e-05 4.59074e-05 4.56788e-05 4.54525e-05;
   (29) 0.00327912 0.00327912 0.00327912 0.00327912 0.00327912 0.00327912 0.00327912 0.00327912 0.00327912 0.00327912 0.00327912 0.00327912 0.00327912 0.00327912 0.00327912 0.00327912 0.00327912 0.00327912 0.00327912 0.00327912 0.00327912 0.00327912 0.00327912 0.00327912 0.00327912 0.00327912 0.00327912 0.00327912 0.00327912 0.855849 0.00158491 0.00153634 0.00149073 0.00144781 0.00140736 0.00136916 0.00133303 0.0012988 0.00126633 0.00123548 0.00120614 0.00117819 0.00115155 0.0011261 0.00110179 0.00107853 0.00105626 0.00103491 0.000676283 0.000662941 0.000650124 0.000637802 0.000625945 0.000614528 0.000603528 0.00059292 0.000582685 0.000572803 0.000422442 0.000415461 0.00040871 0.000402178 0.000395853 0.000389727 0.000383789 0.000378033 0.000372448 0.000367028 0.000361766 0.000356654 0.000351686 0.000346856 0.000342159 0.00033759 0.000333142 0.000328811 0.000324592 0.000320482 0.000316476 0.00031257 0.000308761 0.000305044 0.000301417 0.000297877 0.000294419 0.000291042 0.000287742 0.000284518 0.000281365 0.000278283 0.000275268 0.000272319 0.000269433 0.000266608 0.000263843 0.000261135 0.000258483 0.000255885 0.000253339 0.000200675 0.000198708 8.94457e-05 8.85767e-05 8.77246e-05 8.68887e-05 8.60687e-05 8.52641e-05 8.44745e-05 8.36995e-05 8.29386e-05 8.21914e-05 8.14577e-05 8.0737e-05 8.0029e-05 7.93334e-05 7.86498e-05 7.7978e-05 7.73175e-05 7.66683e-05 7.60298e-05 7.5402e-05 7.47845e-05 7.41771e-05 7.35795e-05 7.29915e-05 7.24129e-05 7.18434e-05 7.12829e-05 7.0731e-05 7.01877e-05 6.96527e-05 6.91259e-05 6.86069e-05 6.80958e-05 6.75922e-05 6.70961e-05 6.66072e-05 6.61255e-05 6.56507e-05 6.51826e-05 6.47213e-05 6.42664e-05 6.3818e-05 6.33758e-05 6.29396e-05 6.25095e-05 6.20853e-05 6.16668e-05 6.12539e-05 6.08465e-05 6.04446e-05 6.00479e-05 5.96564e-05 5.92701e-05 5.88887e-05 5.85122e-05 5.81406e-05 5.77736e-05 5.74113e-05 5.70535e-05 5.67001e-05 5.63512e-05 5.60065e-05 5.5666e-05 5.53297e-05 5.49974e-05 5.46691e-05 5.43447e-05 5.40242e-05 5.37074e-05 5.33943e-05 5.30849e-05 5.27791e-05 5.24768e-05 5.2178e-05 5.18825e-05 5.15904e-05 5.13016e-05 5.1016e-05 5.07336e-05 5.04543e-05 5.01781e-05 4.99049e-05 4.96346e-05 4.93673e-05 4.91029e-05 4.88413e-05 4.85825e-05 4.83264e-05 4.80731e-05 4.78224e-05 4.75743e-05 4.73287e-05 4.70857e-05 4.68452e-05 4.66072e-05 4.63715e-05 4.61383e-05 4.59074e-05 4.56788e-05 4.54525e-05;
   (30) 0.00314414 0.00314414 0.00314414 0.00314414 0.00314414 0.00314414 0.00314414 0.00314414 0.00314414 0.00314414 0.00314414 0.00314414 0.00314414 0.00314414 0.00314414 0.00314414 0.00314414 0.00314414 0.00314414 0.00314414 0.00314414 0.00314414 0.00314414 0.00314414 0.00314414 0.00314414 0.00314414 0.00314414 0.00314414 0.00314414 0.848919 0.00152136 0.00147619 0.0014337 0.00139364 0.00135581 0.00132003 0.00128614 0.00125399 0.00122344 0.00119438 0.00116671 0.00114032 0.00111513 0.00109105 0.00106802 0.00104596 0.00102482 0.00100454 0.000985059 0.000966343 0.000948343 0.000931017 0.000914329 0.000898244 0.000882729 0.000867754 0.000853291 0.000839315 0.000825801 0.000812725 0.000800068 0.000787809 0.000775929 0.000764412 0.00075324 0.000742398 0.000731871 0.000721646 0.000711711 0.000702052 0.000692658 0.000455679 0.000449645 0.000443771 0.000438052 0.00043248 0.000427051 0.000421758 0.000416597 0.000411563 0.000406652 0.000401858 0.000397178 0.000392607 0.000388142 0.000383779 0.000379515 0.000281509 0.000278426 0.000220327 0.000217955 0.000215633 0.000213361 0.000211136 0.000208958 0.000206825 0.000204736 0.000202688 0.000200682 0.000165596 8.94457e-05 8.85767e-05 8.77246e-05 8.68887e-05 8.60687e-05 8.52641e-05 8.44745e-05 8.36995e-05 8.29386e-05 8.21914e-05 8.14577e-05 8.0737e-05 8.0029e-05 7.93334e-05 7.86498e-05 7.7978e-05 7.73175e-05 7.66683e-05 7.60298e-05 7.5402e-05 7.47845e-05 7.41771e-05 7.35795e-05 7.29915e-05 7.24129e-05 7.18434e-05 7.12829e-05 7.0731e-05 7.01877e-05 6.96527e-05 6.91259e-05 6.86069e-05 6.80958e-05 6.75922e-05 6.70961e-05 6.66072e-05 6.61255e-05 6.56507e-05 6.51826e-05 6.47213e-05 6.42664e-05 6.3818e-05 6.33758e-05 6.29396e-05 6.25095e-05 6.20853e-05 6.16668e-05 6.12539e-05 6.08465e-05 6.04446e-05 6.00479e-05 5.96564e-05 5.92701e-05 5.88887e-05 5.85122e-05 5.81406e-05 5.77736e-05 5.74113e-05 5.70535e-05 5.67001e-05 5.63512e-05 5.60065e-05 5.5666e-05 5.53297e-05 5.49974e-05 5.46691e-05 5.43447e-05 5.40242e-05 5.37074e-05 5.33943e-05 5.30849e-05 5.27791e-05 5.24768e-05 5.2178e-05 5.18825e-05 5.15904e-05 5.13016e-05 5.1016e-05 5.07336e-05 5.04543e-05 5.01781e-05 4.99049e-05 4.96346e-05 4.93673e-05 4.91029e-05 4.88413e-05 4.85825e-05 4.83264e-05 4.80731e-05 4.78224e-05 4.75743e-05 4.73287e-05 4.70857e-05 4.68452e-05 4.66072e-05 4.63715e-05 4.61383e-05 4.59074e-05 4.56788e-05 4.54525e-05;
   (31) 0.00309446 0.00309446 0.00309446 0.00309446 0.00309446 0.00309446 0.00309446 0.00309446 0.00309446 0.00309446 0.00309446 0.00309446 0.00309446 0.00309446 0.00309446 0.00309446 0.00309446 0.00309446 0.00309446 0.00309446 0.00309446 0.00309446 0.00309446 0.00309446 0.00309446 0.00309446 0.00309446 0.00309446 0.00309446 0.00309446 0.00309446 0.863355 0.00149888 0.00145573 0.00094337 0.000917315 0.000892684 0.000869361 0.000847246 0.000826246 0.000806278 0.000787269 0.000769149 0.000751858 0.00073534 0.000719544 0.000704423 0.000689935 0.00067604 0.000662703 0.000649891 0.000637573 0.000625721 0.000614308 0.000603311 0.000592707 0.000582476 0.000572598 0.000563055 0.000553829 0.000544907 0.000536272 0.00052791 0.00051981 0.000511959 0.000504345 0.000496958 0.000489788 0.000482825 0.000476061 0.000352115 0.00034728 0.000342577 0.000338002 0.000333548 0.000329212 0.000324989 0.000320874 0.000316863 0.000312952 0.00024731 0.000244318 0.000241398 0.000238548 0.000235765 0.000233047 0.000230391 0.000227796 0.000225259 0.000222779 0.000220353 0.00021798 0.000215658 0.000213385 0.000211161 0.000208982 0.000206849 0.000204759 0.000168926 0.000143356 0.000141943 8.94457e-05 8.85767e-05 8.77246e-05 8.68887e-05 8.60687e-05 8.52641e-05 8.44745e-05 8.36995e-05 8.29386e-05 8.21914e-05 8.14577e-05 8.0737e-05 8.0029e-05 7.93334e-05 7.86498e-05 7.7978e-05 7.73175e-05 7.66683e-05 7.60298e-05 7.5402e-05 7.47845e-05 7.41771e-05 7.35795e-05 7.29915e-05 7.24129e-05 7.18434e-05 7.12829e-05 7.0731e-05 7.01877e-05 6.96527e-05 6.91259e-05 6.86069e-05 6.80958e-05 6.75922e-05 6.70961e-05 6.66072e-05 6.61255e-05 6.56507e-05 6.51826e-05 6.47213e-05 6.42664e-05 6.3818e-05 6.33758e-05 6.29396e-05 6.25095e-05 6.20853e-05 6.16668e-05 6.12539e-05 6.08465e-05 6.04446e-05 6.00479e-05 5.96564e-05 5.92701e-05 5.88887e-05 5.85122e-05 5.81406e-05 5.77736e-05 5.74113e-05 5.70535e-05 5.67001e-05 5.63512e-05 5.60065e-05 5.5666e-05 5.53297e-05 5.49974e-05 5.46691e-05 5.43447e-05 5.40242e-05 5.37074e-05 5.33943e-05 5.30849e-05 5.27791e-05 5.24768e-05 5.2178e-05 5.18825e-05 5.15904e-05 5.13016e-05 5.1016e-05 5.07336e-05 5.04543e-05 5.01781e-05 4.99049e-05 4.96346e-05 4.93673e-05 4.91029e-05 4.88413e-05 4.85825e-05 4.83264e-05 4.80731e-05 4.78224e-05 4.75743e-05 4.73287e-05 4.70857e-05 4.68452e-05 4.66072e-05 4.63715e-05 4.61383e-05 4.59074e-05 4.56788e-05 4.54525e-05;
   (32) 0.00295692 0.00295692 0.00295692 0.00295692 0.00295692 0.00295692 0.00295692 0.00295692 0.00295692 0.00295692 0.00295692 0.00295692 0.00295692 0.00295692 0.00295692 0.00295692 0.00295692 0.00295692 0.00295692 0.00295692 0.00295692 0.00295692 0.00295692 0.00295692 0.00295692 0.00295692 0.00295692 0.00295692 0.00295692 0.00295692 0.00295692 0.00295692 0.851594 0.00143366 0.0013936 0.00135578 0.00132 0.00128611 0.00125395 0.00122341 0.00119435 0.00116668 0.00114029 0.0011151 0.00109102 0.00106799 0.00104593 0.00102479 0.00100451 0.000985034 0.000966318 0.000948318 0.000930993 0.000914305 0.00089822 0.000882706 0.000867731 0.000853269 0.000839293 0.000825779 0.000812704 0.000800047 0.000787788 0.000775909 0.000764392 0.00075322 0.000742378 0.000731852 0.000481085 0.000474345 0.000467795 0.000461426 0.00045523 0.000449202 0.000443334 0.00043762 0.000432054 0.00042663 0.000421343 0.000416187 0.000411158 0.000406251 0.000401462 0.000396786 0.00039222 0.00038776 0.000383401 0.000379141 0.000374976 0.000370904 0.00036692 0.000363022 0.000269406 0.000266581 0.000263816 0.000261109 0.000258457 0.000255859 0.000253313 0.000250819 0.000248373 8.94457e-05 8.85767e-05 8.77246e-05 8.68887e-05 8.60687e-05 8.52641e-05 8.44745e-05 8.36995e-05 8.29386e-05 8.21914e-05 8.14577e-05 8.0737e-05 8.0029e-05 7.93334e-05 7.86498e-05 7.7978e-05 7.73175e-05 7.66683e-05 7.60298e-05 7.5402e-05 7.47845e-05 7.41771e-05 7.35795e-05 7.29915e-05 7.24129e-05 7.18434e-05 7.12829e-05 7.0731e-05 7.01877e-05 6.96527e-05 6.91259e-05 6.86069e-05 6.80958e-05 6.75922e-05 6.70961e-05 6.66072e-05 6.61255e-05 6.56507e-05 6.51826e-05 6.47213e-05 6.42664e-05 6.3818e-05 6.33758e-05 6.29396e-05 6.25095e-05 6.20853e-05 6.16668e-05 6.12539e-05 6.08465e-05 6.04446e-05 6.00479e-05 5.96564e-05 5.92701e-05 5.88887e-05 5.85122e-05 5.81406e-05 5.77736e-05 5.74113e-05 5.70535e-05 5.67001e-05 5.63512e-05 5.60065e-05 5.5666e-05 5.53297e-05 5.49974e-05 5.46691e-05 5.43447e-05 5.40242e-05 5.37074e-05 5.33943e-05 5.30849e-05 5.27791e-05 5.24768e-05 5.2178e-05 5.18825e-05 5.15904e-05 5.13016e-05 5.1016e-05 5.07336e-05 5.04543e-05 5.01781e-05 4.99049e-05 4.96346e-05 4.93673e-05 4.91029e-05 4.88413e-05 4.85825e-05 4.83264e-05 4.80731e-05 4.78224e-05 4.75743e-05 4.73287e-05 4.70857e-05 4.68452e-05 4.66072e-05 4.63715e-05 4.61383e-05 4.59074e-05 4.56788e-05 4.54525e-05;
   (33) 0.00285046 0.00285046 0.00285046 0.00285046 0.00285046 0.00285046 0.00285046 0.00285046 0.00285046 0.00285046 0.00285046 0.00285046 0.00285046 0.00285046 0.00285046 0.00285046 0.00285046 0.00285046 0.00285046 0.00285046 0.00285046 0.00285046 0.00285046 0.00285046 0.00285046 0.00285046 0.00285046 0.00285046 0.00285046 0.00285046 0.00285046 0.00285046 0.00285046 0.846586 0.00138331 0.00134576 0.00131025 0.00127661 0.00124469 0.00121437 0.00118553 0.00115806 0.00113187 0.00110686 0.00108296 0.0010601 0.00103821 0.00101722 0.000997091 0.00097776 0.000959182 0.000941315 0.000924118 0.000907554 0.000891587 0.000876187 0.000861323 0.000846968 0.000833095 0.000819681 0.000806703 0.000794139 0.000781971 0.000770179 0.000758747 0.000747658 0.000736896 0.000726447 0.000716298 0.000706436 0.000696849 0.000687525 0.000678453 0.000669624 0.000661028 0.000652655 0.000644497 0.000636545 0.000628792 0.000621231 0.000613854 0.000606654 0.000599626 0.000592763 0.000586059 0.000579509 0.000573107 0.000566849 0.00056073 0.000554744 0.000548889 0.000543159 0.00053755 0.000532059 0.000526682 0.000521415 0.000516255 0.000511199 0.000506243 0.000501385 0.000496622 8.94457e-05 8.85767e-05 8.77246e-05 8.68887e-05 8.60687e-05 8.52641e-05 8.44745e-05 8.36995e-05 8.29386e-05 8.21914e-05 8.14577e-05 8.0737e-05 8.0029e-05 7.93334e-05 7.86498e-05 7.7978e-05 7.73175e-05 7.66683e-05 7.60298e-05 7.5402e-05 7.47845e-05 7.41771e-05 7.35795e-05 7.29915e-05 7.24129e-05 7.18434e-05 7.12829e-05 7.0731e-05 7.01877e-05 6.96527e-05 6.91259e-05 6.86069e-05 6.80958e-05 6.75922e-05 6.70961e-05 6.66072e-05 6.61255e-05 6.56507e-05 6.51826e-05 6.47213e-05 6.42664e-05 6.3818e-05 6.33758e-05 6.29396e-05 6.25095e-05 6.20853e-05 6.16668e-05 6.12539e-05 6.08465e-05 6.04446e-05 6.00479e-05 5.96564e-05 5.92701e-05 5.88887e-05 5.85122e-05 5.81406e-05 5.77736e-05 5.74113e-05 5.70535e-05 5.67001e-05 5.63512e-05 5.60065e-05 5.5666e-05 5.53297e-05 5.49974e-05 5.46691e-05 5.43447e-05 5.40242e-05 5.37074e-05 5.33943e-05 5.30849e-05 5.27791e-05 5.24768e-05 5.2178e-05 5.18825e-05 5.15904e-05 5.13016e-05 5.1016e-05 5.07336e-05 5.04543e-05 5.01781e-05 4.99049e-05 4.96346e-05 4.93673e-05 4.91029e-05 4.88413e-05 4.85825e-05 4.83264e-05 4.80731e-05 4.78224e-05 4.75743e-05 4.73287e-05 4.70857e-05 4.68452e-05 4.66072e-05 4.63715e-05 4.61383e-05 4.59074e-05 4.56788e-05 4.54525e-05;
   (34) 0.00279518 0.00279518 0.00279518 0.00279518 0.00279518 0.00279518 0.00279518 0.00279518 0.00279518 0.00279518 0.00279518 0.00279518 0.00279518 0.00279518 0.00279518 0.00279518 0.00279518 0.00279518 0.00279518 0.00279518 0.00279518 0.00279518 0.00279518 0.00279518 0.00279518 0.00279518 0.00279518 0.00279518 0.00279518 0.00279518 0.00279518 0.00279518 0.00279518 0.00279518 0.855326 0.00135766 0.00132183 0.00128789 0.0012557 0.00122511 0.00119601 0.0011683 0.00114187 0.00111665 0.00109254 0.00106947 0.00104739 0.00102622 0.0010059 0.000986403 0.000967661 0.000949636 0.000932287 0.000915576 0.000899469 0.000883932 0.000868937 0.000854455 0.000840459 0.000826927 0.000813834 0.000801159 0.000788883 0.000776987 0.000510303 0.000502714 0.000495351 0.000488204 0.000481264 0.000474521 0.000467968 0.000461597 0.0004554 0.000449369 0.000443499 0.000437783 0.000432215 0.000426788 0.000421499 0.000416342 0.000411311 0.000406402 0.000401611 0.000396934 0.000392366 0.000387904 0.000383544 0.000379282 0.000375116 0.000371041 0.000367056 0.000363157 0.000359341 0.000266705 0.000211151 0.000208972 0.000206839 0.000204749 0.000168918 0.00016724 0.000165596 8.94457e-05 8.85767e-05 8.77246e-05 8.68887e-05 8.60687e-05 8.52641e-05 8.44745e-05 8.36995e-05 8.29386e-05 8.21914e-05 8.14577e-05 8.0737e-05 8.0029e-05 7.93334e-05 7.86498e-05 7.7978e-05 7.73175e-05 7.66683e-05 7.60298e-05 7.5402e-05 7.47845e-05 7.41771e-05 7.35795e-05 7.29915e-05 7.24129e-05 7.18434e-05 7.12829e-05 7.0731e-05 7.01877e-05 6.96527e-05 6.91259e-05 6.86069e-05 6.80958e-05 6.75922e-05 6.70961e-05 6.66072e-05 6.61255e-05 6.56507e-05 6.51826e-05 6.47213e-05 6.42664e-05 6.3818e-05 6.33758e-05 6.29396e-05 6.25095e-05 6.20853e-05 6.16668e-05 6.12539e-05 6.08465e-05 6.04446e-05 6.00479e-05 5.96564e-05 5.92701e-05 5.88887e-05 5.85122e-05 5.81406e-05 5.77736e-05 5.74113e-05 5.70535e-05 5.67001e-05 5.63512e-05 5.60065e-05 5.5666e-05 5.53297e-05 5.49974e-05 5.46691e-05 5.43447e-05 5.40242e-05 5.37074e-05 5.33943e-05 5.30849e-05 5.27791e-05 5.24768e-05 5.2178e-05 5.18825e-05 5.15904e-05 5.13016e-05 5.1016e-05 5.07336e-05 5.04543e-05 5.01781e-05 4.99049e-05 4.96346e-05 4.93673e-05 4.91029e-05 4.88413e-05 4.85825e-05 4.83264e-05 4.80731e-05 4.78224e-05 4.75743e-05 4.73287e-05 4.70857e-05 4.68452e-05 4.66072e-05 4.63715e-05 4.61383e-05 4.59074e-05 4.56788e-05 4.54525e-05;
   (35) 0.0027045 0.0027045 0.0027045 0.0027045 0.0027045 0.0027045 0.0027045 0.0027045 0.0027045 0.0027045 0.0027045 0.0027045 0.0027045 0.0027045 0.0027045 0.0027045 0.0027045 0.0027045 0.0027045 0.0027045 0.0027045 0.0027045 0.0027045 0.0027045 0.0027045 0.0027045 0.0027045 0.0027045 0.0027045 0.0027045 0.0027045 0.0027045 0.0027045 0.0027045 0.0027045 0.851918 0.00131469 0.00128093 0.00124891 0.00121849 0.00118955 0.00116199 0.0011357 0.00111061 0.00108663 0.00106369 0.00104173 0.00102067 0.00100047 0.000981072 0.000962431 0.000944504 0.000927248 0.000910628 0.000894607 0.000879155 0.000864241 0.000849837 0.000835917 0.000822457 0.000809435 0.000796829 0.00078462 0.000772788 0.000761317 0.00075019 0.000739392 0.000728908 0.000718725 0.000708829 0.000699209 0.000689854 0.000680752 0.000671892 0.000663267 0.000654865 0.00064668 0.000638701 0.000630922 0.000623335 0.000615933 0.000608709 0.000601657 0.00059477 0.000588044 0.000581472 0.000575048 0.000568769 0.000562629 0.000371082 0.000367097 0.000363197 0.000269536 0.000213368 0.000211143 0.000208965 0.000206832 0.000204742 0.000202695 0.00016724 0.000165596 8.94457e-05 8.85767e-05 8.77246e-05 8.68887e-05 8.60687e-05 8.52641e-05 8.44745e-05 8.36995e-05 8.29386e-05 8.21914e-05 8.14577e-05 8.0737e-05 8.0029e-05 7.93334e-05 7.86498e-05 7.7978e-05 7.73175e-05 7.66683e-05 7.60298e-05 7.5402e-05 7.47845e-05 7.41771e-05 7.35795e-05 7.29915e-05 7.24129e-05 7.18434e-05 7.12829e-05 7.0731e-05 7.01877e-05 6.96527e-05 6.91259e-05 6.86069e-05 6.80958e-05 6.75922e-05 6.70961e-05 6.66072e-05 6.61255e-05 6.56507e-05 6.51826e-05 6.47213e-05 6.42664e-05 6.3818e-05 6.33758e-05 6.29396e-05 6.25095e-05 6.20853e-05 6.16668e-05 6.12539e-05 6.08465e-05 6.04446e-05 6.00479e-05 5.96564e-05 5.92701e-05 5.88887e-05 5.85122e-05 5.81406e-05 5.77736e-05 5.74113e-05 5.70535e-05 5.67001e-05 5.63512e-05 5.60065e-05 5.5666e-05 5.53297e-05 5.49974e-05 5.46691e-05 5.43447e-05 5.40242e-05 5.37074e-05 5.33943e-05 5.30849e-05 5.27791e-05 5.24768e-05 5.2178e-05 5.18825e-05 5.15904e-05 5.13016e-05 5.1016e-05 5.07336e-05 5.04543e-05 5.01781e-05 4.99049e-05 4.96346e-05 4.93673e-05 4.91029e-05 4.88413e-05 4.85825e-05 4.83264e-05 4.80731e-05 4.78224e-05 4.75743e-05 4.73287e-05 4.70857e-05 4.68452e-05 4.66072e-05 4.63715e-05 4.61383e-05 4.59074e-05 4.56788e-05 4.54525e-05;
   (36) 0.00265696 0.00265696 0.00265696 0.00265696 0.00265696 0.00265696 0.00265696 0.00265696 0.00265696 0.00265696 0.00265696 0.00265696 0.00265696 0.00265696 0.00265696 0.00265696 0.00265696 0.00265696 0.00265696 0.00265696 0.00265696 0.00265696 0.00265696 0.00265696 0.00265696 0.00265696 0.00265696 0.00265696 0.00265696 0.00265696 0.00265696 0.00265696 0.00265696 0.00265696 0.00265696 0.00265696 0.860855 0.00129257 0.00126026 0.00122956 0.00120036 0.00117255 0.00114602 0.00112071 0.00109651 0.00107336 0.00105119 0.00102994 0.00100956 0.000989987 0.000971178 0.000635391 0.00062358 0.000612206 0.000601247 0.00059068 0.000580483 0.000570639 0.000561128 0.000551935 0.000543042 0.000534437 0.000526104 0.000518032 0.000510207 0.000502619 0.000495258 0.000488112 0.000481173 0.000474432 0.000467881 0.000461511 0.000455314 0.000449285 0.000443416 0.000437701 0.000432134 0.000426709 0.00042142 0.000416264 0.000411234 0.000406326 0.000401536 0.00039686 0.000392293 0.000387831 0.000383472 0.000379211 0.000375045 0.000370972 0.000275241 0.000272292 0.000269406 0.000266581 0.000263816 0.000261109 0.000258457 0.000255859 0.000253313 0.000250819 0.000248373 8.94457e-05 8.85767e-05 8.77246e-05 8.68887e-05 8.60687e-05 8.52641e-05 8.44745e-05 8.36995e-05 8.29386e-05 8.21914e-05 8.14577e-05 8.0737e-05 8.0029e-05 7.93334e-05 7.86498e-05 7.7978e-05 7.73175e-05 7.66683e-05 7.60298e-05 7.5402e-05 7.47845e-05 7.41771e-05 7.35795e-05 7.29915e-05 7.24129e-05 7.18434e-05 7.12829e-05 7.0731e-05 7.01877e-05 6.96527e-05 6.91259e-05 6.86069e-05 6.80958e-05 6.75922e-05 6.70961e-05 6.66072e-05 6.61255e-05 6.56507e-05 6.51826e-05 6.47213e-05 6.42664e-05 6.3818e-05 6.33758e-05 6.29396e-05 6.25095e-05 6.20853e-05 6.16668e-05 6.12539e-05 6.08465e-05 6.04446e-05 6.00479e-05 5.96564e-05 5.92701e-05 5.88887e-05 5.85122e-05 5.81406e-05 5.77736e-05 5.74113e-05 5.70535e-05 5.67001e-05 5.63512e-05 5.60065e-05 5.5666e-05 5.53297e-05 5.49974e-05 5.46691e-05 5.43447e-05 5.40242e-05 5.37074e-05 5.33943e-05 5.30849e-05 5.27791e-05 5.24768e-05 5.2178e-05 5.18825e-05 5.15904e-05 5.13016e-05 5.1016e-05 5.07336e-05 5.04543e-05 5.01781e-05 4.99049e-05 4.96346e-05 4.93673e-05 4.91029e-05 4.88413e-05 4.85825e-05 4.83264e-05 4.80731e-05 4.78224e-05 4.75743e-05 4.73287e-05 4.70857e-05 4.68452e-05 4.66072e-05 4.63715e-05 4.61383e-05 4.59074e-05 4.56788e-05 4.54525e-05;
   (37) 0.00256907 0.00256907 0.00256907 0.00256907 0.00256907 0.00256907 0.00256907 0.00256907 0.00256907 0.00256907 0.00256907 0.00256907 0.00256907 0.00256907 0.00256907 0.00256907 0.00256907 0.00256907 0.00256907 0.00256907 0.00256907 0.00256907 0.00256907 0.00256907 0.00256907 0.00256907 0.00256907 0.00256907 0.00256907 0.00256907 0.00256907 0.00256907 0.00256907 0.00256907 0.00256907 0.00256907 0.00256907 0.855499 0.00125073 0.00122026 0.00119128 0.00116368 0.00113736 0.00111223 0.00108822 0.00106524 0.00104324 0.00102216 0.00100193 0.000982501 0.000963834 0.00094588 0.0009286 0.000911955 0.000895911 0.000880436 0.0008655 0.000851075 0.000837135 0.000823656 0.000810615 0.000797991 0.000785763 0.000773914 0.000762427 0.000751283 0.00074047 0.00072997 0.000719772 0.000709862 0.000700228 0.000690859 0.000681744 0.000672872 0.000664233 0.00065582 0.000647622 0.000639632 0.000631842 0.000624243 0.00041122 0.000406313 0.000401523 0.000396847 0.00039228 0.000387818 0.000383459 0.000379199 0.000375033 0.00037096 0.000366975 0.000363077 0.000269447 0.000266622 0.000263856 0.000261148 0.000258496 0.000255898 0.000202681 0.000200675 0.000198708 8.94457e-05 8.85767e-05 8.77246e-05 8.68887e-05 8.60687e-05 8.52641e-05 8.44745e-05 8.36995e-05 8.29386e-05 8.21914e-05 8.14577e-05 8.0737e-05 8.0029e-05 7.93334e-05 7.86498e-05 7.7978e-05 7.73175e-05 7.66683e-05 7.60298e-05 7.5402e-05 7.47845e-05 7.41771e-05 7.35795e-05 7.29915e-05 7.24129e-05 7.18434e-05 7.12829e-05 7.0731e-05 7.01877e-05 6.96527e-05 6.91259e-05 6.86069e-05 6.80958e-05 6.75922e-05 6.70961e-05 6.66072e-05 6.61255e-05 6.56507e-05 6.51826e-05 6.47213e-05 6.42664e-05 6.3818e-05 6.33758e-05 6.29396e-05 6.25095e-05 6.20853e-05 6.16668e-05 6.12539e-05 6.08465e-05 6.04446e-05 6.00479e-05 5.96564e-05 5.92701e-05 5.88887e-05 5.85122e-05 5.81406e-05 5.77736e-05 5.74113e-05 5.70535e-05 5.67001e-05 5.63512e-05 5.60065e-05 5.5666e-05 5.53297e-05 5.49974e-05 5.46691e-05 5.43447e-05 5.40242e-05 5.37074e-05 5.33943e-05 5.30849e-05 5.27791e-05 5.24768e-05 5.2178e-05 5.18825e-05 5.15904e-05 5.13016e-05 5.1016e-05 5.07336e-05 5.04543e-05 5.01781e-05 4.99049e-05 4.96346e-05 4.93673e-05 4.91029e-05 4.88413e-05 4.85825e-05 4.83264e-05 4.80731e-05 4.78224e-05 4.75743e-05 4.73287e-05 4.70857e-05 4.68452e-05 4.66072e-05 4.63715e-05 4.61383e-05 4.59074e-05 4.56788e-05 4.54525e-05;
   (38) 0.00249892 0.00249892 0.00249892 0.00249892 0.00249892 0.00249892 0.00249892 0.00249892 0.00249892 0.00249892 0.00249892 0.00249892 0.00249892 0.00249892 0.00249892 0.00249892 0.00249892 0.00249892 0.00249892 0.00249892 0.00249892 0.00249892 0.00249892 0.00249892 0.00249892 0.00249892 0.00249892 0.00249892 0.00249892 0.00249892 0.00249892 0.00249892 0.00249892 0.00249892 0.00249892 0.00249892 0.00249892 0.00249892 0.85463 0.00121742 0.00118851 0.00116097 0.00113471 0.00110964 0.00108568 0.00106276 0.00104081 0.00101978 0.000999593 0.000980214 0.00096159 0.000943678 0.000926437 0.000909831 0.000893825 0.000878386 0.000863485 0.000849094 0.000835186 0.000821738 0.000808727 0.000796132 0.000783934 0.000772112 0.000760651 0.000749534 0.000738745 0.000728271 0.000718096 0.000708209 0.000698598 0.000689251 0.000680156 0.000671305 0.000662687 0.000654293 0.000646114 0.000638143 0.00063037 0.00062279 0.000615394 0.000608177 0.000601131 0.00059425 0.00058753 0.000580963 0.000574546 0.000568272 0.000562137 0.000370758 0.000366776 0.000362879 0.000359067 0.000355334 0.00035168 0.000348102 0.000344596 0.000255872 0.000253326 0.000250831 0.000198708 8.94457e-05 8.85767e-05 8.77246e-05 8.68887e-05 8.60687e-05 8.52641e-05 8.44745e-05 8.36995e-05 8.29386e-05 8.21914e-05 8.14577e-05 8.0737e-05 8.0029e-05 7.93334e-05 7.86498e-05 7.7978e-05 7.73175e-05 7.66683e-05 7.60298e-05 7.5402e-05 7.47845e-05 7.41771e-05 7.35795e-05 7.29915e-05 7.24129e-05 7.18434e-05 7.12829e-05 7.0731e-05 7.01877e-05 6.96527e-05 6.91259e-05 6.86069e-05 6.80958e-05 6.75922e-05 6.70961e-05 6.66072e-05 6.61255e-05 6.56507e-05 6.51826e-05 6.47213e-05 6.42664e-05 6.3818e-05 6.33758e-05 6.29396e-05 6.25095e-05 6.20853e-05 6.16668e-05 6.12539e-05 6.08465e-05 6.04446e-05 6.00479e-05 5.96564e-05 5.92701e-05 5.88887e-05 5.85122e-05 5.81406e-05 5.77736e-05 5.74113e-05 5.70535e-05 5.67001e-05 5.63512e-05 5.60065e-05 5.5666e-05 5.53297e-05 5.49974e-05 5.46691e-05 5.43447e-05 5.40242e-05 5.37074e-05 5.33943e-05 5.30849e-05 5.27791e-05 5.24768e-05 5.2178e-05 5.18825e-05 5.15904e-05 5.13016e-05 5.1016e-05 5.07336e-05 5.04543e-05 5.01781e-05 4.99049e-05 4.96346e-05 4.93673e-05 4.91029e-05 4.88413e-05 4.85825e-05 4.83264e-05 4.80731e-05 4.78224e-05 4.75743e-05 4.73287e-05 4.70857e-05 4.68452e-05 4.66072e-05 4.63715e-05 4.61383e-05 4.59074e-05 4.56788e-05 4.54525e-05;
