
network "RecogniserBN" {
   property software aGrUM;
}

variable I {
   type discrete[201] {0, 1, 2, 3, 4, 5, 6, 7, 8, 9, 10, 11, 12, 13, 14, 15, 16, 17, 18, 19, 20, 21, 22, 23, 24, 25, 26, 27, 28, 29, 30, 31, 32, 33, 34, 35, 36, 37, 38, 39, 40, 41, 42, 43, 44, 45, 46, 47, 48, 49, 50, 51, 52, 53, 54, 55, 56, 57, 58, 59, 60, 61, 62, 63, 64, 65, 66, 67, 68, 69, 70, 71, 72, 73, 74, 75, 76, 77, 78, 79, 80, 81, 82, 83, 84, 85, 86, 87, 88, 89, 90, 91, 92, 93, 94, 95, 96, 97, 98, 99, 100, 101, 102, 103, 104, 105, 106, 107, 108, 109, 110, 111, 112, 113, 114, 115, 116, 117, 118, 119, 120, 121, 122, 123, 124, 125, 126, 127, 128, 129, 130, 131, 132, 133, 134, 135, 136, 137, 138, 139, 140, 141, 142, 143, 144, 145, 146, 147, 148, 149, 150, 151, 152, 153, 154, 155, 156, 157, 158, 159, 160, 161, 162, 163, 164, 165, 166, 167, 168, 169, 170, 171, 172, 173, 174, 175, 176, 177, 178, 179, 180, 181, 182, 183, 184, 185, 186, 187, 188, 189, 190, 191, 192, 193, 194, 195, 196, 197, 198, 199, 200};
}

variable F {
   type discrete[201] {0, 1, 2, 3, 4, 5, 6, 7, 8, 9, 10, 11, 12, 13, 14, 15, 16, 17, 18, 19, 20, 21, 22, 23, 24, 25, 26, 27, 28, 29, 30, 31, 32, 33, 34, 35, 36, 37, 38, 39, 40, 41, 42, 43, 44, 45, 46, 47, 48, 49, 50, 51, 52, 53, 54, 55, 56, 57, 58, 59, 60, 61, 62, 63, 64, 65, 66, 67, 68, 69, 70, 71, 72, 73, 74, 75, 76, 77, 78, 79, 80, 81, 82, 83, 84, 85, 86, 87, 88, 89, 90, 91, 92, 93, 94, 95, 96, 97, 98, 99, 100, 101, 102, 103, 104, 105, 106, 107, 108, 109, 110, 111, 112, 113, 114, 115, 116, 117, 118, 119, 120, 121, 122, 123, 124, 125, 126, 127, 128, 129, 130, 131, 132, 133, 134, 135, 136, 137, 138, 139, 140, 141, 142, 143, 144, 145, 146, 147, 148, 149, 150, 151, 152, 153, 154, 155, 156, 157, 158, 159, 160, 161, 162, 163, 164, 165, 166, 167, 168, 169, 170, 171, 172, 173, 174, 175, 176, 177, 178, 179, 180, 181, 182, 183, 184, 185, 186, 187, 188, 189, 190, 191, 192, 193, 194, 195, 196, 197, 198, 199, 200};
}

variable G {
   type discrete[2] {Female, Male};
}

variable A {
   type discrete[76] {0, 1, 2, 3, 4, 5, 6, 7, 8, 9, 10, 11, 12, 13, 14, 15, 16, 17, 18, 19, 20, 21, 22, 23, 24, 25, 26, 27, 28, 29, 30, 31, 32, 33, 34, 35, 36, 37, 38, 39, 40, 41, 42, 43, 44, 45, 46, 47, 48, 49, 50, 51, 52, 53, 54, 55, 56, 57, 58, 59, 60, 61, 62, 63, 64, 65, 66, 67, 68, 69, 70, 71, 72, 73, 74, 75};
}

variable H {
   type discrete[191] {50, 51, 52, 53, 54, 55, 56, 57, 58, 59, 60, 61, 62, 63, 64, 65, 66, 67, 68, 69, 70, 71, 72, 73, 74, 75, 76, 77, 78, 79, 80, 81, 82, 83, 84, 85, 86, 87, 88, 89, 90, 91, 92, 93, 94, 95, 96, 97, 98, 99, 100, 101, 102, 103, 104, 105, 106, 107, 108, 109, 110, 111, 112, 113, 114, 115, 116, 117, 118, 119, 120, 121, 122, 123, 124, 125, 126, 127, 128, 129, 130, 131, 132, 133, 134, 135, 136, 137, 138, 139, 140, 141, 142, 143, 144, 145, 146, 147, 148, 149, 150, 151, 152, 153, 154, 155, 156, 157, 158, 159, 160, 161, 162, 163, 164, 165, 166, 167, 168, 169, 170, 171, 172, 173, 174, 175, 176, 177, 178, 179, 180, 181, 182, 183, 184, 185, 186, 187, 188, 189, 190, 191, 192, 193, 194, 195, 196, 197, 198, 199, 200, 201, 202, 203, 204, 205, 206, 207, 208, 209, 210, 211, 212, 213, 214, 215, 216, 217, 218, 219, 220, 221, 222, 223, 224, 225, 226, 227, 228, 229, 230, 231, 232, 233, 234, 235, 236, 237, 238, 239, 240};
}

variable T {
   type discrete[336] {0, 1, 2, 3, 4, 5, 6, 7, 8, 9, 10, 11, 12, 13, 14, 15, 16, 17, 18, 19, 20, 21, 22, 23, 24, 25, 26, 27, 28, 29, 30, 31, 32, 33, 34, 35, 36, 37, 38, 39, 40, 41, 42, 43, 44, 45, 46, 47, 48, 49, 50, 51, 52, 53, 54, 55, 56, 57, 58, 59, 60, 61, 62, 63, 64, 65, 66, 67, 68, 69, 70, 71, 72, 73, 74, 75, 76, 77, 78, 79, 80, 81, 82, 83, 84, 85, 86, 87, 88, 89, 90, 91, 92, 93, 94, 95, 96, 97, 98, 99, 100, 101, 102, 103, 104, 105, 106, 107, 108, 109, 110, 111, 112, 113, 114, 115, 116, 117, 118, 119, 120, 121, 122, 123, 124, 125, 126, 127, 128, 129, 130, 131, 132, 133, 134, 135, 136, 137, 138, 139, 140, 141, 142, 143, 144, 145, 146, 147, 148, 149, 150, 151, 152, 153, 154, 155, 156, 157, 158, 159, 160, 161, 162, 163, 164, 165, 166, 167, 168, 169, 170, 171, 172, 173, 174, 175, 176, 177, 178, 179, 180, 181, 182, 183, 184, 185, 186, 187, 188, 189, 190, 191, 192, 193, 194, 195, 196, 197, 198, 199, 200, 201, 202, 203, 204, 205, 206, 207, 208, 209, 210, 211, 212, 213, 214, 215, 216, 217, 218, 219, 220, 221, 222, 223, 224, 225, 226, 227, 228, 229, 230, 231, 232, 233, 234, 235, 236, 237, 238, 239, 240, 241, 242, 243, 244, 245, 246, 247, 248, 249, 250, 251, 252, 253, 254, 255, 256, 257, 258, 259, 260, 261, 262, 263, 264, 265, 266, 267, 268, 269, 270, 271, 272, 273, 274, 275, 276, 277, 278, 279, 280, 281, 282, 283, 284, 285, 286, 287, 288, 289, 290, 291, 292, 293, 294, 295, 296, 297, 298, 299, 300, 301, 302, 303, 304, 305, 306, 307, 308, 309, 310, 311, 312, 313, 314, 315, 316, 317, 318, 319, 320, 321, 322, 323, 324, 325, 326, 327, 328, 329, 330, 331, 332, 333, 334, 335};
}

probability (I) {
   default 0.00497512 0.00497512 0.00497512 0.00497512 0.00497512 0.00497512 0.00497512 0.00497512 0.00497512 0.00497512 0.00497512 0.00497512 0.00497512 0.00497512 0.00497512 0.00497512 0.00497512 0.00497512 0.00497512 0.00497512 0.00497512 0.00497512 0.00497512 0.00497512 0.00497512 0.00497512 0.00497512 0.00497512 0.00497512 0.00497512 0.00497512 0.00497512 0.00497512 0.00497512 0.00497512 0.00497512 0.00497512 0.00497512 0.00497512 0.00497512 0.00497512 0.00497512 0.00497512 0.00497512 0.00497512 0.00497512 0.00497512 0.00497512 0.00497512 0.00497512 0.00497512 0.00497512 0.00497512 0.00497512 0.00497512 0.00497512 0.00497512 0.00497512 0.00497512 0.00497512 0.00497512 0.00497512 0.00497512 0.00497512 0.00497512 0.00497512 0.00497512 0.00497512 0.00497512 0.00497512 0.00497512 0.00497512 0.00497512 0.00497512 0.00497512 0.00497512 0.00497512 0.00497512 0.00497512 0.00497512 0.00497512 0.00497512 0.00497512 0.00497512 0.00497512 0.00497512 0.00497512 0.00497512 0.00497512 0.00497512 0.00497512 0.00497512 0.00497512 0.00497512 0.00497512 0.00497512 0.00497512 0.00497512 0.00497512 0.00497512 0.00497512 0.00497512 0.00497512 0.00497512 0.00497512 0.00497512 0.00497512 0.00497512 0.00497512 0.00497512 0.00497512 0.00497512 0.00497512 0.00497512 0.00497512 0.00497512 0.00497512 0.00497512 0.00497512 0.00497512 0.00497512 0.00497512 0.00497512 0.00497512 0.00497512 0.00497512 0.00497512 0.00497512 0.00497512 0.00497512 0.00497512 0.00497512 0.00497512 0.00497512 0.00497512 0.00497512 0.00497512 0.00497512 0.00497512 0.00497512 0.00497512 0.00497512 0.00497512 0.00497512 0.00497512 0.00497512 0.00497512 0.00497512 0.00497512 0.00497512 0.00497512 0.00497512 0.00497512 0.00497512 0.00497512 0.00497512 0.00497512 0.00497512 0.00497512 0.00497512 0.00497512 0.00497512 0.00497512 0.00497512 0.00497512 0.00497512 0.00497512 0.00497512 0.00497512 0.00497512 0.00497512 0.00497512 0.00497512 0.00497512 0.00497512 0.00497512 0.00497512 0.00497512 0.00497512 0.00497512 0.00497512 0.00497512 0.00497512 0.00497512 0.00497512 0.00497512 0.00497512 0.00497512 0.00497512 0.00497512 0.00497512 0.00497512 0.00497512 0.00497512 0.00497512 0.00497512 0.00497512 0.00497512 0.00497512 0.00497512 0.00497512;
}
probability (F | I) {
   (0) 0.9 0.0005 0.0005 0.0005 0.0005 0.0005 0.0005 0.0005 0.0005 0.0005 0.0005 0.0005 0.0005 0.0005 0.0005 0.0005 0.0005 0.0005 0.0005 0.0005 0.0005 0.0005 0.0005 0.0005 0.0005 0.0005 0.0005 0.0005 0.0005 0.0005 0.0005 0.0005 0.0005 0.0005 0.0005 0.0005 0.0005 0.0005 0.0005 0.0005 0.0005 0.0005 0.0005 0.0005 0.0005 0.0005 0.0005 0.0005 0.0005 0.0005 0.0005 0.0005 0.0005 0.0005 0.0005 0.0005 0.0005 0.0005 0.0005 0.0005 0.0005 0.0005 0.0005 0.0005 0.0005 0.0005 0.0005 0.0005 0.0005 0.0005 0.0005 0.0005 0.0005 0.0005 0.0005 0.0005 0.0005 0.0005 0.0005 0.0005 0.0005 0.0005 0.0005 0.0005 0.0005 0.0005 0.0005 0.0005 0.0005 0.0005 0.0005 0.0005 0.0005 0.0005 0.0005 0.0005 0.0005 0.0005 0.0005 0.0005 0.0005 0.0005 0.0005 0.0005 0.0005 0.0005 0.0005 0.0005 0.0005 0.0005 0.0005 0.0005 0.0005 0.0005 0.0005 0.0005 0.0005 0.0005 0.0005 0.0005 0.0005 0.0005 0.0005 0.0005 0.0005 0.0005 0.0005 0.0005 0.0005 0.0005 0.0005 0.0005 0.0005 0.0005 0.0005 0.0005 0.0005 0.0005 0.0005 0.0005 0.0005 0.0005 0.0005 0.0005 0.0005 0.0005 0.0005 0.0005 0.0005 0.0005 0.0005 0.0005 0.0005 0.0005 0.0005 0.0005 0.0005 0.0005 0.0005 0.0005 0.0005 0.0005 0.0005 0.0005 0.0005 0.0005 0.0005 0.0005 0.0005 0.0005 0.0005 0.0005 0.0005 0.0005 0.0005 0.0005 0.0005 0.0005 0.0005 0.0005 0.0005 0.0005 0.0005 0.0005 0.0005 0.0005 0.0005 0.0005 0.0005 0.0005 0.0005 0.0005 0.0005 0.0005 0.0005 0.0005 0.0005 0.0005 0.0005 0.0005 0.0005;
   (1) 0.0831662 0.748496 0.0207915 0.0142076 0.0108333 0.00877494 0.00738558 0.00638325 0.00562524 0.00503146 0.00455347 0.00416022 0.00383087 0.00355092 0.00330997 0.00310033 0.00291625 0.00275328 0.00260797 0.00247757 0.00235989 0.00225313 0.00215584 0.00206679 0.00198498 0.00190955 0.00183978 0.00177505 0.00171482 0.00165865 0.00160612 0.0015569 0.00151068 0.00146719 0.0014262 0.00138749 0.000900582 0.000877053 0.000854742 0.000833557 0.000813412 0.000794234 0.000775954 0.00075851 0.000741846 0.00072591 0.000710655 0.000696039 0.000682022 0.000668567 0.000655641 0.000643214 0.000631257 0.000619743 0.000456487 0.000448395 0.000440588 0.000433051 0.000425772 0.000334988 0.000329517 0.000324223 0.000319098 0.000314135 0.000309324 0.000304661 0.000300137 0.000295747 0.000291485 0.000239454 0.00023609 0.00023282 0.000229641 0.000226547 0.000223537 0.000220606 0.000217752 0.000214971 0.000212261 0.000209619 0.000207042 0.000204529 0.000202076 0.000199682 0.000197344 0.000195061 0.000192831 0.000190652 0.000188521 0.000186438 0.000184401 0.000182409 0.000180459 0.000178551 0.000176683 0.000174854 0.000173063 0.000171309 0.000145363 0.000111934 9.06769e-05 3.52736e-05 3.4929e-05 3.45911e-05 3.42597e-05 3.39345e-05 3.36155e-05 3.33025e-05 3.29952e-05 3.26936e-05 3.23975e-05 3.21066e-05 3.1821e-05 3.15404e-05 3.12647e-05 3.09938e-05 3.07276e-05 3.04659e-05 3.02086e-05 2.99557e-05 2.9707e-05 2.94623e-05 2.92217e-05 2.8985e-05 2.8752e-05 2.85228e-05 2.82973e-05 2.80753e-05 2.78567e-05 2.76415e-05 2.74297e-05 2.7221e-05 2.70155e-05 2.68132e-05 2.66138e-05 2.64173e-05 2.62238e-05 2.6033e-05 2.58451e-05 2.56598e-05 2.54772e-05 2.52971e-05 2.51196e-05 2.49446e-05 2.4772e-05 2.46017e-05 2.44338e-05 2.42682e-05 2.41048e-05 2.39436e-05 2.37846e-05 2.36276e-05 2.34727e-05 2.33199e-05 2.3169e-05 2.302e-05 2.2873e-05 2.27278e-05 2.25845e-05 2.2443e-05 2.23032e-05 2.21652e-05 2.20288e-05 2.18942e-05 2.17611e-05 2.16297e-05 2.14999e-05 2.13716e-05 2.12449e-05 2.11196e-05 2.09958e-05 2.08735e-05 2.07525e-05 2.0633e-05 2.05149e-05 2.0398e-05 2.02826e-05 2.01684e-05 2.00555e-05 1.99438e-05 1.98334e-05 1.97242e-05 1.96163e-05 1.95094e-05 1.94038e-05 1.92993e-05 1.91959e-05 1.90936e-05 1.89924e-05 1.88923e-05 1.87932e-05 1.86952e-05 1.85981e-05 1.85021e-05 1.84071e-05 1.8313e-05 1.82199e-05 1.81278e-05 1.80365e-05 1.79462e-05 1.78568e-05;
   (2) 0.0422719 0.0422719 0.760894 0.0140906 0.0107441 0.00870272 0.00732479 0.00633071 0.00557894 0.00499005 0.004516 0.00412598 0.00379934 0.0035217 0.00328272 0.00307482 0.00289225 0.00273062 0.00258651 0.00245718 0.00234047 0.00223459 0.00213809 0.00204978 0.00196864 0.00189384 0.00182464 0.00176044 0.00170071 0.001645 0.0015929 0.00154409 0.00149825 0.00145512 0.00141446 0.00137607 0.00133976 0.00130536 0.00127272 0.00124172 0.00121223 0.00118414 0.00115736 0.00113179 0.00110735 0.00108397 0.000707725 0.000693169 0.000679209 0.00066581 0.000652937 0.000640561 0.000628653 0.000617187 0.000606139 0.000595486 0.000585206 0.000575282 0.000565694 0.000556425 0.000547461 0.000538785 0.000530385 0.000522247 0.000514359 0.000506709 0.000499288 0.000492084 0.000363816 0.000358676 0.00035368 0.000348823 0.000344099 0.000339503 0.00033503 0.000330675 0.000326433 0.000322299 0.00031827 0.000314342 0.000310511 0.000306774 0.000303126 0.000299565 0.000236871 0.00023414 0.000231471 0.000228864 0.000226315 0.000223823 0.000221386 0.000219002 0.000216669 0.000214386 0.000176792 0.000174962 0.00017317 0.000171415 0.000145453 0.000100803 8.3171e-05 2.67095e-05 2.64484e-05 2.61923e-05 2.59411e-05 2.56947e-05 2.5453e-05 2.52158e-05 2.49829e-05 2.47543e-05 2.45299e-05 2.43095e-05 2.4093e-05 2.38804e-05 2.36715e-05 2.34662e-05 2.32645e-05 2.30662e-05 2.28712e-05 2.26795e-05 2.2491e-05 2.23057e-05 2.21233e-05 2.1944e-05 2.17675e-05 2.15938e-05 2.14229e-05 2.12546e-05 2.1089e-05 2.0926e-05 2.07655e-05 2.06074e-05 2.04517e-05 2.02983e-05 2.01473e-05 1.99984e-05 1.98518e-05 1.97073e-05 1.95648e-05 1.94245e-05 1.92861e-05 1.91497e-05 1.90152e-05 1.88826e-05 1.87518e-05 1.86228e-05 1.84956e-05 1.83701e-05 1.82464e-05 1.81242e-05 1.80037e-05 1.78848e-05 1.77675e-05 1.76517e-05 1.75374e-05 1.74245e-05 1.73131e-05 1.72031e-05 1.70946e-05 1.69873e-05 1.68815e-05 1.67769e-05 1.66736e-05 1.65716e-05 1.64708e-05 1.63713e-05 1.62729e-05 1.61757e-05 1.60797e-05 1.59848e-05 1.5891e-05 1.57984e-05 1.57068e-05 1.56162e-05 1.55267e-05 1.54382e-05 1.53507e-05 1.52642e-05 1.51787e-05 1.50942e-05 1.50105e-05 1.49278e-05 1.4846e-05 1.47651e-05 1.46851e-05 1.46059e-05 1.45276e-05 1.44501e-05 1.43735e-05 1.42976e-05 1.42226e-05 1.41483e-05 1.40748e-05 1.40021e-05 1.39301e-05 1.38589e-05 1.37884e-05 1.37186e-05 1.36495e-05 1.35811e-05 1.35133e-05;
   (3) 0.0289171 0.0289171 0.0289171 0.780762 0.0108439 0.00878357 0.00739284 0.00638952 0.00563077 0.00503641 0.00455795 0.00416431 0.00383463 0.00355441 0.00331322 0.00310338 0.00291912 0.00275599 0.00261054 0.00248001 0.00236221 0.00225535 0.00215796 0.00206882 0.00198693 0.00191143 0.00184159 0.00118453 0.00114363 0.00110551 0.00106989 0.00103653 0.00100522 0.000975771 0.000948028 0.000921845 0.000897092 0.000873654 0.000851429 0.000830326 0.000810259 0.000791156 0.000772947 0.00075557 0.000738971 0.000723096 0.000707901 0.000693341 0.000679378 0.000665975 0.0006531 0.000640721 0.00062881 0.000617341 0.00060629 0.000595634 0.000585352 0.000431569 0.000424314 0.000417302 0.000410521 0.000403959 0.000397607 0.000391453 0.00038549 0.000379707 0.000374098 0.000368654 0.000363368 0.000358234 0.000353244 0.000348393 0.000343675 0.000339085 0.000334618 0.000330267 0.000326031 0.000321902 0.000317878 0.000313955 0.000310129 0.000306396 0.000302753 0.000299196 0.000295724 0.000292331 0.000289017 0.000285778 0.000282612 0.000279516 0.000276488 0.000273525 0.000270627 0.000267789 0.000265012 0.000262292 0.000259628 0.000257018 0.000203569 0.000167962 0.000110873 2.90615e-05 2.87774e-05 2.84988e-05 2.82256e-05 2.79576e-05 2.76946e-05 2.74365e-05 2.71832e-05 2.69346e-05 2.66904e-05 2.64507e-05 2.62152e-05 2.59839e-05 2.57567e-05 2.55333e-05 2.53139e-05 2.50982e-05 2.48861e-05 2.46776e-05 2.44725e-05 2.42709e-05 2.40725e-05 2.38774e-05 2.36854e-05 2.34965e-05 2.33105e-05 2.31275e-05 2.29474e-05 2.277e-05 2.25954e-05 2.24234e-05 2.2254e-05 2.20872e-05 2.19228e-05 2.17609e-05 2.16014e-05 2.14442e-05 2.12892e-05 2.11365e-05 2.0986e-05 2.08376e-05 2.06913e-05 2.0547e-05 2.04048e-05 2.02644e-05 2.01261e-05 1.99895e-05 1.98549e-05 1.9722e-05 1.95909e-05 1.94616e-05 1.93339e-05 1.92079e-05 1.90836e-05 1.89608e-05 1.88396e-05 1.872e-05 1.86018e-05 1.84852e-05 1.837e-05 1.82562e-05 1.81439e-05 1.80329e-05 1.79232e-05 1.78149e-05 1.77079e-05 1.76022e-05 1.74977e-05 1.73945e-05 1.72925e-05 1.71917e-05 1.7092e-05 1.69935e-05 1.68961e-05 1.67999e-05 1.67047e-05 1.66106e-05 1.65175e-05 1.64255e-05 1.63346e-05 1.62446e-05 1.61556e-05 1.60676e-05 1.59805e-05 1.58944e-05 1.58092e-05 1.57249e-05 1.56415e-05 1.5559e-05 1.54773e-05 1.53965e-05 1.53166e-05 1.52374e-05 1.51591e-05 1.50816e-05 1.50049e-05 1.49289e-05 1.48538e-05 1.47793e-05 1.47057e-05;
   (4) 0.0215461 0.0215461 0.0215461 0.0215461 0.775658 0.00861843 0.00725384 0.00626939 0.0055249 0.00494172 0.00447225 0.00408601 0.00376254 0.00348758 0.00325093 0.00304503 0.00286423 0.00270417 0.00256145 0.00243338 0.0023178 0.00221294 0.00211738 0.00202993 0.00194958 0.00187549 0.00180696 0.00174339 0.00168424 0.00162906 0.00157748 0.00152913 0.00148374 0.00144102 0.00140076 0.00136274 0.00132678 0.00129271 0.00126039 0.00122969 0.00120049 0.00117267 0.00114615 0.00112082 0.00109662 0.00107347 0.0010513 0.00103005 0.00100967 0.000990093 0.000971281 0.000953188 0.000935774 0.000919001 0.000902834 0.000887239 0.000872188 0.000857651 0.000843604 0.00083002 0.000816878 0.000804156 0.000791835 0.000779894 0.000768318 0.000757088 0.000746191 0.000735611 0.000483556 0.000476781 0.000470197 0.000463795 0.000457569 0.000451509 0.000445611 0.000439868 0.000434273 0.000428821 0.000423507 0.000418325 0.00041327 0.000408338 0.000403524 0.000398824 0.000394235 0.000389751 0.00038537 0.000381088 0.000376902 0.000372809 0.000276603 0.000218912 0.00021658 0.000214298 0.000212063 0.000209876 0.000207733 0.000205635 0.000169649 0.000167963 9.97871e-05 2.90615e-05 2.87774e-05 2.84988e-05 2.82256e-05 2.79576e-05 2.76946e-05 2.74365e-05 2.71832e-05 2.69346e-05 2.66904e-05 2.64507e-05 2.62152e-05 2.59839e-05 2.57567e-05 2.55333e-05 2.53139e-05 2.50982e-05 2.48861e-05 2.46776e-05 2.44725e-05 2.42709e-05 2.40725e-05 2.38774e-05 2.36854e-05 2.34965e-05 2.33105e-05 2.31275e-05 2.29474e-05 2.277e-05 2.25954e-05 2.24234e-05 2.2254e-05 2.20872e-05 2.19228e-05 2.17609e-05 2.16014e-05 2.14442e-05 2.12892e-05 2.11365e-05 2.0986e-05 2.08376e-05 2.06913e-05 2.0547e-05 2.04048e-05 2.02644e-05 2.01261e-05 1.99895e-05 1.98549e-05 1.9722e-05 1.95909e-05 1.94616e-05 1.93339e-05 1.92079e-05 1.90836e-05 1.89608e-05 1.88396e-05 1.872e-05 1.86018e-05 1.84852e-05 1.837e-05 1.82562e-05 1.81439e-05 1.80329e-05 1.79232e-05 1.78149e-05 1.77079e-05 1.76022e-05 1.74977e-05 1.73945e-05 1.72925e-05 1.71917e-05 1.7092e-05 1.69935e-05 1.68961e-05 1.67999e-05 1.67047e-05 1.66106e-05 1.65175e-05 1.64255e-05 1.63346e-05 1.62446e-05 1.61556e-05 1.60676e-05 1.59805e-05 1.58944e-05 1.58092e-05 1.57249e-05 1.56415e-05 1.5559e-05 1.54773e-05 1.53965e-05 1.53166e-05 1.52374e-05 1.51591e-05 1.50816e-05 1.50049e-05 1.49289e-05 1.48538e-05 1.47793e-05 1.47057e-05;
   (5) 0.0175733 0.0175733 0.0175733 0.0175733 0.0175733 0.790797 0.0073222 0.00632847 0.00557697 0.00498829 0.0045144 0.00412452 0.00379799 0.00352045 0.00328156 0.00307373 0.00289123 0.00272966 0.00258559 0.00245631 0.00233964 0.0022338 0.00213734 0.00204906 0.00196795 0.00189317 0.00182399 0.00175982 0.00170011 0.00164441 0.00159234 0.00154354 0.00149772 0.0014546 0.00141396 0.00137558 0.00133928 0.00130489 0.00127227 0.00124128 0.0012118 0.00118372 0.00115695 0.00113139 0.00110696 0.00108359 0.00106121 0.00103976 0.00101918 0.000666282 0.000653401 0.000641016 0.0006291 0.000617625 0.000606569 0.000595908 0.000585622 0.00057569 0.000424571 0.000417555 0.00041077 0.000404204 0.000397848 0.000391691 0.000385724 0.000379938 0.000374325 0.000368878 0.000363589 0.000358451 0.000353458 0.000348604 0.000343884 0.000339291 0.00033482 0.000330468 0.000326228 0.000322097 0.000318071 0.000314146 0.000310317 0.000306582 0.000302936 0.000299378 0.000295903 0.000292509 0.000289192 0.000285951 0.000282783 0.000279685 0.000276655 0.000218953 0.000216621 0.000214338 0.000212103 0.000209915 0.000207773 0.000205673 0.000169681 0.000143996 9.98035e-05 2.67095e-05 2.64484e-05 2.61923e-05 2.59411e-05 2.56947e-05 2.5453e-05 2.52158e-05 2.49829e-05 2.47543e-05 2.45299e-05 2.43095e-05 2.4093e-05 2.38804e-05 2.36715e-05 2.34662e-05 2.32645e-05 2.30662e-05 2.28712e-05 2.26795e-05 2.2491e-05 2.23057e-05 2.21233e-05 2.1944e-05 2.17675e-05 2.15938e-05 2.14229e-05 2.12546e-05 2.1089e-05 2.0926e-05 2.07655e-05 2.06074e-05 2.04517e-05 2.02983e-05 2.01473e-05 1.99984e-05 1.98518e-05 1.97073e-05 1.95648e-05 1.94245e-05 1.92861e-05 1.91497e-05 1.90152e-05 1.88826e-05 1.87518e-05 1.86228e-05 1.84956e-05 1.83701e-05 1.82464e-05 1.81242e-05 1.80037e-05 1.78848e-05 1.77675e-05 1.76517e-05 1.75374e-05 1.74245e-05 1.73131e-05 1.72031e-05 1.70946e-05 1.69873e-05 1.68815e-05 1.67769e-05 1.66736e-05 1.65716e-05 1.64708e-05 1.63713e-05 1.62729e-05 1.61757e-05 1.60797e-05 1.59848e-05 1.5891e-05 1.57984e-05 1.57068e-05 1.56162e-05 1.55267e-05 1.54382e-05 1.53507e-05 1.52642e-05 1.51787e-05 1.50942e-05 1.50105e-05 1.49278e-05 1.4846e-05 1.47651e-05 1.46851e-05 1.46059e-05 1.45276e-05 1.44501e-05 1.43735e-05 1.42976e-05 1.42226e-05 1.41483e-05 1.40748e-05 1.40021e-05 1.39301e-05 1.38589e-05 1.37884e-05 1.37186e-05 1.36495e-05 1.35811e-05 1.35133e-05;
   (6) 0.0148459 0.0148459 0.0148459 0.0148459 0.0148459 0.0148459 0.801677 0.00636251 0.00560696 0.00501512 0.00453868 0.0041467 0.00381842 0.00353939 0.00329921 0.00309026 0.00290678 0.00274434 0.0025995 0.00246953 0.00235222 0.00224581 0.00214883 0.00206008 0.00197853 0.00190335 0.0018338 0.00176928 0.00170925 0.00165326 0.00160091 0.00155185 0.00150578 0.00146243 0.00142157 0.00138298 0.00134648 0.00131191 0.00127912 0.00124796 0.00121832 0.000793393 0.000581349 0.000568167 0.000555577 0.00054354 0.000532019 0.000520982 0.0005104 0.000500244 0.000490489 0.000481112 0.000472091 0.000463407 0.00045504 0.000446973 0.000439191 0.000431678 0.000424422 0.000417408 0.000410625 0.000404062 0.000397708 0.000391553 0.000385588 0.000379804 0.000374193 0.000368748 0.000363461 0.000358325 0.000353334 0.000348482 0.000343763 0.000339171 0.000334702 0.000330351 0.000326113 0.000321984 0.000317959 0.000314035 0.000310208 0.000306474 0.00030283 0.000299272 0.000295799 0.000292406 0.00028909 0.000285851 0.000282684 0.000279587 0.000276558 0.000273595 0.000270695 0.000267857 0.000265079 0.000262358 0.000259694 0.000257084 0.000254526 0.000168013 0.000110907 2.47098e-05 2.44681e-05 2.42312e-05 2.39988e-05 2.37708e-05 2.35471e-05 2.33276e-05 2.31121e-05 2.29006e-05 2.26929e-05 2.2489e-05 2.22887e-05 2.2092e-05 2.18987e-05 2.17087e-05 2.1522e-05 2.13385e-05 2.11582e-05 2.09808e-05 2.08064e-05 2.06349e-05 2.04662e-05 2.03002e-05 2.01369e-05 1.99762e-05 1.9818e-05 1.96624e-05 1.95092e-05 1.93583e-05 1.92098e-05 1.90635e-05 1.89194e-05 1.87775e-05 1.86378e-05 1.85e-05 1.83644e-05 1.82306e-05 1.80989e-05 1.7969e-05 1.7841e-05 1.77147e-05 1.75903e-05 1.74676e-05 1.73466e-05 1.72273e-05 1.71096e-05 1.69935e-05 1.68789e-05 1.67659e-05 1.66544e-05 1.65444e-05 1.64359e-05 1.63287e-05 1.62229e-05 1.61185e-05 1.60155e-05 1.59137e-05 1.58132e-05 1.5714e-05 1.56161e-05 1.55193e-05 1.54238e-05 1.53294e-05 1.52361e-05 1.5144e-05 1.5053e-05 1.49631e-05 1.48743e-05 1.47865e-05 1.46997e-05 1.4614e-05 1.45292e-05 1.44454e-05 1.43626e-05 1.42808e-05 1.41998e-05 1.41198e-05 1.40407e-05 1.39624e-05 1.3885e-05 1.38085e-05 1.37328e-05 1.3658e-05 1.35839e-05 1.35107e-05 1.34382e-05 1.33666e-05 1.32956e-05 1.32255e-05 1.3156e-05 1.30873e-05 1.30193e-05 1.2952e-05 1.28855e-05 1.28195e-05 1.27543e-05 1.26897e-05 1.26258e-05 1.25625e-05 1.24998e-05;
   (7) 0.0127039 0.0127039 0.0127039 0.0127039 0.0127039 0.0127039 0.0127039 0.800346 0.00555796 0.00497129 0.00449901 0.00411046 0.00378505 0.00350845 0.00327038 0.00306325 0.00288137 0.00272035 0.00257678 0.00244794 0.00233166 0.00222618 0.00213005 0.00204207 0.00196124 0.00188671 0.00181778 0.00175382 0.00169431 0.00163881 0.00158691 0.00153828 0.00149262 0.00144965 0.00140914 0.00137089 0.00133472 0.00130045 0.00126794 0.00123705 0.00120767 0.00117969 0.001153 0.00112753 0.00110319 0.0010799 0.00105759 0.00103622 0.00101571 0.000996017 0.000977093 0.000958892 0.000941374 0.0009245 0.000908236 0.000595032 0.000584761 0.000574844 0.000565263 0.000556001 0.000547044 0.000538375 0.000397485 0.000391334 0.000385372 0.000379592 0.000373984 0.000368542 0.000363257 0.000358124 0.000353136 0.000348287 0.000343571 0.000338982 0.000334515 0.000330167 0.000325931 0.000321804 0.000317781 0.000313859 0.000310034 0.000306302 0.00030266 0.000299105 0.000295633 0.000292242 0.000288929 0.000285691 0.000282526 0.000279431 0.000221123 0.000218741 0.000216411 0.000214131 0.000211898 0.000209713 0.000172976 0.000171223 0.000169505 0.000143847 0.000124625 4.11356e-05 4.0734e-05 4.03401e-05 3.99539e-05 3.95749e-05 3.92032e-05 3.88383e-05 3.84802e-05 3.81286e-05 3.77834e-05 3.74445e-05 3.71115e-05 3.67845e-05 3.64632e-05 3.61474e-05 3.58371e-05 3.55321e-05 3.52322e-05 3.49374e-05 3.46474e-05 3.43623e-05 3.40818e-05 3.38059e-05 3.35344e-05 3.32672e-05 3.30043e-05 3.27455e-05 3.24907e-05 3.22399e-05 3.1993e-05 3.17498e-05 3.15102e-05 3.12743e-05 3.10419e-05 3.08129e-05 3.05873e-05 3.03649e-05 3.01458e-05 2.99298e-05 2.9717e-05 2.95071e-05 2.93001e-05 2.90961e-05 2.88949e-05 2.86964e-05 2.85007e-05 2.83076e-05 2.81172e-05 2.79292e-05 2.77438e-05 2.75609e-05 2.73803e-05 2.72021e-05 2.70262e-05 2.68525e-05 2.66811e-05 2.65119e-05 2.63448e-05 2.61798e-05 2.60169e-05 2.58559e-05 2.5697e-05 2.554e-05 2.53849e-05 2.52317e-05 2.50803e-05 2.49308e-05 2.4783e-05 2.4637e-05 2.44927e-05 2.435e-05 2.4209e-05 2.40697e-05 2.39319e-05 2.37957e-05 2.36611e-05 2.3528e-05 2.33964e-05 2.32662e-05 2.31375e-05 2.30102e-05 2.28843e-05 2.27597e-05 2.26366e-05 2.25147e-05 2.23942e-05 2.22749e-05 2.21569e-05 2.20402e-05 2.19247e-05 2.18104e-05 2.16972e-05 2.15853e-05 2.14745e-05 2.13648e-05 2.12563e-05 2.11488e-05 2.10424e-05 2.09371e-05 2.08329e-05;
   (8) 0.0111173 0.0111173 0.0111173 0.0111173 0.0111173 0.0111173 0.0111173 0.0111173 0.800446 0.00494102 0.00447163 0.00408544 0.00376201 0.00348709 0.00325047 0.00304461 0.00286383 0.00270379 0.00256109 0.00243304 0.00231747 0.00221263 0.00211709 0.00202964 0.0019493 0.00187523 0.00180671 0.00174314 0.001684 0.00162883 0.00157725 0.00152892 0.00148353 0.00144082 0.00140056 0.00136255 0.00132659 0.00129253 0.00126022 0.00122952 0.00120032 0.00117251 0.00114599 0.00112067 0.00109647 0.00107332 0.00105116 0.00102991 0.00100953 0.000989954 0.000971144 0.000953054 0.000935643 0.000918872 0.000902707 0.000887114 0.000872065 0.000857531 0.000843485 0.000829903 0.000816763 0.000804043 0.000791723 0.000779784 0.00076821 0.000756982 0.000746086 0.000735507 0.000725232 0.000715247 0.00070554 0.000696099 0.000457943 0.000451879 0.000445976 0.000440228 0.000434629 0.000429172 0.000423853 0.000418667 0.000310206 0.000306472 0.000302828 0.000299271 0.000295797 0.000292404 0.000289089 0.000285849 0.000282682 0.000279585 0.000276557 0.000273593 0.000270694 0.000267856 0.000265078 0.000262357 0.000207754 0.000205655 0.000169666 0.000125985 9.97929e-05 2.82328e-05 2.79568e-05 2.76861e-05 2.74207e-05 2.71603e-05 2.69048e-05 2.6654e-05 2.6408e-05 2.61664e-05 2.59292e-05 2.56962e-05 2.54675e-05 2.52427e-05 2.50219e-05 2.4805e-05 2.45918e-05 2.43822e-05 2.41761e-05 2.39736e-05 2.37743e-05 2.35784e-05 2.33857e-05 2.31961e-05 2.30096e-05 2.2826e-05 2.26454e-05 2.24676e-05 2.22926e-05 2.21203e-05 2.19506e-05 2.17835e-05 2.1619e-05 2.14569e-05 2.12972e-05 2.11399e-05 2.09849e-05 2.08322e-05 2.06816e-05 2.05333e-05 2.0387e-05 2.02428e-05 2.01007e-05 1.99605e-05 1.98223e-05 1.9686e-05 1.95516e-05 1.94189e-05 1.92881e-05 1.9159e-05 1.90317e-05 1.8906e-05 1.87819e-05 1.86595e-05 1.85387e-05 1.84195e-05 1.83017e-05 1.81855e-05 1.80707e-05 1.79574e-05 1.78455e-05 1.7735e-05 1.76258e-05 1.7518e-05 1.74115e-05 1.73062e-05 1.72023e-05 1.70996e-05 1.69981e-05 1.68978e-05 1.67987e-05 1.67007e-05 1.66039e-05 1.65082e-05 1.64136e-05 1.63201e-05 1.62276e-05 1.61362e-05 1.60458e-05 1.59564e-05 1.5868e-05 1.57806e-05 1.56941e-05 1.56086e-05 1.5524e-05 1.54403e-05 1.53576e-05 1.52757e-05 1.51947e-05 1.51145e-05 1.50352e-05 1.49567e-05 1.4879e-05 1.48021e-05 1.4726e-05 1.46507e-05 1.45762e-05 1.45024e-05 1.44294e-05 1.43571e-05 1.42855e-05;
   (9) 0.00995985 0.00995985 0.00995985 0.00995985 0.00995985 0.00995985 0.00995985 0.00995985 0.00995985 0.806748 0.00448193 0.00409486 0.00377068 0.00349513 0.00325796 0.00305162 0.00287043 0.00271003 0.002567 0.00243865 0.00232281 0.00221773 0.00212197 0.00203432 0.00195379 0.00187955 0.00181087 0.00174716 0.00168788 0.00163259 0.00158089 0.00153244 0.00148695 0.00144414 0.00140379 0.00136569 0.00132965 0.00129551 0.00126312 0.00123235 0.00120308 0.00117521 0.00114863 0.00112325 0.001099 0.0010758 0.00105358 0.00103228 0.00101185 0.000992235 0.000973383 0.000955251 0.000937799 0.00092099 0.000904787 0.000889159 0.000874075 0.000859507 0.000845429 0.000831816 0.000818646 0.000805896 0.000793548 0.000781582 0.00076998 0.000505818 0.000498409 0.000491218 0.000484235 0.000477451 0.000470858 0.000464447 0.000458212 0.000339108 0.00033464 0.00033029 0.000326052 0.000321924 0.0003179 0.000313976 0.00031015 0.000306416 0.000302773 0.000299216 0.000295743 0.000292351 0.000289037 0.000285797 0.000282631 0.000279535 0.000276506 0.000273544 0.000270645 0.000267807 0.00026503 0.00026231 0.000259645 0.000257036 0.000203583 0.000111982 9.97871e-05 2.90615e-05 2.87774e-05 2.84988e-05 2.82256e-05 2.79576e-05 2.76946e-05 2.74365e-05 2.71832e-05 2.69346e-05 2.66904e-05 2.64507e-05 2.62152e-05 2.59839e-05 2.57567e-05 2.55333e-05 2.53139e-05 2.50982e-05 2.48861e-05 2.46776e-05 2.44725e-05 2.42709e-05 2.40725e-05 2.38774e-05 2.36854e-05 2.34965e-05 2.33105e-05 2.31275e-05 2.29474e-05 2.277e-05 2.25954e-05 2.24234e-05 2.2254e-05 2.20872e-05 2.19228e-05 2.17609e-05 2.16014e-05 2.14442e-05 2.12892e-05 2.11365e-05 2.0986e-05 2.08376e-05 2.06913e-05 2.0547e-05 2.04048e-05 2.02644e-05 2.01261e-05 1.99895e-05 1.98549e-05 1.9722e-05 1.95909e-05 1.94616e-05 1.93339e-05 1.92079e-05 1.90836e-05 1.89608e-05 1.88396e-05 1.872e-05 1.86018e-05 1.84852e-05 1.837e-05 1.82562e-05 1.81439e-05 1.80329e-05 1.79232e-05 1.78149e-05 1.77079e-05 1.76022e-05 1.74977e-05 1.73945e-05 1.72925e-05 1.71917e-05 1.7092e-05 1.69935e-05 1.68961e-05 1.67999e-05 1.67047e-05 1.66106e-05 1.65175e-05 1.64255e-05 1.63346e-05 1.62446e-05 1.61556e-05 1.60676e-05 1.59805e-05 1.58944e-05 1.58092e-05 1.57249e-05 1.56415e-05 1.5559e-05 1.54773e-05 1.53965e-05 1.53166e-05 1.52374e-05 1.51591e-05 1.50816e-05 1.50049e-05 1.49289e-05 1.48538e-05 1.47793e-05 1.47057e-05;
   (10) 0.0090212 0.0090212 0.0090212 0.0090212 0.0090212 0.0090212 0.0090212 0.0090212 0.0090212 0.0090212 0.811908 0.00410054 0.00377592 0.00349999 0.00326249 0.00305586 0.00287442 0.00271379 0.00257056 0.00244204 0.00232604 0.00222081 0.00212491 0.00203715 0.00195651 0.00188216 0.00181339 0.00174959 0.00169022 0.00163486 0.00158308 0.00153457 0.00148901 0.00144615 0.00140574 0.00136759 0.0013315 0.00129731 0.00126488 0.00123407 0.00120476 0.00117684 0.00115022 0.00112481 0.00110052 0.00107729 0.00105504 0.00103372 0.00101326 0.000993614 0.000974735 0.000956578 0.000939102 0.000922269 0.000906044 0.000890394 0.000875289 0.000860701 0.000846603 0.000555314 0.000546368 0.000537709 0.000529326 0.000521204 0.000513332 0.000505697 0.000498291 0.000491101 0.00048412 0.000477338 0.000470746 0.000464337 0.000458103 0.000452036 0.000446131 0.000440381 0.00043478 0.000429322 0.000424001 0.000418813 0.000310314 0.000306579 0.000302934 0.000299375 0.0002959 0.000292506 0.00028919 0.000228759 0.000226212 0.000223721 0.000221285 0.000218902 0.00021657 0.000214288 0.000212054 0.000209866 0.000207724 0.000205625 0.000145406 0.000111968 9.97744e-05 3.08739e-05 3.05721e-05 3.02763e-05 2.99861e-05 2.97014e-05 2.9422e-05 2.91479e-05 2.88789e-05 2.86148e-05 2.83554e-05 2.81008e-05 2.78507e-05 2.7605e-05 2.73636e-05 2.71264e-05 2.68933e-05 2.66641e-05 2.64389e-05 2.62174e-05 2.59996e-05 2.57854e-05 2.55747e-05 2.53674e-05 2.51635e-05 2.49628e-05 2.47653e-05 2.45709e-05 2.43795e-05 2.41912e-05 2.40056e-05 2.3823e-05 2.36431e-05 2.34658e-05 2.32913e-05 2.31193e-05 2.29498e-05 2.27828e-05 2.26183e-05 2.2456e-05 2.22961e-05 2.21385e-05 2.19831e-05 2.18298e-05 2.16787e-05 2.15297e-05 2.13827e-05 2.12377e-05 2.10946e-05 2.09535e-05 2.08142e-05 2.06768e-05 2.05412e-05 2.04074e-05 2.02753e-05 2.01449e-05 2.00161e-05 1.98891e-05 1.97636e-05 1.96397e-05 1.95173e-05 1.93964e-05 1.92771e-05 1.91592e-05 1.90427e-05 1.89277e-05 1.8814e-05 1.87017e-05 1.85907e-05 1.84811e-05 1.83727e-05 1.82656e-05 1.81597e-05 1.80551e-05 1.79517e-05 1.78494e-05 1.77483e-05 1.76483e-05 1.75495e-05 1.74518e-05 1.73551e-05 1.72595e-05 1.7165e-05 1.70715e-05 1.6979e-05 1.68875e-05 1.6797e-05 1.67075e-05 1.66189e-05 1.65312e-05 1.64445e-05 1.63586e-05 1.62737e-05 1.61896e-05 1.61065e-05 1.60241e-05 1.59426e-05 1.58619e-05 1.57821e-05 1.5703e-05 1.56248e-05;
   (11) 0.00814237 0.00814237 0.00814237 0.00814237 0.00814237 0.00814237 0.00814237 0.00814237 0.00814237 0.00814237 0.00814237 0.806095 0.00373192 0.0034592 0.00322447 0.00302026 0.00284093 0.00268217 0.00254061 0.00241358 0.00229894 0.00219494 0.00210015 0.00201341 0.00193371 0.00186023 0.00179226 0.0017292 0.00167053 0.00161581 0.00156464 0.00151669 0.00147166 0.0014293 0.00138936 0.00135165 0.00131598 0.00128219 0.00125014 0.00121969 0.00119072 0.00116313 0.00113682 0.0011117 0.0010877 0.00106474 0.00104275 0.00102167 0.00100145 0.000982036 0.000963377 0.000945432 0.00092816 0.000911523 0.000895487 0.000880019 0.000865091 0.000850672 0.000836739 0.000823266 0.000810231 0.000797613 0.000785391 0.000773548 0.000762066 0.000750928 0.000740119 0.000729625 0.000719431 0.000709526 0.000699897 0.000690532 0.000681421 0.000672553 0.000663919 0.000655509 0.000647315 0.000639329 0.000631542 0.000623948 0.000616538 0.000609307 0.000602248 0.000595355 0.000588622 0.000582043 0.000575614 0.000569328 0.000563182 0.000557171 0.000551289 0.000545534 0.000539901 0.000534386 0.000528985 0.000523695 0.000518513 0.000513435 0.000508458 0.000251789 0.000199467 3.52736e-05 3.4929e-05 3.45911e-05 3.42597e-05 3.39345e-05 3.36155e-05 3.33025e-05 3.29952e-05 3.26936e-05 3.23975e-05 3.21066e-05 3.1821e-05 3.15404e-05 3.12647e-05 3.09938e-05 3.07276e-05 3.04659e-05 3.02086e-05 2.99557e-05 2.9707e-05 2.94623e-05 2.92217e-05 2.8985e-05 2.8752e-05 2.85228e-05 2.82973e-05 2.80753e-05 2.78567e-05 2.76415e-05 2.74297e-05 2.7221e-05 2.70155e-05 2.68132e-05 2.66138e-05 2.64173e-05 2.62238e-05 2.6033e-05 2.58451e-05 2.56598e-05 2.54772e-05 2.52971e-05 2.51196e-05 2.49446e-05 2.4772e-05 2.46017e-05 2.44338e-05 2.42682e-05 2.41048e-05 2.39436e-05 2.37846e-05 2.36276e-05 2.34727e-05 2.33199e-05 2.3169e-05 2.302e-05 2.2873e-05 2.27278e-05 2.25845e-05 2.2443e-05 2.23032e-05 2.21652e-05 2.20288e-05 2.18942e-05 2.17611e-05 2.16297e-05 2.14999e-05 2.13716e-05 2.12449e-05 2.11196e-05 2.09958e-05 2.08735e-05 2.07525e-05 2.0633e-05 2.05149e-05 2.0398e-05 2.02826e-05 2.01684e-05 2.00555e-05 1.99438e-05 1.98334e-05 1.97242e-05 1.96163e-05 1.95094e-05 1.94038e-05 1.92993e-05 1.91959e-05 1.90936e-05 1.89924e-05 1.88923e-05 1.87932e-05 1.86952e-05 1.85981e-05 1.85021e-05 1.84071e-05 1.8313e-05 1.82199e-05 1.81278e-05 1.80365e-05 1.79462e-05 1.78568e-05;
   (12) 0.00757615 0.00757615 0.00757615 0.00757615 0.00757615 0.00757615 0.00757615 0.00757615 0.00757615 0.00757615 0.00757615 0.00757615 0.818225 0.00349669 0.00325941 0.00305298 0.00287171 0.00271123 0.00256814 0.00243973 0.00232385 0.00221872 0.00212291 0.00203523 0.00195466 0.00188039 0.00181168 0.00174794 0.00168863 0.00163331 0.00158159 0.00153312 0.00148761 0.00144478 0.00140442 0.0013663 0.00133024 0.00129609 0.00126368 0.0012329 0.00120362 0.00117573 0.00114914 0.00112375 0.00109949 0.00107628 0.00105405 0.00103274 0.0010123 0.000992677 0.000973816 0.000955677 0.000938217 0.0009214 0.00090519 0.000889555 0.000874464 0.00085989 0.00056387 0.000554632 0.000545696 0.000537048 0.000528675 0.000520563 0.0005127 0.000505076 0.000497678 0.000490498 0.000483525 0.000476751 0.000470167 0.000463766 0.000457539 0.000451481 0.000445583 0.00043984 0.000434245 0.000428794 0.00042348 0.000418298 0.000309933 0.000306202 0.000302561 0.000299007 0.000295536 0.000292146 0.000288834 0.000285597 0.000282433 0.000279339 0.000276313 0.000273352 0.000270455 0.00026762 0.000264844 0.000262126 0.000259464 0.000256856 0.0002543 0.000167864 0.000166213 3.65767e-05 3.62194e-05 3.5869e-05 3.55254e-05 3.51883e-05 3.48576e-05 3.4533e-05 3.42145e-05 3.39017e-05 3.35947e-05 3.32932e-05 3.2997e-05 3.27061e-05 3.24202e-05 3.21394e-05 3.18633e-05 3.1592e-05 3.13253e-05 3.1063e-05 3.08051e-05 3.05515e-05 3.0302e-05 3.00565e-05 2.9815e-05 2.95774e-05 2.93435e-05 2.91133e-05 2.88867e-05 2.86636e-05 2.84439e-05 2.82276e-05 2.80146e-05 2.78047e-05 2.7598e-05 2.73943e-05 2.71936e-05 2.69959e-05 2.6801e-05 2.66089e-05 2.64195e-05 2.62328e-05 2.60488e-05 2.58673e-05 2.56883e-05 2.55118e-05 2.53377e-05 2.5166e-05 2.49966e-05 2.48294e-05 2.46645e-05 2.45018e-05 2.43412e-05 2.41827e-05 2.40262e-05 2.38718e-05 2.37194e-05 2.35688e-05 2.34202e-05 2.32735e-05 2.31285e-05 2.29854e-05 2.28441e-05 2.27044e-05 2.25665e-05 2.24302e-05 2.22956e-05 2.21626e-05 2.20312e-05 2.19013e-05 2.17729e-05 2.16461e-05 2.15207e-05 2.13968e-05 2.12743e-05 2.11531e-05 2.10334e-05 2.0915e-05 2.07979e-05 2.06822e-05 2.05677e-05 2.04545e-05 2.03425e-05 2.02318e-05 2.01222e-05 2.00139e-05 1.99067e-05 1.98006e-05 1.96957e-05 1.95918e-05 1.94891e-05 1.93874e-05 1.92868e-05 1.91873e-05 1.90887e-05 1.89912e-05 1.88947e-05 1.87991e-05 1.87045e-05 1.86109e-05 1.85182e-05;
   (13) 0.00711917 0.00711917 0.00711917 0.00711917 0.00711917 0.00711917 0.00711917 0.00711917 0.00711917 0.00711917 0.00711917 0.00711917 0.00711917 0.832943 0.00330533 0.00309599 0.00291217 0.00274943 0.00260432 0.0024741 0.00235658 0.00224998 0.00215282 0.0020639 0.0019822 0.00190688 0.0018372 0.00177256 0.00171242 0.00165632 0.00160387 0.00155472 0.00150857 0.00146514 0.0014242 0.00138554 0.00134898 0.00131435 0.00128149 0.00125027 0.00122058 0.0011923 0.00116533 0.00113958 0.00111498 0.00109144 0.000712598 0.000697942 0.000683886 0.000670395 0.000493075 0.000483649 0.000379664 0.000372644 0.000365881 0.000359362 0.000294228 0.000289152 0.000284249 0.000279512 0.000274931 0.000270499 0.000266209 0.000262054 0.000258027 0.000254124 0.000250338 0.000246664 0.000243097 0.000239632 0.000236266 0.000232994 0.000229812 0.000226716 0.000223703 0.00022077 0.000217914 0.000215131 0.000212419 0.000209775 0.000207196 0.000204681 0.000202227 0.000199831 0.000197491 0.000195207 0.000192975 0.000190794 0.000188662 0.000186577 0.000184539 0.000182545 0.000154794 0.000153154 0.000151548 0.000149975 0.000148435 0.000146927 0.000145449 0.000126001 8.3171e-05 2.67095e-05 2.64484e-05 2.61923e-05 2.59411e-05 2.56947e-05 2.5453e-05 2.52158e-05 2.49829e-05 2.47543e-05 2.45299e-05 2.43095e-05 2.4093e-05 2.38804e-05 2.36715e-05 2.34662e-05 2.32645e-05 2.30662e-05 2.28712e-05 2.26795e-05 2.2491e-05 2.23057e-05 2.21233e-05 2.1944e-05 2.17675e-05 2.15938e-05 2.14229e-05 2.12546e-05 2.1089e-05 2.0926e-05 2.07655e-05 2.06074e-05 2.04517e-05 2.02983e-05 2.01473e-05 1.99984e-05 1.98518e-05 1.97073e-05 1.95648e-05 1.94245e-05 1.92861e-05 1.91497e-05 1.90152e-05 1.88826e-05 1.87518e-05 1.86228e-05 1.84956e-05 1.83701e-05 1.82464e-05 1.81242e-05 1.80037e-05 1.78848e-05 1.77675e-05 1.76517e-05 1.75374e-05 1.74245e-05 1.73131e-05 1.72031e-05 1.70946e-05 1.69873e-05 1.68815e-05 1.67769e-05 1.66736e-05 1.65716e-05 1.64708e-05 1.63713e-05 1.62729e-05 1.61757e-05 1.60797e-05 1.59848e-05 1.5891e-05 1.57984e-05 1.57068e-05 1.56162e-05 1.55267e-05 1.54382e-05 1.53507e-05 1.52642e-05 1.51787e-05 1.50942e-05 1.50105e-05 1.49278e-05 1.4846e-05 1.47651e-05 1.46851e-05 1.46059e-05 1.45276e-05 1.44501e-05 1.43735e-05 1.42976e-05 1.42226e-05 1.41483e-05 1.40748e-05 1.40021e-05 1.39301e-05 1.38589e-05 1.37884e-05 1.37186e-05 1.36495e-05 1.35811e-05 1.35133e-05;
   (14) 0.00654165 0.00654165 0.00654165 0.00654165 0.00654165 0.00654165 0.00654165 0.00654165 0.00654165 0.00654165 0.00654165 0.00654165 0.00654165 0.00654165 0.824247 0.00305277 0.00287151 0.00271104 0.00256796 0.00243956 0.00232368 0.00221856 0.00212276 0.00203508 0.00195453 0.00188026 0.00181155 0.00174781 0.00168851 0.0016332 0.00158148 0.00153302 0.00148751 0.00144468 0.00140432 0.0013662 0.00133015 0.001296 0.0012636 0.00123282 0.00120354 0.00117565 0.00114906 0.00112367 0.00109941 0.0010762 0.00105397 0.00103267 0.00101223 0.000992608 0.000973748 0.00095561 0.000938151 0.000921335 0.000905127 0.000889493 0.000874403 0.00085983 0.000845746 0.000832128 0.000818953 0.000806199 0.000529231 0.00052111 0.000513239 0.000505606 0.000498201 0.000491013 0.000484033 0.000477252 0.000470661 0.000464253 0.000343515 0.000338927 0.000334461 0.000330113 0.000325878 0.000321752 0.00031773 0.000313809 0.000309984 0.000306253 0.000302612 0.000299057 0.000295586 0.000292195 0.000288882 0.000285645 0.00028248 0.000279385 0.000276359 0.000273398 0.0002705 0.000267664 0.000264888 0.00026217 0.000259507 0.000256898 0.000254343 0.00020147 0.000142497 3.40601e-05 3.37274e-05 3.3401e-05 3.3081e-05 3.2767e-05 3.2459e-05 3.21566e-05 3.18599e-05 3.15686e-05 3.12826e-05 3.10018e-05 3.07259e-05 3.0455e-05 3.01887e-05 2.99271e-05 2.967e-05 2.94173e-05 2.91689e-05 2.89246e-05 2.86844e-05 2.84482e-05 2.82158e-05 2.79872e-05 2.77622e-05 2.75409e-05 2.73231e-05 2.71087e-05 2.68976e-05 2.66898e-05 2.64852e-05 2.62838e-05 2.60853e-05 2.58899e-05 2.56973e-05 2.55076e-05 2.53207e-05 2.51365e-05 2.4955e-05 2.47761e-05 2.45998e-05 2.44259e-05 2.42545e-05 2.40854e-05 2.39188e-05 2.37544e-05 2.35922e-05 2.34323e-05 2.32745e-05 2.31188e-05 2.29653e-05 2.28137e-05 2.26641e-05 2.25165e-05 2.23708e-05 2.2227e-05 2.2085e-05 2.19448e-05 2.18064e-05 2.16697e-05 2.15347e-05 2.14014e-05 2.12698e-05 2.11397e-05 2.10113e-05 2.08844e-05 2.0759e-05 2.06351e-05 2.05127e-05 2.03918e-05 2.02722e-05 2.01541e-05 2.00373e-05 1.99219e-05 1.98078e-05 1.9695e-05 1.95835e-05 1.94732e-05 1.93642e-05 1.92564e-05 1.91498e-05 1.90443e-05 1.89401e-05 1.88369e-05 1.87349e-05 1.8634e-05 1.85341e-05 1.84354e-05 1.83377e-05 1.8241e-05 1.81453e-05 1.80506e-05 1.79569e-05 1.78642e-05 1.77724e-05 1.76816e-05 1.75917e-05 1.75027e-05 1.74146e-05 1.73274e-05 1.72411e-05;
   (15) 0.00612925 0.00612925 0.00612925 0.00612925 0.00612925 0.00612925 0.00612925 0.00612925 0.00612925 0.00612925 0.00612925 0.00612925 0.00612925 0.00612925 0.00612925 0.827448 0.00287308 0.00271253 0.00256937 0.0024409 0.00232496 0.00221978 0.00212393 0.0020362 0.0019556 0.00188129 0.00181255 0.00174877 0.00168944 0.0016341 0.00158235 0.00153386 0.00148832 0.00144548 0.00140509 0.00136695 0.00133088 0.00129671 0.00126429 0.00123349 0.0012042 0.00117629 0.00114969 0.00112429 0.00110001 0.00107679 0.00105455 0.00103324 0.00101279 0.000662101 0.000649301 0.000636994 0.000625152 0.00061375 0.000602763 0.000592169 0.000581947 0.000572078 0.000562543 0.000553326 0.000544412 0.000535784 0.000527431 0.000519338 0.000511494 0.000503887 0.000496507 0.000489343 0.000482387 0.000475629 0.000469061 0.000462674 0.000456462 0.000450418 0.000444534 0.000438805 0.000433223 0.000427785 0.000422483 0.000417313 0.000412271 0.000407351 0.000402549 0.00039786 0.000393282 0.000388809 0.000384439 0.000380167 0.000375991 0.000371907 0.000367913 0.000364005 0.00036018 0.000356436 0.000352771 0.000349181 0.000345665 0.00034222 0.000338845 0.000335536 0.000249219 4.11356e-05 4.0734e-05 4.03401e-05 3.99539e-05 3.95749e-05 3.92032e-05 3.88383e-05 3.84802e-05 3.81286e-05 3.77834e-05 3.74445e-05 3.71115e-05 3.67845e-05 3.64632e-05 3.61474e-05 3.58371e-05 3.55321e-05 3.52322e-05 3.49374e-05 3.46474e-05 3.43623e-05 3.40818e-05 3.38059e-05 3.35344e-05 3.32672e-05 3.30043e-05 3.27455e-05 3.24907e-05 3.22399e-05 3.1993e-05 3.17498e-05 3.15102e-05 3.12743e-05 3.10419e-05 3.08129e-05 3.05873e-05 3.03649e-05 3.01458e-05 2.99298e-05 2.9717e-05 2.95071e-05 2.93001e-05 2.90961e-05 2.88949e-05 2.86964e-05 2.85007e-05 2.83076e-05 2.81172e-05 2.79292e-05 2.77438e-05 2.75609e-05 2.73803e-05 2.72021e-05 2.70262e-05 2.68525e-05 2.66811e-05 2.65119e-05 2.63448e-05 2.61798e-05 2.60169e-05 2.58559e-05 2.5697e-05 2.554e-05 2.53849e-05 2.52317e-05 2.50803e-05 2.49308e-05 2.4783e-05 2.4637e-05 2.44927e-05 2.435e-05 2.4209e-05 2.40697e-05 2.39319e-05 2.37957e-05 2.36611e-05 2.3528e-05 2.33964e-05 2.32662e-05 2.31375e-05 2.30102e-05 2.28843e-05 2.27597e-05 2.26366e-05 2.25147e-05 2.23942e-05 2.22749e-05 2.21569e-05 2.20402e-05 2.19247e-05 2.18104e-05 2.16972e-05 2.15853e-05 2.14745e-05 2.13648e-05 2.12563e-05 2.11488e-05 2.10424e-05 2.09371e-05 2.08329e-05;
   (16) 0.00575114 0.00575114 0.00575114 0.00575114 0.00575114 0.00575114 0.00575114 0.00575114 0.00575114 0.00575114 0.00575114 0.00575114 0.00575114 0.00575114 0.00575114 0.00575114 0.828164 0.00270642 0.00256358 0.0024354 0.00231972 0.00221478 0.00211914 0.00203161 0.00195119 0.00187705 0.00180846 0.00174483 0.00168563 0.00163041 0.00157878 0.0015304 0.00148497 0.00144222 0.00140192 0.00136387 0.00132788 0.00129378 0.00126144 0.00123071 0.00120148 0.00117364 0.0011471 0.00112175 0.00109753 0.00107436 0.00105218 0.00103091 0.00101051 0.000990914 0.000972087 0.000953979 0.000936551 0.000919764 0.000903583 0.000887975 0.000872912 0.000858363 0.000562869 0.000553647 0.000544727 0.000536095 0.000527736 0.000519639 0.00051179 0.000504179 0.000496794 0.000489627 0.000482666 0.000475904 0.000469332 0.000462942 0.000456727 0.000450679 0.000444792 0.000439059 0.000433474 0.000428032 0.000422728 0.000417555 0.00041251 0.000407587 0.000402782 0.000398091 0.00039351 0.000389034 0.000384662 0.000380387 0.000376209 0.000372123 0.000368126 0.000364215 0.000360389 0.000356643 0.000352975 0.000349383 0.000345865 0.000256814 0.000254259 0.000167836 0.00012464 3.94947e-05 3.9109e-05 3.87309e-05 3.83599e-05 3.79961e-05 3.76391e-05 3.72887e-05 3.69448e-05 3.66072e-05 3.62758e-05 3.59503e-05 3.56306e-05 3.53165e-05 3.5008e-05 3.47048e-05 3.44068e-05 3.41139e-05 3.38259e-05 3.35428e-05 3.32644e-05 3.29906e-05 3.27213e-05 3.24563e-05 3.21956e-05 3.19391e-05 3.16866e-05 3.14381e-05 3.11935e-05 3.09526e-05 3.07155e-05 3.04819e-05 3.02519e-05 3.00254e-05 2.98022e-05 2.95823e-05 2.93657e-05 2.91522e-05 2.89418e-05 2.87344e-05 2.853e-05 2.83285e-05 2.81298e-05 2.79338e-05 2.77406e-05 2.75501e-05 2.73621e-05 2.71768e-05 2.69939e-05 2.68134e-05 2.66354e-05 2.64597e-05 2.62863e-05 2.61152e-05 2.59463e-05 2.57796e-05 2.5615e-05 2.54525e-05 2.5292e-05 2.51336e-05 2.49771e-05 2.48226e-05 2.467e-05 2.45193e-05 2.43703e-05 2.42232e-05 2.40779e-05 2.39343e-05 2.37924e-05 2.36522e-05 2.35136e-05 2.33767e-05 2.32413e-05 2.31075e-05 2.29752e-05 2.28444e-05 2.27152e-05 2.25873e-05 2.2461e-05 2.2336e-05 2.22124e-05 2.20902e-05 2.19693e-05 2.18497e-05 2.17314e-05 2.16144e-05 2.14987e-05 2.13842e-05 2.12709e-05 2.11588e-05 2.10479e-05 2.09381e-05 2.08295e-05 2.0722e-05 2.06156e-05 2.05103e-05 2.04061e-05 2.03029e-05 2.02008e-05 2.00997e-05 1.99996e-05;
   (17) 0.00550872 0.00550872 0.00550872 0.00550872 0.00550872 0.00550872 0.00550872 0.00550872 0.00550872 0.00550872 0.00550872 0.00550872 0.00550872 0.00550872 0.00550872 0.00550872 0.00550872 0.842833 0.00260134 0.00247127 0.00235389 0.0022474 0.00215035 0.00206153 0.00197993 0.00190469 0.0018351 0.00177053 0.00171046 0.00165443 0.00160204 0.00155294 0.00100456 0.000975133 0.000947409 0.000921242 0.000896505 0.000873083 0.000850873 0.000829783 0.00080973 0.000790639 0.000772442 0.000755077 0.000738488 0.000722624 0.000707438 0.000692888 0.000678934 0.00066554 0.000652673 0.000640302 0.000628399 0.000616938 0.000605894 0.000595245 0.00058497 0.000575049 0.000565465 0.0005562 0.000547239 0.000538567 0.000397628 0.000391474 0.00038551 0.000379727 0.000374118 0.000368674 0.000363387 0.000358253 0.000353263 0.000348412 0.000343693 0.000339103 0.000334635 0.000330285 0.000326048 0.000321919 0.000317895 0.000313972 0.000310145 0.000306412 0.000302769 0.000299212 0.000295739 0.000292347 0.000289032 0.000285793 0.000282627 0.000279531 0.000221202 0.00021882 0.000216489 0.000214208 0.000176645 0.000174817 0.000173026 0.000171272 0.000145332 0.000143885 8.31053e-05 3.79797e-05 3.76088e-05 3.72451e-05 3.68883e-05 3.65383e-05 3.6195e-05 3.5858e-05 3.55273e-05 3.52026e-05 3.48838e-05 3.45707e-05 3.42632e-05 3.39612e-05 3.36644e-05 3.33728e-05 3.30862e-05 3.28045e-05 3.25276e-05 3.22553e-05 3.19876e-05 3.17242e-05 3.14652e-05 3.12103e-05 3.09596e-05 3.07129e-05 3.04701e-05 3.02311e-05 2.99958e-05 2.97642e-05 2.95361e-05 2.93115e-05 2.90903e-05 2.88724e-05 2.86578e-05 2.84463e-05 2.8238e-05 2.80326e-05 2.78303e-05 2.76308e-05 2.74342e-05 2.72404e-05 2.70493e-05 2.68609e-05 2.66751e-05 2.64918e-05 2.63111e-05 2.61328e-05 2.59569e-05 2.57833e-05 2.56121e-05 2.54431e-05 2.52764e-05 2.51118e-05 2.49494e-05 2.4789e-05 2.46307e-05 2.44745e-05 2.43202e-05 2.41678e-05 2.40173e-05 2.38687e-05 2.37219e-05 2.3577e-05 2.34338e-05 2.32923e-05 2.31525e-05 2.30144e-05 2.28779e-05 2.27431e-05 2.26098e-05 2.24781e-05 2.23479e-05 2.22192e-05 2.2092e-05 2.19663e-05 2.1842e-05 2.1719e-05 2.15975e-05 2.14773e-05 2.13584e-05 2.12409e-05 2.11246e-05 2.10096e-05 2.08959e-05 2.07834e-05 2.06721e-05 2.05619e-05 2.0453e-05 2.03452e-05 2.02385e-05 2.0133e-05 2.00285e-05 1.99251e-05 1.98228e-05 1.97216e-05 1.96213e-05 1.95221e-05 1.94239e-05 1.93267e-05 1.92304e-05;
   (18) 0.00513869 0.00513869 0.00513869 0.00513869 0.00513869 0.00513869 0.00513869 0.00513869 0.00513869 0.00513869 0.00513869 0.00513869 0.00513869 0.00513869 0.00513869 0.00513869 0.00513869 0.00513869 0.832468 0.00243412 0.0023185 0.00221361 0.00211802 0.00203054 0.00195016 0.00187606 0.00180751 0.00174391 0.00168474 0.00162955 0.00157795 0.0015296 0.00148419 0.00144146 0.00140118 0.00136315 0.00132718 0.0012931 0.00126077 0.00123006 0.00120085 0.00117303 0.00114649 0.00112116 0.00109696 0.0010738 0.00105162 0.00103037 0.00100997 0.000990392 0.000971574 0.000953476 0.000936057 0.000919279 0.000903106 0.000887507 0.000872451 0.00085791 0.000843858 0.000830271 0.000817125 0.000804399 0.000792074 0.00078013 0.00076855 0.000757317 0.000746416 0.000735833 0.000725553 0.000477042 0.000470454 0.000464049 0.000457819 0.000451756 0.000445855 0.000440109 0.000434511 0.000429056 0.000423738 0.000418553 0.000413496 0.000306421 0.000302777 0.000299221 0.000295748 0.000292355 0.000289041 0.000285801 0.000282635 0.000279539 0.000221208 0.000218826 0.000216495 0.000214214 0.00021198 0.000174828 0.000173037 0.000171283 0.000169564 0.00012591 0.000110815 3.65767e-05 3.62194e-05 3.5869e-05 3.55254e-05 3.51883e-05 3.48576e-05 3.4533e-05 3.42145e-05 3.39017e-05 3.35947e-05 3.32932e-05 3.2997e-05 3.27061e-05 3.24202e-05 3.21394e-05 3.18633e-05 3.1592e-05 3.13253e-05 3.1063e-05 3.08051e-05 3.05515e-05 3.0302e-05 3.00565e-05 2.9815e-05 2.95774e-05 2.93435e-05 2.91133e-05 2.88867e-05 2.86636e-05 2.84439e-05 2.82276e-05 2.80146e-05 2.78047e-05 2.7598e-05 2.73943e-05 2.71936e-05 2.69959e-05 2.6801e-05 2.66089e-05 2.64195e-05 2.62328e-05 2.60488e-05 2.58673e-05 2.56883e-05 2.55118e-05 2.53377e-05 2.5166e-05 2.49966e-05 2.48294e-05 2.46645e-05 2.45018e-05 2.43412e-05 2.41827e-05 2.40262e-05 2.38718e-05 2.37194e-05 2.35688e-05 2.34202e-05 2.32735e-05 2.31285e-05 2.29854e-05 2.28441e-05 2.27044e-05 2.25665e-05 2.24302e-05 2.22956e-05 2.21626e-05 2.20312e-05 2.19013e-05 2.17729e-05 2.16461e-05 2.15207e-05 2.13968e-05 2.12743e-05 2.11531e-05 2.10334e-05 2.0915e-05 2.07979e-05 2.06822e-05 2.05677e-05 2.04545e-05 2.03425e-05 2.02318e-05 2.01222e-05 2.00139e-05 1.99067e-05 1.98006e-05 1.96957e-05 1.95918e-05 1.94891e-05 1.93874e-05 1.92868e-05 1.91873e-05 1.90887e-05 1.89912e-05 1.88947e-05 1.87991e-05 1.87045e-05 1.86109e-05 1.85182e-05;
   (19) 0.00485528 0.00485528 0.00485528 0.00485528 0.00485528 0.00485528 0.00485528 0.00485528 0.00485528 0.00485528 0.00485528 0.00485528 0.00485528 0.00485528 0.00485528 0.00485528 0.00485528 0.00485528 0.00485528 0.830253 0.00230626 0.00220193 0.00210684 0.00201982 0.00193987 0.00186616 0.00179797 0.00173471 0.00167585 0.00162095 0.00156962 0.00152152 0.00147635 0.00143385 0.00139379 0.00135596 0.00132017 0.00128628 0.00125412 0.00122357 0.00119451 0.00116683 0.00114044 0.00111525 0.00109117 0.00106813 0.00104607 0.00102493 0.00100464 0.000985164 0.000966446 0.000948444 0.000931116 0.000914427 0.000898339 0.000882823 0.000867846 0.000853382 0.000839404 0.000825888 0.000812812 0.000800153 0.000787893 0.000776012 0.000764493 0.00075332 0.000742476 0.000731949 0.000721723 0.000711786 0.000702126 0.000692732 0.000683591 0.000674695 0.000666034 0.000657597 0.000649377 0.000641366 0.000633554 0.000625935 0.000618502 0.000611248 0.000604167 0.000597252 0.000393665 0.000389188 0.000384813 0.000380537 0.000376357 0.00037227 0.000368271 0.000364359 0.000360531 0.000356783 0.000353114 0.000349521 0.000346002 0.000342553 0.000169587 0.000167903 0.000110834 3.40601e-05 3.37274e-05 3.3401e-05 3.3081e-05 3.2767e-05 3.2459e-05 3.21566e-05 3.18599e-05 3.15686e-05 3.12826e-05 3.10018e-05 3.07259e-05 3.0455e-05 3.01887e-05 2.99271e-05 2.967e-05 2.94173e-05 2.91689e-05 2.89246e-05 2.86844e-05 2.84482e-05 2.82158e-05 2.79872e-05 2.77622e-05 2.75409e-05 2.73231e-05 2.71087e-05 2.68976e-05 2.66898e-05 2.64852e-05 2.62838e-05 2.60853e-05 2.58899e-05 2.56973e-05 2.55076e-05 2.53207e-05 2.51365e-05 2.4955e-05 2.47761e-05 2.45998e-05 2.44259e-05 2.42545e-05 2.40854e-05 2.39188e-05 2.37544e-05 2.35922e-05 2.34323e-05 2.32745e-05 2.31188e-05 2.29653e-05 2.28137e-05 2.26641e-05 2.25165e-05 2.23708e-05 2.2227e-05 2.2085e-05 2.19448e-05 2.18064e-05 2.16697e-05 2.15347e-05 2.14014e-05 2.12698e-05 2.11397e-05 2.10113e-05 2.08844e-05 2.0759e-05 2.06351e-05 2.05127e-05 2.03918e-05 2.02722e-05 2.01541e-05 2.00373e-05 1.99219e-05 1.98078e-05 1.9695e-05 1.95835e-05 1.94732e-05 1.93642e-05 1.92564e-05 1.91498e-05 1.90443e-05 1.89401e-05 1.88369e-05 1.87349e-05 1.8634e-05 1.85341e-05 1.84354e-05 1.83377e-05 1.8241e-05 1.81453e-05 1.80506e-05 1.79569e-05 1.78642e-05 1.77724e-05 1.76816e-05 1.75917e-05 1.75027e-05 1.74146e-05 1.73274e-05 1.72411e-05;
   (20) 0.00466797 0.00466797 0.00466797 0.00466797 0.00466797 0.00466797 0.00466797 0.00466797 0.00466797 0.00466797 0.00466797 0.00466797 0.00466797 0.00466797 0.00466797 0.00466797 0.00466797 0.00466797 0.00466797 0.00466797 0.840234 0.00222284 0.00212685 0.00203901 0.0019583 0.00188388 0.00181505 0.00175118 0.00169177 0.00163635 0.00158453 0.00153597 0.00149037 0.00144747 0.00140702 0.00136883 0.00133271 0.00129849 0.00126603 0.00123519 0.00120586 0.00117792 0.00115127 0.00112584 0.00110153 0.00107827 0.00105601 0.00103466 0.00101418 0.000994521 0.000975625 0.000957452 0.00093996 0.000923111 0.000906871 0.000594138 0.000583882 0.00057398 0.000564414 0.000555166 0.000546222 0.000537566 0.000529185 0.000521065 0.000513195 0.000505562 0.000498158 0.00049097 0.000483991 0.00047721 0.00047062 0.000464213 0.00045798 0.000451916 0.000446012 0.000440264 0.000434664 0.000429207 0.000423888 0.000314026 0.000310199 0.000306465 0.000302821 0.000299264 0.00029579 0.000292397 0.000289082 0.000285842 0.000282675 0.000279579 0.00027655 0.000273587 0.000270687 0.00026785 0.000265071 0.000209881 0.000207738 0.000205639 0.000145416 0.000143969 0.000124731 2.90615e-05 2.87774e-05 2.84988e-05 2.82256e-05 2.79576e-05 2.76946e-05 2.74365e-05 2.71832e-05 2.69346e-05 2.66904e-05 2.64507e-05 2.62152e-05 2.59839e-05 2.57567e-05 2.55333e-05 2.53139e-05 2.50982e-05 2.48861e-05 2.46776e-05 2.44725e-05 2.42709e-05 2.40725e-05 2.38774e-05 2.36854e-05 2.34965e-05 2.33105e-05 2.31275e-05 2.29474e-05 2.277e-05 2.25954e-05 2.24234e-05 2.2254e-05 2.20872e-05 2.19228e-05 2.17609e-05 2.16014e-05 2.14442e-05 2.12892e-05 2.11365e-05 2.0986e-05 2.08376e-05 2.06913e-05 2.0547e-05 2.04048e-05 2.02644e-05 2.01261e-05 1.99895e-05 1.98549e-05 1.9722e-05 1.95909e-05 1.94616e-05 1.93339e-05 1.92079e-05 1.90836e-05 1.89608e-05 1.88396e-05 1.872e-05 1.86018e-05 1.84852e-05 1.837e-05 1.82562e-05 1.81439e-05 1.80329e-05 1.79232e-05 1.78149e-05 1.77079e-05 1.76022e-05 1.74977e-05 1.73945e-05 1.72925e-05 1.71917e-05 1.7092e-05 1.69935e-05 1.68961e-05 1.67999e-05 1.67047e-05 1.66106e-05 1.65175e-05 1.64255e-05 1.63346e-05 1.62446e-05 1.61556e-05 1.60676e-05 1.59805e-05 1.58944e-05 1.58092e-05 1.57249e-05 1.56415e-05 1.5559e-05 1.54773e-05 1.53965e-05 1.53166e-05 1.52374e-05 1.51591e-05 1.50816e-05 1.50049e-05 1.49289e-05 1.48538e-05 1.47793e-05 1.47057e-05;
   (21) 0.00454033 0.00454033 0.00454033 0.00454033 0.00454033 0.00454033 0.00454033 0.00454033 0.00454033 0.00454033 0.00454033 0.00454033 0.00454033 0.00454033 0.00454033 0.00454033 0.00454033 0.00454033 0.00454033 0.00454033 0.00454033 0.858122 0.00216698 0.00207747 0.00199524 0.00127961 0.00123204 0.00118793 0.00114691 0.00110868 0.00107296 0.0010395 0.0010081 0.00097857 0.000950748 0.000924489 0.000899665 0.00087616 0.000853872 0.000832708 0.000812584 0.000793425 0.000775164 0.000757738 0.000741091 0.000725171 0.000709932 0.00069533 0.000681327 0.000667886 0.000654974 0.000642559 0.000630614 0.000619112 0.000608029 0.000597343 0.000440274 0.000432743 0.000425468 0.000418437 0.000411637 0.000405058 0.000398688 0.000392518 0.000386538 0.00038074 0.000375116 0.000369657 0.000364357 0.000359208 0.000354205 0.000349341 0.00034461 0.000272006 0.000268404 0.000264897 0.000261481 0.000258153 0.000254909 0.000251747 0.000248663 0.000245655 0.000242719 0.000239853 0.000237055 0.000195268 0.000193035 0.000190854 0.000188721 0.000186636 0.000184597 0.000182602 0.000154843 0.000153202 0.000151595 0.00013127 0.000129919 0.000128597 9.25824e-05 7.75548e-05 6.65472e-05 2.47098e-05 2.44681e-05 2.42312e-05 2.39988e-05 2.37708e-05 2.35471e-05 2.33276e-05 2.31121e-05 2.29006e-05 2.26929e-05 2.2489e-05 2.22887e-05 2.2092e-05 2.18987e-05 2.17087e-05 2.1522e-05 2.13385e-05 2.11582e-05 2.09808e-05 2.08064e-05 2.06349e-05 2.04662e-05 2.03002e-05 2.01369e-05 1.99762e-05 1.9818e-05 1.96624e-05 1.95092e-05 1.93583e-05 1.92098e-05 1.90635e-05 1.89194e-05 1.87775e-05 1.86378e-05 1.85e-05 1.83644e-05 1.82306e-05 1.80989e-05 1.7969e-05 1.7841e-05 1.77147e-05 1.75903e-05 1.74676e-05 1.73466e-05 1.72273e-05 1.71096e-05 1.69935e-05 1.68789e-05 1.67659e-05 1.66544e-05 1.65444e-05 1.64359e-05 1.63287e-05 1.62229e-05 1.61185e-05 1.60155e-05 1.59137e-05 1.58132e-05 1.5714e-05 1.56161e-05 1.55193e-05 1.54238e-05 1.53294e-05 1.52361e-05 1.5144e-05 1.5053e-05 1.49631e-05 1.48743e-05 1.47865e-05 1.46997e-05 1.4614e-05 1.45292e-05 1.44454e-05 1.43626e-05 1.42808e-05 1.41998e-05 1.41198e-05 1.40407e-05 1.39624e-05 1.3885e-05 1.38085e-05 1.37328e-05 1.3658e-05 1.35839e-05 1.35107e-05 1.34382e-05 1.33666e-05 1.32956e-05 1.32255e-05 1.3156e-05 1.30873e-05 1.30193e-05 1.2952e-05 1.28855e-05 1.28195e-05 1.27543e-05 1.26897e-05 1.26258e-05 1.25625e-05 1.24998e-05;
   (22) 0.00428195 0.00428195 0.00428195 0.00428195 0.00428195 0.00428195 0.00428195 0.00428195 0.00428195 0.00428195 0.00428195 0.00428195 0.00428195 0.00428195 0.00428195 0.00428195 0.00428195 0.00428195 0.00428195 0.00428195 0.00428195 0.00428195 0.847826 0.00204789 0.00196683 0.00189209 0.00182295 0.00175881 0.00169914 0.00164348 0.00159143 0.00154266 0.00149687 0.00145377 0.00141315 0.0013748 0.00133852 0.00130415 0.00127155 0.00124057 0.00121111 0.00118305 0.00115629 0.00113074 0.00110633 0.00108297 0.00106061 0.00103917 0.0010186 0.000998853 0.000979875 0.000961623 0.000944054 0.000927133 0.000910822 0.000596726 0.000586426 0.000576481 0.000566873 0.000418189 0.000411393 0.000404818 0.000398451 0.000392285 0.000386309 0.000380514 0.000374893 0.00029555 0.00029129 0.000287153 0.000283133 0.000279225 0.000275425 0.000271727 0.000268129 0.000264625 0.000261213 0.000257888 0.000254648 0.000251489 0.000248408 0.000245403 0.00024247 0.000239607 0.000236812 0.000234081 0.000231414 0.000228807 0.000226259 0.000223768 0.000184443 0.00018245 0.0001805 0.000178591 0.000176723 0.000174894 0.000173102 0.000171347 0.000145395 0.000125954 9.06985e-05 3.18676e-05 3.15562e-05 3.12508e-05 3.09513e-05 3.06575e-05 3.03692e-05 3.00863e-05 2.98086e-05 2.9536e-05 2.92683e-05 2.90055e-05 2.87474e-05 2.84938e-05 2.82447e-05 2.79998e-05 2.77592e-05 2.75228e-05 2.72903e-05 2.70617e-05 2.68369e-05 2.66158e-05 2.63983e-05 2.61844e-05 2.59739e-05 2.57668e-05 2.5563e-05 2.53623e-05 2.51648e-05 2.49704e-05 2.47789e-05 2.45904e-05 2.44047e-05 2.42218e-05 2.40416e-05 2.38641e-05 2.36892e-05 2.35168e-05 2.3347e-05 2.31796e-05 2.30145e-05 2.28518e-05 2.26914e-05 2.25333e-05 2.23773e-05 2.22234e-05 2.20717e-05 2.19221e-05 2.17744e-05 2.16288e-05 2.1485e-05 2.13432e-05 2.12032e-05 2.10651e-05 2.09288e-05 2.07942e-05 2.06613e-05 2.05301e-05 2.04006e-05 2.02727e-05 2.01464e-05 2.00217e-05 1.98985e-05 1.97768e-05 1.96566e-05 1.95379e-05 1.94205e-05 1.93046e-05 1.91901e-05 1.90769e-05 1.89651e-05 1.88545e-05 1.87452e-05 1.86372e-05 1.85305e-05 1.84249e-05 1.83206e-05 1.82174e-05 1.81154e-05 1.80145e-05 1.79148e-05 1.78161e-05 1.77185e-05 1.7622e-05 1.75265e-05 1.74321e-05 1.73387e-05 1.72463e-05 1.71548e-05 1.70644e-05 1.69748e-05 1.68863e-05 1.67986e-05 1.67118e-05 1.6626e-05 1.6541e-05 1.64569e-05 1.63736e-05 1.62912e-05 1.62096e-05 1.61288e-05;
   (23) 0.00408792 0.00408792 0.00408792 0.00408792 0.00408792 0.00408792 0.00408792 0.00408792 0.00408792 0.00408792 0.00408792 0.00408792 0.00408792 0.00408792 0.00408792 0.00408792 0.00408792 0.00408792 0.00408792 0.00408792 0.00408792 0.00408792 0.00408792 0.8462 0.0019588 0.00188436 0.00181551 0.00175163 0.0016922 0.00163677 0.00158494 0.00153636 0.00149075 0.00144784 0.00140738 0.00136918 0.00133305 0.00129883 0.00126635 0.00123551 0.00120616 0.00117822 0.00115157 0.00112612 0.00110181 0.00107855 0.00105628 0.00103493 0.00101444 0.000994775 0.000975874 0.000957696 0.0009402 0.000923347 0.000907103 0.00059429 0.000584031 0.000574127 0.000564558 0.000555308 0.000546362 0.000537703 0.00052932 0.000521198 0.000513326 0.000505692 0.000498285 0.000491096 0.000484115 0.000477332 0.000470741 0.000464331 0.000458097 0.000452031 0.000446126 0.000440376 0.000434775 0.000429317 0.000423996 0.000418808 0.000413747 0.00040881 0.00040399 0.000299464 0.000295988 0.000292593 0.000289276 0.000228827 0.000226279 0.000223787 0.00022135 0.000218967 0.000216634 0.000214351 0.000212117 0.000209928 0.000207785 0.000171405 0.000145444 0.000111997 7.67697e-05 2.745e-05 2.71817e-05 2.69185e-05 2.66604e-05 2.64072e-05 2.61588e-05 2.5915e-05 2.56757e-05 2.54408e-05 2.52101e-05 2.49836e-05 2.47612e-05 2.45427e-05 2.4328e-05 2.4117e-05 2.39097e-05 2.37059e-05 2.35056e-05 2.33086e-05 2.31149e-05 2.29244e-05 2.2737e-05 2.25527e-05 2.23713e-05 2.21928e-05 2.20172e-05 2.18443e-05 2.16741e-05 2.15066e-05 2.13416e-05 2.11791e-05 2.10191e-05 2.08615e-05 2.07063e-05 2.05533e-05 2.04026e-05 2.02541e-05 2.01077e-05 1.99635e-05 1.98213e-05 1.96811e-05 1.95429e-05 1.94066e-05 1.92722e-05 1.91397e-05 1.90089e-05 1.888e-05 1.87528e-05 1.86273e-05 1.85034e-05 1.83812e-05 1.82606e-05 1.81416e-05 1.80241e-05 1.79082e-05 1.77937e-05 1.76807e-05 1.75691e-05 1.74589e-05 1.73501e-05 1.72426e-05 1.71365e-05 1.70316e-05 1.69281e-05 1.68258e-05 1.67247e-05 1.66248e-05 1.65261e-05 1.64286e-05 1.63322e-05 1.6237e-05 1.61429e-05 1.60498e-05 1.59578e-05 1.58669e-05 1.5777e-05 1.56881e-05 1.56002e-05 1.55133e-05 1.54274e-05 1.53424e-05 1.52583e-05 1.51751e-05 1.50929e-05 1.50115e-05 1.49311e-05 1.48514e-05 1.47727e-05 1.46947e-05 1.46176e-05 1.45413e-05 1.44657e-05 1.4391e-05 1.4317e-05 1.42438e-05 1.41713e-05 1.40996e-05 1.40286e-05 1.39583e-05 1.38887e-05;
   (24) 0.00390611 0.00390611 0.00390611 0.00390611 0.00390611 0.00390611 0.00390611 0.00390611 0.00390611 0.00390611 0.00390611 0.00390611 0.00390611 0.00390611 0.00390611 0.00390611 0.00390611 0.00390611 0.00390611 0.00390611 0.00390611 0.00390611 0.00390611 0.00390611 0.843721 0.00187493 0.00180643 0.00174287 0.00168373 0.00162858 0.00157701 0.00152868 0.0014833 0.0014406 0.00140034 0.00136233 0.00132638 0.00129233 0.00126002 0.00122933 0.00120013 0.00117232 0.00114581 0.00112049 0.0010963 0.00107315 0.00105099 0.00102975 0.00100937 0.000989798 0.000970992 0.000952905 0.000935496 0.000918728 0.000902565 0.000886975 0.000871929 0.000857396 0.000843353 0.000829773 0.000816635 0.000803917 0.000791599 0.000779662 0.000768089 0.000756863 0.000497313 0.000490138 0.00048317 0.000476401 0.000469822 0.000463425 0.000457203 0.000451149 0.000445256 0.000439517 0.000433927 0.000428479 0.000423169 0.000417991 0.00041294 0.000408012 0.000403202 0.000398506 0.00039392 0.00038944 0.000385063 0.000380784 0.000376602 0.000372511 0.00036851 0.000364595 0.000270573 0.000267737 0.00026496 0.00026224 0.000259577 0.000256968 0.000203529 0.000167929 0.000110852 3.18676e-05 3.15562e-05 3.12508e-05 3.09513e-05 3.06575e-05 3.03692e-05 3.00863e-05 2.98086e-05 2.9536e-05 2.92683e-05 2.90055e-05 2.87474e-05 2.84938e-05 2.82447e-05 2.79998e-05 2.77592e-05 2.75228e-05 2.72903e-05 2.70617e-05 2.68369e-05 2.66158e-05 2.63983e-05 2.61844e-05 2.59739e-05 2.57668e-05 2.5563e-05 2.53623e-05 2.51648e-05 2.49704e-05 2.47789e-05 2.45904e-05 2.44047e-05 2.42218e-05 2.40416e-05 2.38641e-05 2.36892e-05 2.35168e-05 2.3347e-05 2.31796e-05 2.30145e-05 2.28518e-05 2.26914e-05 2.25333e-05 2.23773e-05 2.22234e-05 2.20717e-05 2.19221e-05 2.17744e-05 2.16288e-05 2.1485e-05 2.13432e-05 2.12032e-05 2.10651e-05 2.09288e-05 2.07942e-05 2.06613e-05 2.05301e-05 2.04006e-05 2.02727e-05 2.01464e-05 2.00217e-05 1.98985e-05 1.97768e-05 1.96566e-05 1.95379e-05 1.94205e-05 1.93046e-05 1.91901e-05 1.90769e-05 1.89651e-05 1.88545e-05 1.87452e-05 1.86372e-05 1.85305e-05 1.84249e-05 1.83206e-05 1.82174e-05 1.81154e-05 1.80145e-05 1.79148e-05 1.78161e-05 1.77185e-05 1.7622e-05 1.75265e-05 1.74321e-05 1.73387e-05 1.72463e-05 1.71548e-05 1.70644e-05 1.69748e-05 1.68863e-05 1.67986e-05 1.67118e-05 1.6626e-05 1.6541e-05 1.64569e-05 1.63736e-05 1.62912e-05 1.62096e-05 1.61288e-05;
   (25) 0.00375681 0.00375681 0.00375681 0.00375681 0.00375681 0.00375681 0.00375681 0.00375681 0.00375681 0.00375681 0.00375681 0.00375681 0.00375681 0.00375681 0.00375681 0.00375681 0.00375681 0.00375681 0.00375681 0.00375681 0.00375681 0.00375681 0.00375681 0.00375681 0.00375681 0.845281 0.00180616 0.00174261 0.00168348 0.00162833 0.00157677 0.00152845 0.00148307 0.00144038 0.00140013 0.00136213 0.00132618 0.00129213 0.00125983 0.00122914 0.00119995 0.00117215 0.00114563 0.00112032 0.00109613 0.00107299 0.00105083 0.00102959 0.00100922 0.00098965 0.000970847 0.000952762 0.000935356 0.00091859 0.00090243 0.000886842 0.000871798 0.000857268 0.000843226 0.000829649 0.000816513 0.000803797 0.00079148 0.000779545 0.000767974 0.00075675 0.000745857 0.000735282 0.000483339 0.000476568 0.000469987 0.000463588 0.000457364 0.000451307 0.000445412 0.000439671 0.000434079 0.000428629 0.000423317 0.000418137 0.000413085 0.000408155 0.000403344 0.000398646 0.000394058 0.000389577 0.000385198 0.000380918 0.000376734 0.000372642 0.000368639 0.000273543 0.000270644 0.000267806 0.000265028 0.000262308 0.000259644 0.000257035 0.000169652 0.000111978 7.67564e-05 2.99403e-05 2.96476e-05 2.93607e-05 2.90792e-05 2.88031e-05 2.85322e-05 2.82663e-05 2.80054e-05 2.77493e-05 2.74978e-05 2.72508e-05 2.70082e-05 2.67699e-05 2.65358e-05 2.63058e-05 2.60797e-05 2.58575e-05 2.5639e-05 2.54242e-05 2.5213e-05 2.50052e-05 2.48009e-05 2.45999e-05 2.44021e-05 2.42074e-05 2.40159e-05 2.38274e-05 2.36418e-05 2.34591e-05 2.32792e-05 2.3102e-05 2.29275e-05 2.27557e-05 2.25863e-05 2.24195e-05 2.22552e-05 2.20932e-05 2.19336e-05 2.17763e-05 2.16212e-05 2.14684e-05 2.13176e-05 2.1169e-05 2.10225e-05 2.08779e-05 2.07353e-05 2.05947e-05 2.0456e-05 2.03191e-05 2.01841e-05 2.00508e-05 1.99193e-05 1.97895e-05 1.96614e-05 1.95349e-05 1.94101e-05 1.92868e-05 1.91651e-05 1.90449e-05 1.89263e-05 1.88091e-05 1.86933e-05 1.8579e-05 1.8466e-05 1.83545e-05 1.82442e-05 1.81353e-05 1.80277e-05 1.79213e-05 1.78162e-05 1.77124e-05 1.76097e-05 1.75082e-05 1.74079e-05 1.73087e-05 1.72107e-05 1.71137e-05 1.70179e-05 1.69231e-05 1.68294e-05 1.67367e-05 1.6645e-05 1.65543e-05 1.64646e-05 1.63759e-05 1.62881e-05 1.62013e-05 1.61154e-05 1.60304e-05 1.59462e-05 1.5863e-05 1.57806e-05 1.56991e-05 1.56184e-05 1.55386e-05 1.54595e-05 1.53813e-05 1.53039e-05 1.52272e-05 1.51513e-05;
   (26) 0.00363542 0.00363542 0.00363542 0.00363542 0.00363542 0.00363542 0.00363542 0.00363542 0.00363542 0.00363542 0.00363542 0.00363542 0.00363542 0.00363542 0.00363542 0.00363542 0.00363542 0.00363542 0.00363542 0.00363542 0.00363542 0.00363542 0.00363542 0.00363542 0.00363542 0.00363542 0.850688 0.00175039 0.001691 0.0016356 0.00158381 0.00153527 0.00148969 0.00144681 0.00140638 0.00136821 0.00133211 0.0012979 0.00126545 0.00123463 0.00120531 0.00117738 0.00115075 0.00112532 0.00110103 0.00107778 0.00105553 0.00103419 0.00101372 0.000994068 0.000975181 0.000957016 0.000939532 0.000922691 0.000906459 0.000890802 0.00087569 0.000861095 0.000846991 0.000833353 0.000820158 0.000807385 0.000795014 0.000522017 0.000514132 0.000506486 0.000499068 0.000491868 0.000484875 0.000478082 0.00047148 0.000465061 0.000458817 0.000339556 0.000335082 0.000330726 0.000326483 0.000322349 0.00031832 0.000314391 0.000248448 0.000245442 0.000242509 0.000239645 0.000236849 0.000234119 0.000231451 0.000228844 0.000226295 0.000223803 0.000221366 0.000218982 0.00021665 0.000214367 0.000212132 0.000209944 0.0002078 0.000205701 0.00014546 0.000112009 7.12938e-05 2.60079e-05 2.57536e-05 2.55042e-05 2.52597e-05 2.50197e-05 2.47843e-05 2.45533e-05 2.43265e-05 2.41039e-05 2.38854e-05 2.36708e-05 2.346e-05 2.32529e-05 2.30495e-05 2.28496e-05 2.26531e-05 2.246e-05 2.22702e-05 2.20835e-05 2.19e-05 2.17195e-05 2.15419e-05 2.13672e-05 2.11954e-05 2.10262e-05 2.08598e-05 2.0696e-05 2.05347e-05 2.0376e-05 2.02196e-05 2.00657e-05 1.99141e-05 1.97648e-05 1.96176e-05 1.94727e-05 1.93299e-05 1.91892e-05 1.90505e-05 1.89138e-05 1.87791e-05 1.86462e-05 1.85153e-05 1.83861e-05 1.82588e-05 1.81332e-05 1.80093e-05 1.78871e-05 1.77666e-05 1.76477e-05 1.75303e-05 1.74145e-05 1.73003e-05 1.71875e-05 1.70762e-05 1.69663e-05 1.68578e-05 1.67507e-05 1.6645e-05 1.65406e-05 1.64375e-05 1.63356e-05 1.62351e-05 1.61357e-05 1.60376e-05 1.59407e-05 1.58449e-05 1.57503e-05 1.56567e-05 1.55643e-05 1.5473e-05 1.53828e-05 1.52936e-05 1.52054e-05 1.51183e-05 1.50321e-05 1.49469e-05 1.48627e-05 1.47794e-05 1.46971e-05 1.46156e-05 1.45351e-05 1.44554e-05 1.43767e-05 1.42987e-05 1.42216e-05 1.41454e-05 1.40699e-05 1.39953e-05 1.39214e-05 1.38484e-05 1.3776e-05 1.37045e-05 1.36337e-05 1.35636e-05 1.34942e-05 1.34255e-05 1.33576e-05 1.32903e-05 1.32237e-05 1.31577e-05;
   (27) 0.00348993 0.00348993 0.00348993 0.00348993 0.00348993 0.00348993 0.00348993 0.00348993 0.00348993 0.00348993 0.00348993 0.00348993 0.00348993 0.00348993 0.00348993 0.00348993 0.00348993 0.00348993 0.00348993 0.00348993 0.00348993 0.00348993 0.00348993 0.00348993 0.00348993 0.00348993 0.00348993 0.848053 0.00168264 0.00162752 0.00157599 0.00152769 0.00148234 0.00143966 0.00139944 0.00136145 0.00132552 0.00129149 0.0012592 0.00122853 0.00119935 0.00117156 0.00114506 0.00111977 0.00109559 0.00107246 0.00105031 0.00102908 0.00100871 0.000989157 0.000970363 0.000952288 0.00093489 0.000918133 0.000901981 0.000886401 0.000871364 0.000856841 0.000842807 0.000829236 0.000816106 0.000803397 0.000791086 0.000779157 0.000767592 0.000756373 0.000745486 0.000734916 0.000724648 0.000714671 0.000704972 0.00069554 0.000457575 0.000451516 0.000445617 0.000439874 0.000434279 0.000428827 0.000423513 0.00041833 0.000413276 0.000408343 0.00040353 0.00039883 0.00039424 0.000292317 0.000289003 0.000285765 0.000282598 0.000279503 0.000276475 0.000273512 0.000270614 0.000267777 0.000264999 0.000262279 0.000259616 0.000257006 0.000203559 0.000201544 0.000124731 2.90615e-05 2.87774e-05 2.84988e-05 2.82256e-05 2.79576e-05 2.76946e-05 2.74365e-05 2.71832e-05 2.69346e-05 2.66904e-05 2.64507e-05 2.62152e-05 2.59839e-05 2.57567e-05 2.55333e-05 2.53139e-05 2.50982e-05 2.48861e-05 2.46776e-05 2.44725e-05 2.42709e-05 2.40725e-05 2.38774e-05 2.36854e-05 2.34965e-05 2.33105e-05 2.31275e-05 2.29474e-05 2.277e-05 2.25954e-05 2.24234e-05 2.2254e-05 2.20872e-05 2.19228e-05 2.17609e-05 2.16014e-05 2.14442e-05 2.12892e-05 2.11365e-05 2.0986e-05 2.08376e-05 2.06913e-05 2.0547e-05 2.04048e-05 2.02644e-05 2.01261e-05 1.99895e-05 1.98549e-05 1.9722e-05 1.95909e-05 1.94616e-05 1.93339e-05 1.92079e-05 1.90836e-05 1.89608e-05 1.88396e-05 1.872e-05 1.86018e-05 1.84852e-05 1.837e-05 1.82562e-05 1.81439e-05 1.80329e-05 1.79232e-05 1.78149e-05 1.77079e-05 1.76022e-05 1.74977e-05 1.73945e-05 1.72925e-05 1.71917e-05 1.7092e-05 1.69935e-05 1.68961e-05 1.67999e-05 1.67047e-05 1.66106e-05 1.65175e-05 1.64255e-05 1.63346e-05 1.62446e-05 1.61556e-05 1.60676e-05 1.59805e-05 1.58944e-05 1.58092e-05 1.57249e-05 1.56415e-05 1.5559e-05 1.54773e-05 1.53965e-05 1.53166e-05 1.52374e-05 1.51591e-05 1.50816e-05 1.50049e-05 1.49289e-05 1.48538e-05 1.47793e-05 1.47057e-05;
   (28) 0.0033993 0.0033993 0.0033993 0.0033993 0.0033993 0.0033993 0.0033993 0.0033993 0.0033993 0.0033993 0.0033993 0.0033993 0.0033993 0.0033993 0.0033993 0.0033993 0.0033993 0.0033993 0.0033993 0.0033993 0.0033993 0.0033993 0.0033993 0.0033993 0.0033993 0.0033993 0.0033993 0.0033993 0.856625 0.00164104 0.00158908 0.00154038 0.00149465 0.00145162 0.00141106 0.00137276 0.00133654 0.00130222 0.00126966 0.00123874 0.00120932 0.00078753 0.000769405 0.000752108 0.000735584 0.000719783 0.000704657 0.000690164 0.000676265 0.000662924 0.000650107 0.000637785 0.000625929 0.000614512 0.000603512 0.000592905 0.00058267 0.000572788 0.000563242 0.000554014 0.000545088 0.00053645 0.000528086 0.000519983 0.000512129 0.000504513 0.000497124 0.000489951 0.000482986 0.00047622 0.000469643 0.000463249 0.00045703 0.000450978 0.000445086 0.00043935 0.000433761 0.000428316 0.000423008 0.000417832 0.000412783 0.000407857 0.000403049 0.000398355 0.00039377 0.000389292 0.000384916 0.00038064 0.000376458 0.000372369 0.00036837 0.000364457 0.000360627 0.000356879 0.000353209 0.000349615 0.000346094 0.000342645 0.000145399 0.000111963 7.6746e-05 3.18676e-05 3.15562e-05 3.12508e-05 3.09513e-05 3.06575e-05 3.03692e-05 3.00863e-05 2.98086e-05 2.9536e-05 2.92683e-05 2.90055e-05 2.87474e-05 2.84938e-05 2.82447e-05 2.79998e-05 2.77592e-05 2.75228e-05 2.72903e-05 2.70617e-05 2.68369e-05 2.66158e-05 2.63983e-05 2.61844e-05 2.59739e-05 2.57668e-05 2.5563e-05 2.53623e-05 2.51648e-05 2.49704e-05 2.47789e-05 2.45904e-05 2.44047e-05 2.42218e-05 2.40416e-05 2.38641e-05 2.36892e-05 2.35168e-05 2.3347e-05 2.31796e-05 2.30145e-05 2.28518e-05 2.26914e-05 2.25333e-05 2.23773e-05 2.22234e-05 2.20717e-05 2.19221e-05 2.17744e-05 2.16288e-05 2.1485e-05 2.13432e-05 2.12032e-05 2.10651e-05 2.09288e-05 2.07942e-05 2.06613e-05 2.05301e-05 2.04006e-05 2.02727e-05 2.01464e-05 2.00217e-05 1.98985e-05 1.97768e-05 1.96566e-05 1.95379e-05 1.94205e-05 1.93046e-05 1.91901e-05 1.90769e-05 1.89651e-05 1.88545e-05 1.87452e-05 1.86372e-05 1.85305e-05 1.84249e-05 1.83206e-05 1.82174e-05 1.81154e-05 1.80145e-05 1.79148e-05 1.78161e-05 1.77185e-05 1.7622e-05 1.75265e-05 1.74321e-05 1.73387e-05 1.72463e-05 1.71548e-05 1.70644e-05 1.69748e-05 1.68863e-05 1.67986e-05 1.67118e-05 1.6626e-05 1.6541e-05 1.64569e-05 1.63736e-05 1.62912e-05 1.62096e-05 1.61288e-05;
   (29) 0.00324065 0.00324065 0.00324065 0.00324065 0.00324065 0.00324065 0.00324065 0.00324065 0.00324065 0.00324065 0.00324065 0.00324065 0.00324065 0.00324065 0.00324065 0.00324065 0.00324065 0.00324065 0.00324065 0.00324065 0.00324065 0.00324065 0.00324065 0.00324065 0.00324065 0.00324065 0.00324065 0.00324065 0.00324065 0.84581 0.00156631 0.00151831 0.00147324 0.00143083 0.00139085 0.0013531 0.00131739 0.00128357 0.00125148 0.00122099 0.00119199 0.00116437 0.00113804 0.00111289 0.00108887 0.00106588 0.00104387 0.00102277 0.00100252 0.000983088 0.000964409 0.000946445 0.000929154 0.000912499 0.000896446 0.000880962 0.000866017 0.000851583 0.000837635 0.000824148 0.000811099 0.000798467 0.000786232 0.000774376 0.000762882 0.000751732 0.000740912 0.000730406 0.000720202 0.000710286 0.000700647 0.000691272 0.000682151 0.000673273 0.00066463 0.000656211 0.000648009 0.000640014 0.000632219 0.000624616 0.000617199 0.00060996 0.000602893 0.000595993 0.000589252 0.000582667 0.00057623 0.000569938 0.000563785 0.000557767 0.00055188 0.000546119 0.00036032 0.000356574 0.000352907 0.000349316 0.000345799 0.000342353 0.000203386 0.00016781 0.00016616 4.11356e-05 4.0734e-05 4.03401e-05 3.99539e-05 3.95749e-05 3.92032e-05 3.88383e-05 3.84802e-05 3.81286e-05 3.77834e-05 3.74445e-05 3.71115e-05 3.67845e-05 3.64632e-05 3.61474e-05 3.58371e-05 3.55321e-05 3.52322e-05 3.49374e-05 3.46474e-05 3.43623e-05 3.40818e-05 3.38059e-05 3.35344e-05 3.32672e-05 3.30043e-05 3.27455e-05 3.24907e-05 3.22399e-05 3.1993e-05 3.17498e-05 3.15102e-05 3.12743e-05 3.10419e-05 3.08129e-05 3.05873e-05 3.03649e-05 3.01458e-05 2.99298e-05 2.9717e-05 2.95071e-05 2.93001e-05 2.90961e-05 2.88949e-05 2.86964e-05 2.85007e-05 2.83076e-05 2.81172e-05 2.79292e-05 2.77438e-05 2.75609e-05 2.73803e-05 2.72021e-05 2.70262e-05 2.68525e-05 2.66811e-05 2.65119e-05 2.63448e-05 2.61798e-05 2.60169e-05 2.58559e-05 2.5697e-05 2.554e-05 2.53849e-05 2.52317e-05 2.50803e-05 2.49308e-05 2.4783e-05 2.4637e-05 2.44927e-05 2.435e-05 2.4209e-05 2.40697e-05 2.39319e-05 2.37957e-05 2.36611e-05 2.3528e-05 2.33964e-05 2.32662e-05 2.31375e-05 2.30102e-05 2.28843e-05 2.27597e-05 2.26366e-05 2.25147e-05 2.23942e-05 2.22749e-05 2.21569e-05 2.20402e-05 2.19247e-05 2.18104e-05 2.16972e-05 2.15853e-05 2.14745e-05 2.13648e-05 2.12563e-05 2.11488e-05 2.10424e-05 2.09371e-05 2.08329e-05;
   (30) 0.00317318 0.00317318 0.00317318 0.00317318 0.00317318 0.00317318 0.00317318 0.00317318 0.00317318 0.00317318 0.00317318 0.00317318 0.00317318 0.00317318 0.00317318 0.00317318 0.00317318 0.00317318 0.00317318 0.00317318 0.00317318 0.00317318 0.00317318 0.00317318 0.00317318 0.00317318 0.00317318 0.00317318 0.00317318 0.00317318 0.856759 0.00153541 0.00148983 0.00144694 0.00140651 0.00136833 0.00133222 0.00129802 0.00126557 0.00123474 0.00120542 0.00117748 0.00115085 0.00112543 0.00110113 0.00107788 0.00105562 0.00103428 0.00101381 0.000994157 0.000975268 0.000957101 0.000939616 0.000922774 0.00090654 0.000890881 0.000875768 0.000861172 0.000564711 0.000555459 0.00054651 0.000537849 0.000529463 0.000521339 0.000513465 0.000505829 0.00049842 0.000491229 0.000484246 0.000477462 0.000470868 0.000464457 0.000458222 0.000452154 0.000446247 0.000440496 0.000434893 0.000429433 0.000424111 0.000418922 0.00041386 0.00030669 0.000303044 0.000239587 0.000236792 0.000234062 0.000231395 0.000228788 0.00022624 0.000223749 0.000221313 0.000218929 0.000216597 0.000214315 0.00021208 0.000209893 0.00020775 0.000205651 0.000127247 9.16199e-05 7.67564e-05 2.99403e-05 2.96476e-05 2.93607e-05 2.90792e-05 2.88031e-05 2.85322e-05 2.82663e-05 2.80054e-05 2.77493e-05 2.74978e-05 2.72508e-05 2.70082e-05 2.67699e-05 2.65358e-05 2.63058e-05 2.60797e-05 2.58575e-05 2.5639e-05 2.54242e-05 2.5213e-05 2.50052e-05 2.48009e-05 2.45999e-05 2.44021e-05 2.42074e-05 2.40159e-05 2.38274e-05 2.36418e-05 2.34591e-05 2.32792e-05 2.3102e-05 2.29275e-05 2.27557e-05 2.25863e-05 2.24195e-05 2.22552e-05 2.20932e-05 2.19336e-05 2.17763e-05 2.16212e-05 2.14684e-05 2.13176e-05 2.1169e-05 2.10225e-05 2.08779e-05 2.07353e-05 2.05947e-05 2.0456e-05 2.03191e-05 2.01841e-05 2.00508e-05 1.99193e-05 1.97895e-05 1.96614e-05 1.95349e-05 1.94101e-05 1.92868e-05 1.91651e-05 1.90449e-05 1.89263e-05 1.88091e-05 1.86933e-05 1.8579e-05 1.8466e-05 1.83545e-05 1.82442e-05 1.81353e-05 1.80277e-05 1.79213e-05 1.78162e-05 1.77124e-05 1.76097e-05 1.75082e-05 1.74079e-05 1.73087e-05 1.72107e-05 1.71137e-05 1.70179e-05 1.69231e-05 1.68294e-05 1.67367e-05 1.6645e-05 1.65543e-05 1.64646e-05 1.63759e-05 1.62881e-05 1.62013e-05 1.61154e-05 1.60304e-05 1.59462e-05 1.5863e-05 1.57806e-05 1.56991e-05 1.56184e-05 1.55386e-05 1.54595e-05 1.53813e-05 1.53039e-05 1.52272e-05 1.51513e-05;
   (31) 0.00308658 0.00308658 0.00308658 0.00308658 0.00308658 0.00308658 0.00308658 0.00308658 0.00308658 0.00308658 0.00308658 0.00308658 0.00308658 0.00308658 0.00308658 0.00308658 0.00308658 0.00308658 0.00308658 0.00308658 0.00308658 0.00308658 0.00308658 0.00308658 0.00308658 0.00308658 0.00308658 0.00308658 0.00308658 0.00308658 0.00308658 0.861155 0.00149506 0.00145202 0.00141145 0.00137314 0.0013369 0.00130258 0.00127001 0.00123908 0.00120965 0.00118162 0.00115489 0.00112938 0.00110499 0.00108167 0.00105933 0.000691944 0.000678009 0.000664633 0.000651783 0.000639429 0.000627543 0.000616097 0.000605068 0.000594433 0.000584172 0.000574265 0.000564694 0.000555442 0.000546493 0.000537833 0.000529448 0.000521324 0.00051345 0.000505814 0.000498405 0.000491214 0.000484231 0.000477447 0.000470854 0.000464443 0.000458208 0.00045214 0.000446234 0.000330362 0.000326124 0.000321994 0.000317969 0.000314045 0.000310218 0.000306483 0.000302839 0.000299282 0.000295808 0.000292415 0.0002891 0.00028586 0.000282693 0.000279596 0.000276567 0.000273604 0.000270704 0.000267866 0.000265088 0.000262367 0.000207762 0.000205663 0.000203606 0.000167992 0.000142577 2.60079e-05 2.57536e-05 2.55042e-05 2.52597e-05 2.50197e-05 2.47843e-05 2.45533e-05 2.43265e-05 2.41039e-05 2.38854e-05 2.36708e-05 2.346e-05 2.32529e-05 2.30495e-05 2.28496e-05 2.26531e-05 2.246e-05 2.22702e-05 2.20835e-05 2.19e-05 2.17195e-05 2.15419e-05 2.13672e-05 2.11954e-05 2.10262e-05 2.08598e-05 2.0696e-05 2.05347e-05 2.0376e-05 2.02196e-05 2.00657e-05 1.99141e-05 1.97648e-05 1.96176e-05 1.94727e-05 1.93299e-05 1.91892e-05 1.90505e-05 1.89138e-05 1.87791e-05 1.86462e-05 1.85153e-05 1.83861e-05 1.82588e-05 1.81332e-05 1.80093e-05 1.78871e-05 1.77666e-05 1.76477e-05 1.75303e-05 1.74145e-05 1.73003e-05 1.71875e-05 1.70762e-05 1.69663e-05 1.68578e-05 1.67507e-05 1.6645e-05 1.65406e-05 1.64375e-05 1.63356e-05 1.62351e-05 1.61357e-05 1.60376e-05 1.59407e-05 1.58449e-05 1.57503e-05 1.56567e-05 1.55643e-05 1.5473e-05 1.53828e-05 1.52936e-05 1.52054e-05 1.51183e-05 1.50321e-05 1.49469e-05 1.48627e-05 1.47794e-05 1.46971e-05 1.46156e-05 1.45351e-05 1.44554e-05 1.43767e-05 1.42987e-05 1.42216e-05 1.41454e-05 1.40699e-05 1.39953e-05 1.39214e-05 1.38484e-05 1.3776e-05 1.37045e-05 1.36337e-05 1.35636e-05 1.34942e-05 1.34255e-05 1.33576e-05 1.32903e-05 1.32237e-05 1.31577e-05;
   (32) 0.0029534 0.0029534 0.0029534 0.0029534 0.0029534 0.0029534 0.0029534 0.0029534 0.0029534 0.0029534 0.0029534 0.0029534 0.0029534 0.0029534 0.0029534 0.0029534 0.0029534 0.0029534 0.0029534 0.0029534 0.0029534 0.0029534 0.0029534 0.0029534 0.0029534 0.0029534 0.0029534 0.0029534 0.0029534 0.0029534 0.0029534 0.0029534 0.850579 0.00143195 0.00139194 0.00135416 0.00131843 0.00128457 0.00125246 0.00122195 0.00119293 0.00116529 0.00113893 0.00111377 0.00108972 0.00106672 0.00104469 0.00102357 0.00100331 0.00098386 0.000965166 0.000947188 0.000929883 0.000913216 0.00089715 0.000881654 0.000866697 0.000852252 0.000838293 0.000824795 0.000811736 0.000799094 0.00078685 0.000774984 0.000763481 0.000752322 0.000741493 0.00073098 0.000720767 0.000710844 0.000701197 0.000691814 0.000682686 0.000673802 0.000665152 0.000656727 0.000648518 0.000640516 0.000632715 0.000625107 0.000617683 0.000610439 0.000603367 0.000596461 0.000589715 0.000583124 0.000576683 0.000570386 0.000564228 0.000558205 0.000552313 0.000364365 0.000360536 0.000356789 0.00035312 0.000349527 0.000259505 0.000256897 0.000203473 0.000201459 0.000199484 3.40601e-05 3.37274e-05 3.3401e-05 3.3081e-05 3.2767e-05 3.2459e-05 3.21566e-05 3.18599e-05 3.15686e-05 3.12826e-05 3.10018e-05 3.07259e-05 3.0455e-05 3.01887e-05 2.99271e-05 2.967e-05 2.94173e-05 2.91689e-05 2.89246e-05 2.86844e-05 2.84482e-05 2.82158e-05 2.79872e-05 2.77622e-05 2.75409e-05 2.73231e-05 2.71087e-05 2.68976e-05 2.66898e-05 2.64852e-05 2.62838e-05 2.60853e-05 2.58899e-05 2.56973e-05 2.55076e-05 2.53207e-05 2.51365e-05 2.4955e-05 2.47761e-05 2.45998e-05 2.44259e-05 2.42545e-05 2.40854e-05 2.39188e-05 2.37544e-05 2.35922e-05 2.34323e-05 2.32745e-05 2.31188e-05 2.29653e-05 2.28137e-05 2.26641e-05 2.25165e-05 2.23708e-05 2.2227e-05 2.2085e-05 2.19448e-05 2.18064e-05 2.16697e-05 2.15347e-05 2.14014e-05 2.12698e-05 2.11397e-05 2.10113e-05 2.08844e-05 2.0759e-05 2.06351e-05 2.05127e-05 2.03918e-05 2.02722e-05 2.01541e-05 2.00373e-05 1.99219e-05 1.98078e-05 1.9695e-05 1.95835e-05 1.94732e-05 1.93642e-05 1.92564e-05 1.91498e-05 1.90443e-05 1.89401e-05 1.88369e-05 1.87349e-05 1.8634e-05 1.85341e-05 1.84354e-05 1.83377e-05 1.8241e-05 1.81453e-05 1.80506e-05 1.79569e-05 1.78642e-05 1.77724e-05 1.76816e-05 1.75917e-05 1.75027e-05 1.74146e-05 1.73274e-05 1.72411e-05;
   (33) 0.00288644 0.00288644 0.00288644 0.00288644 0.00288644 0.00288644 0.00288644 0.00288644 0.00288644 0.00288644 0.00288644 0.00288644 0.00288644 0.00288644 0.00288644 0.00288644 0.00288644 0.00288644 0.00288644 0.00288644 0.00288644 0.00288644 0.00288644 0.00288644 0.00288644 0.00288644 0.00288644 0.00288644 0.00288644 0.00288644 0.00288644 0.00288644 0.00288644 0.857274 0.00140077 0.00136275 0.00132679 0.00129273 0.00126041 0.00122971 0.0012005 0.00117268 0.00114616 0.00112084 0.00109664 0.00107349 0.00105132 0.00103007 0.00100968 0.000990103 0.000971291 0.000953199 0.000935785 0.000919011 0.000902843 0.000887249 0.000872197 0.000857661 0.000843613 0.000830029 0.000816887 0.000804165 0.000527895 0.000519795 0.000511944 0.000504331 0.000496944 0.000489774 0.000482812 0.000476048 0.000469474 0.000463082 0.000456865 0.000450815 0.000444926 0.000439191 0.000433605 0.000428161 0.000422855 0.000417681 0.000412634 0.00040771 0.000402903 0.000398211 0.000393628 0.000389152 0.000384777 0.000380502 0.000376322 0.000372235 0.000368237 0.000364325 0.000360497 0.00035675 0.000353081 0.000349489 0.000345969 0.000342522 0.000254357 0.000143916 0.000142497 3.40601e-05 3.37274e-05 3.3401e-05 3.3081e-05 3.2767e-05 3.2459e-05 3.21566e-05 3.18599e-05 3.15686e-05 3.12826e-05 3.10018e-05 3.07259e-05 3.0455e-05 3.01887e-05 2.99271e-05 2.967e-05 2.94173e-05 2.91689e-05 2.89246e-05 2.86844e-05 2.84482e-05 2.82158e-05 2.79872e-05 2.77622e-05 2.75409e-05 2.73231e-05 2.71087e-05 2.68976e-05 2.66898e-05 2.64852e-05 2.62838e-05 2.60853e-05 2.58899e-05 2.56973e-05 2.55076e-05 2.53207e-05 2.51365e-05 2.4955e-05 2.47761e-05 2.45998e-05 2.44259e-05 2.42545e-05 2.40854e-05 2.39188e-05 2.37544e-05 2.35922e-05 2.34323e-05 2.32745e-05 2.31188e-05 2.29653e-05 2.28137e-05 2.26641e-05 2.25165e-05 2.23708e-05 2.2227e-05 2.2085e-05 2.19448e-05 2.18064e-05 2.16697e-05 2.15347e-05 2.14014e-05 2.12698e-05 2.11397e-05 2.10113e-05 2.08844e-05 2.0759e-05 2.06351e-05 2.05127e-05 2.03918e-05 2.02722e-05 2.01541e-05 2.00373e-05 1.99219e-05 1.98078e-05 1.9695e-05 1.95835e-05 1.94732e-05 1.93642e-05 1.92564e-05 1.91498e-05 1.90443e-05 1.89401e-05 1.88369e-05 1.87349e-05 1.8634e-05 1.85341e-05 1.84354e-05 1.83377e-05 1.8241e-05 1.81453e-05 1.80506e-05 1.79569e-05 1.78642e-05 1.77724e-05 1.76816e-05 1.75917e-05 1.75027e-05 1.74146e-05 1.73274e-05 1.72411e-05;
   (34) 0.00281359 0.00281359 0.00281359 0.00281359 0.00281359 0.00281359 0.00281359 0.00281359 0.00281359 0.00281359 0.00281359 0.00281359 0.00281359 0.00281359 0.00281359 0.00281359 0.00281359 0.00281359 0.00281359 0.00281359 0.00281359 0.00281359 0.00281359 0.00281359 0.00281359 0.00281359 0.00281359 0.00281359 0.00281359 0.00281359 0.00281359 0.00281359 0.00281359 0.00281359 0.86096 0.0013666 0.00133054 0.00129638 0.00126397 0.00123318 0.00120389 0.001176 0.0011494 0.001124 0.00109973 0.00107652 0.00105428 0.00103297 0.00101253 0.0009929 0.000974035 0.000955891 0.000938428 0.000921607 0.000905393 0.000889755 0.000874661 0.000860083 0.000845995 0.000832373 0.000819194 0.000806436 0.00079408 0.000782105 0.000770496 0.000759235 0.000748306 0.000737696 0.00072739 0.00047825 0.000471646 0.000465224 0.000344234 0.000339636 0.000335161 0.000330804 0.00032656 0.000322425 0.000318395 0.000251572 0.00024849 0.000245484 0.00024255 0.000239686 0.00023689 0.000234159 0.00023149 0.000228883 0.000226334 0.000223842 0.000221404 0.000182517 0.000154771 0.00015313 0.000132584 0.000131206 0.000129856 0.000128534 0.000127239 0.000100776 6.23614e-05 3.08739e-05 3.05721e-05 3.02763e-05 2.99861e-05 2.97014e-05 2.9422e-05 2.91479e-05 2.88789e-05 2.86148e-05 2.83554e-05 2.81008e-05 2.78507e-05 2.7605e-05 2.73636e-05 2.71264e-05 2.68933e-05 2.66641e-05 2.64389e-05 2.62174e-05 2.59996e-05 2.57854e-05 2.55747e-05 2.53674e-05 2.51635e-05 2.49628e-05 2.47653e-05 2.45709e-05 2.43795e-05 2.41912e-05 2.40056e-05 2.3823e-05 2.36431e-05 2.34658e-05 2.32913e-05 2.31193e-05 2.29498e-05 2.27828e-05 2.26183e-05 2.2456e-05 2.22961e-05 2.21385e-05 2.19831e-05 2.18298e-05 2.16787e-05 2.15297e-05 2.13827e-05 2.12377e-05 2.10946e-05 2.09535e-05 2.08142e-05 2.06768e-05 2.05412e-05 2.04074e-05 2.02753e-05 2.01449e-05 2.00161e-05 1.98891e-05 1.97636e-05 1.96397e-05 1.95173e-05 1.93964e-05 1.92771e-05 1.91592e-05 1.90427e-05 1.89277e-05 1.8814e-05 1.87017e-05 1.85907e-05 1.84811e-05 1.83727e-05 1.82656e-05 1.81597e-05 1.80551e-05 1.79517e-05 1.78494e-05 1.77483e-05 1.76483e-05 1.75495e-05 1.74518e-05 1.73551e-05 1.72595e-05 1.7165e-05 1.70715e-05 1.6979e-05 1.68875e-05 1.6797e-05 1.67075e-05 1.66189e-05 1.65312e-05 1.64445e-05 1.63586e-05 1.62737e-05 1.61896e-05 1.61065e-05 1.60241e-05 1.59426e-05 1.58619e-05 1.57821e-05 1.5703e-05 1.56248e-05;
   (35) 0.00273708 0.00273708 0.00273708 0.00273708 0.00273708 0.00273708 0.00273708 0.00273708 0.00273708 0.00273708 0.00273708 0.00273708 0.00273708 0.00273708 0.00273708 0.00273708 0.00273708 0.00273708 0.00273708 0.00273708 0.00273708 0.00273708 0.00273708 0.00273708 0.00273708 0.00273708 0.00273708 0.00273708 0.00273708 0.00273708 0.00273708 0.00273708 0.00273708 0.00273708 0.00273708 0.862181 0.00133053 0.00129636 0.00126395 0.00123317 0.00120388 0.00117598 0.00114938 0.00112399 0.00109972 0.00107651 0.00105427 0.00103296 0.00101252 0.00099289 0.000974025 0.000955881 0.000938418 0.000921597 0.000905384 0.000889746 0.000874652 0.000860074 0.000845987 0.000832365 0.000819186 0.000806428 0.000529381 0.000521258 0.000513385 0.00050575 0.000498343 0.000491153 0.000484171 0.000477387 0.000470795 0.000464385 0.00045815 0.000452083 0.000446178 0.000440427 0.000434825 0.000429366 0.000424045 0.000418856 0.000413795 0.000306643 0.000302997 0.000299437 0.000295962 0.000292567 0.00028925 0.000286008 0.00028284 0.000279741 0.000276711 0.000218997 0.000216664 0.000214381 0.000212146 0.000209957 0.000173178 0.000146934 0.000113132 0.000112002 8.3171e-05 2.67095e-05 2.64484e-05 2.61923e-05 2.59411e-05 2.56947e-05 2.5453e-05 2.52158e-05 2.49829e-05 2.47543e-05 2.45299e-05 2.43095e-05 2.4093e-05 2.38804e-05 2.36715e-05 2.34662e-05 2.32645e-05 2.30662e-05 2.28712e-05 2.26795e-05 2.2491e-05 2.23057e-05 2.21233e-05 2.1944e-05 2.17675e-05 2.15938e-05 2.14229e-05 2.12546e-05 2.1089e-05 2.0926e-05 2.07655e-05 2.06074e-05 2.04517e-05 2.02983e-05 2.01473e-05 1.99984e-05 1.98518e-05 1.97073e-05 1.95648e-05 1.94245e-05 1.92861e-05 1.91497e-05 1.90152e-05 1.88826e-05 1.87518e-05 1.86228e-05 1.84956e-05 1.83701e-05 1.82464e-05 1.81242e-05 1.80037e-05 1.78848e-05 1.77675e-05 1.76517e-05 1.75374e-05 1.74245e-05 1.73131e-05 1.72031e-05 1.70946e-05 1.69873e-05 1.68815e-05 1.67769e-05 1.66736e-05 1.65716e-05 1.64708e-05 1.63713e-05 1.62729e-05 1.61757e-05 1.60797e-05 1.59848e-05 1.5891e-05 1.57984e-05 1.57068e-05 1.56162e-05 1.55267e-05 1.54382e-05 1.53507e-05 1.52642e-05 1.51787e-05 1.50942e-05 1.50105e-05 1.49278e-05 1.4846e-05 1.47651e-05 1.46851e-05 1.46059e-05 1.45276e-05 1.44501e-05 1.43735e-05 1.42976e-05 1.42226e-05 1.41483e-05 1.40748e-05 1.40021e-05 1.39301e-05 1.38589e-05 1.37884e-05 1.37186e-05 1.36495e-05 1.35811e-05 1.35133e-05;
   (36) 0.00265405 0.00265405 0.00265405 0.00265405 0.00265405 0.00265405 0.00265405 0.00265405 0.00265405 0.00265405 0.00265405 0.00265405 0.00265405 0.00265405 0.00265405 0.00265405 0.00265405 0.00265405 0.00265405 0.00265405 0.00265405 0.00265405 0.00265405 0.00265405 0.00265405 0.00265405 0.00265405 0.00265405 0.00265405 0.00265405 0.00265405 0.00265405 0.00265405 0.00265405 0.00265405 0.00265405 0.859912 0.00129116 0.00125888 0.00122821 0.00119904 0.00117126 0.00114477 0.00111948 0.00109531 0.00107218 0.00105004 0.00102882 0.00100846 0.000988903 0.000970114 0.000952043 0.00093465 0.000917897 0.000901749 0.000886173 0.00087114 0.000856621 0.00084259 0.000829023 0.000815897 0.00080319 0.000790883 0.000778957 0.000767395 0.000756179 0.000745294 0.000734727 0.000724462 0.000714488 0.000704791 0.000695361 0.000686186 0.000677256 0.000668562 0.000660093 0.000651842 0.0006438 0.000635959 0.000418874 0.000413813 0.000408874 0.000404054 0.000299511 0.000296035 0.000292639 0.000289321 0.000286079 0.000282909 0.00027981 0.000276779 0.000219051 0.000216717 0.000214434 0.000212198 0.000175007 0.000173215 0.000171459 0.000127304 0.000100827 6.65527e-05 2.35351e-05 2.33049e-05 2.30791e-05 2.28578e-05 2.26406e-05 2.24275e-05 2.22184e-05 2.20132e-05 2.18117e-05 2.16139e-05 2.14196e-05 2.12288e-05 2.10414e-05 2.08573e-05 2.06763e-05 2.04985e-05 2.03237e-05 2.01519e-05 1.9983e-05 1.98168e-05 1.96535e-05 1.94927e-05 1.93346e-05 1.91791e-05 1.9026e-05 1.88754e-05 1.87271e-05 1.85812e-05 1.84375e-05 1.8296e-05 1.81566e-05 1.80194e-05 1.78843e-05 1.77511e-05 1.76199e-05 1.74907e-05 1.73633e-05 1.72378e-05 1.71141e-05 1.69921e-05 1.68719e-05 1.67534e-05 1.66365e-05 1.65212e-05 1.64076e-05 1.62954e-05 1.61849e-05 1.60758e-05 1.59681e-05 1.58619e-05 1.57571e-05 1.56537e-05 1.55516e-05 1.54509e-05 1.53515e-05 1.52533e-05 1.51564e-05 1.50607e-05 1.49662e-05 1.48728e-05 1.47807e-05 1.46897e-05 1.45998e-05 1.4511e-05 1.44232e-05 1.43365e-05 1.42509e-05 1.41663e-05 1.40826e-05 1.4e-05 1.39183e-05 1.38376e-05 1.37578e-05 1.36789e-05 1.36009e-05 1.35238e-05 1.34476e-05 1.33723e-05 1.32977e-05 1.3224e-05 1.31511e-05 1.30791e-05 1.30078e-05 1.29372e-05 1.28675e-05 1.27984e-05 1.27302e-05 1.26626e-05 1.25958e-05 1.25296e-05 1.24642e-05 1.23994e-05 1.23353e-05 1.22719e-05 1.22091e-05 1.2147e-05 1.20855e-05 1.20246e-05 1.19643e-05 1.19046e-05;
   (37) 0.00261714 0.00261714 0.00261714 0.00261714 0.00261714 0.00261714 0.00261714 0.00261714 0.00261714 0.00261714 0.00261714 0.00261714 0.00261714 0.00261714 0.00261714 0.00261714 0.00261714 0.00261714 0.00261714 0.00261714 0.00261714 0.00261714 0.00261714 0.00261714 0.00261714 0.00261714 0.00261714 0.00261714 0.00261714 0.00261714 0.00261714 0.00261714 0.00261714 0.00261714 0.00261714 0.00261714 0.00261714 0.871507 0.00127413 0.0012431 0.00121357 0.00118545 0.00115864 0.00113304 0.00110858 0.00108518 0.000708509 0.000693937 0.000679962 0.000666548 0.000653661 0.000641272 0.000629351 0.000617872 0.000606811 0.000596146 0.000439392 0.000431876 0.000424616 0.000417599 0.000410813 0.000404246 0.000397889 0.000391732 0.000385764 0.000379977 0.000374364 0.000368916 0.000363627 0.000358488 0.000353495 0.000348641 0.00034392 0.000339326 0.000334855 0.000330502 0.000326262 0.000322131 0.000318104 0.000251343 0.000248264 0.00024526 0.000242329 0.000239468 0.000236674 0.000233945 0.000231279 0.000228674 0.000226127 0.000223638 0.000221202 0.00021882 0.000216489 0.000214208 0.000211975 0.000209788 0.000207646 0.000205549 0.000169578 0.00012592 0.000124676 3.52736e-05 3.4929e-05 3.45911e-05 3.42597e-05 3.39345e-05 3.36155e-05 3.33025e-05 3.29952e-05 3.26936e-05 3.23975e-05 3.21066e-05 3.1821e-05 3.15404e-05 3.12647e-05 3.09938e-05 3.07276e-05 3.04659e-05 3.02086e-05 2.99557e-05 2.9707e-05 2.94623e-05 2.92217e-05 2.8985e-05 2.8752e-05 2.85228e-05 2.82973e-05 2.80753e-05 2.78567e-05 2.76415e-05 2.74297e-05 2.7221e-05 2.70155e-05 2.68132e-05 2.66138e-05 2.64173e-05 2.62238e-05 2.6033e-05 2.58451e-05 2.56598e-05 2.54772e-05 2.52971e-05 2.51196e-05 2.49446e-05 2.4772e-05 2.46017e-05 2.44338e-05 2.42682e-05 2.41048e-05 2.39436e-05 2.37846e-05 2.36276e-05 2.34727e-05 2.33199e-05 2.3169e-05 2.302e-05 2.2873e-05 2.27278e-05 2.25845e-05 2.2443e-05 2.23032e-05 2.21652e-05 2.20288e-05 2.18942e-05 2.17611e-05 2.16297e-05 2.14999e-05 2.13716e-05 2.12449e-05 2.11196e-05 2.09958e-05 2.08735e-05 2.07525e-05 2.0633e-05 2.05149e-05 2.0398e-05 2.02826e-05 2.01684e-05 2.00555e-05 1.99438e-05 1.98334e-05 1.97242e-05 1.96163e-05 1.95094e-05 1.94038e-05 1.92993e-05 1.91959e-05 1.90936e-05 1.89924e-05 1.88923e-05 1.87932e-05 1.86952e-05 1.85981e-05 1.85021e-05 1.84071e-05 1.8313e-05 1.82199e-05 1.81278e-05 1.80365e-05 1.79462e-05 1.78568e-05;
   (38) 0.00255844 0.00255844 0.00255844 0.00255844 0.00255844 0.00255844 0.00255844 0.00255844 0.00255844 0.00255844 0.00255844 0.00255844 0.00255844 0.00255844 0.00255844 0.00255844 0.00255844 0.00255844 0.00255844 0.00255844 0.00255844 0.00255844 0.00255844 0.00255844 0.00255844 0.00255844 0.00255844 0.00255844 0.00255844 0.00255844 0.00255844 0.00255844 0.00255844 0.00255844 0.00255844 0.00255844 0.00255844 0.00255844 0.874988 0.00124642 0.00121682 0.00118862 0.00116174 0.00113607 0.00111154 0.00108808 0.00106561 0.00104407 0.0010234 0.000669042 0.00049208 0.000482673 0.000473623 0.00046491 0.000456516 0.000448423 0.000440615 0.000433079 0.000425798 0.000418762 0.000411957 0.000405372 0.000319198 0.000314233 0.000309421 0.000304756 0.000300231 0.000295839 0.000291576 0.000287435 0.00028341 0.000279499 0.000275694 0.000226661 0.000223649 0.000220717 0.000217861 0.000215079 0.000212367 0.000209724 0.000207146 0.000204631 0.000202177 0.000199782 0.000197443 0.000195159 0.000192928 0.000190747 0.000188616 0.000186532 0.000184494 0.0001825 0.000154757 0.000153116 0.000151511 0.000149939 0.000148399 0.000146891 0.000145414 0.00012597 9.9781e-05 2.99403e-05 2.96476e-05 2.93607e-05 2.90792e-05 2.88031e-05 2.85322e-05 2.82663e-05 2.80054e-05 2.77493e-05 2.74978e-05 2.72508e-05 2.70082e-05 2.67699e-05 2.65358e-05 2.63058e-05 2.60797e-05 2.58575e-05 2.5639e-05 2.54242e-05 2.5213e-05 2.50052e-05 2.48009e-05 2.45999e-05 2.44021e-05 2.42074e-05 2.40159e-05 2.38274e-05 2.36418e-05 2.34591e-05 2.32792e-05 2.3102e-05 2.29275e-05 2.27557e-05 2.25863e-05 2.24195e-05 2.22552e-05 2.20932e-05 2.19336e-05 2.17763e-05 2.16212e-05 2.14684e-05 2.13176e-05 2.1169e-05 2.10225e-05 2.08779e-05 2.07353e-05 2.05947e-05 2.0456e-05 2.03191e-05 2.01841e-05 2.00508e-05 1.99193e-05 1.97895e-05 1.96614e-05 1.95349e-05 1.94101e-05 1.92868e-05 1.91651e-05 1.90449e-05 1.89263e-05 1.88091e-05 1.86933e-05 1.8579e-05 1.8466e-05 1.83545e-05 1.82442e-05 1.81353e-05 1.80277e-05 1.79213e-05 1.78162e-05 1.77124e-05 1.76097e-05 1.75082e-05 1.74079e-05 1.73087e-05 1.72107e-05 1.71137e-05 1.70179e-05 1.69231e-05 1.68294e-05 1.67367e-05 1.6645e-05 1.65543e-05 1.64646e-05 1.63759e-05 1.62881e-05 1.62013e-05 1.61154e-05 1.60304e-05 1.59462e-05 1.5863e-05 1.57806e-05 1.56991e-05 1.56184e-05 1.55386e-05 1.54595e-05 1.53813e-05 1.53039e-05 1.52272e-05 1.51513e-05;
