network "unnamedBN" {
// written by aGrUM 0.20.2
}

variable I {
   type discrete[201] {0, 1, 2, 3, 4, 5, 6, 7, 8, 9, 10, 11, 12, 13, 14, 15, 16, 17, 18, 19, 20, 21, 22, 23, 24, 25, 26, 27, 28, 29, 30, 31, 32, 33, 34, 35, 36, 37, 38, 39, 40, 41, 42, 43, 44, 45, 46, 47, 48, 49, 50, 51, 52, 53, 54, 55, 56, 57, 58, 59, 60, 61, 62, 63, 64, 65, 66, 67, 68, 69, 70, 71, 72, 73, 74, 75, 76, 77, 78, 79, 80, 81, 82, 83, 84, 85, 86, 87, 88, 89, 90, 91, 92, 93, 94, 95, 96, 97, 98, 99, 100, 101, 102, 103, 104, 105, 106, 107, 108, 109, 110, 111, 112, 113, 114, 115, 116, 117, 118, 119, 120, 121, 122, 123, 124, 125, 126, 127, 128, 129, 130, 131, 132, 133, 134, 135, 136, 137, 138, 139, 140, 141, 142, 143, 144, 145, 146, 147, 148, 149, 150, 151, 152, 153, 154, 155, 156, 157, 158, 159, 160, 161, 162, 163, 164, 165, 166, 167, 168, 169, 170, 171, 172, 173, 174, 175, 176, 177, 178, 179, 180, 181, 182, 183, 184, 185, 186, 187, 188, 189, 190, 191, 192, 193, 194, 195, 196, 197, 198, 199, 200};
}

variable F {
   type discrete[201] {0, 1, 2, 3, 4, 5, 6, 7, 8, 9, 10, 11, 12, 13, 14, 15, 16, 17, 18, 19, 20, 21, 22, 23, 24, 25, 26, 27, 28, 29, 30, 31, 32, 33, 34, 35, 36, 37, 38, 39, 40, 41, 42, 43, 44, 45, 46, 47, 48, 49, 50, 51, 52, 53, 54, 55, 56, 57, 58, 59, 60, 61, 62, 63, 64, 65, 66, 67, 68, 69, 70, 71, 72, 73, 74, 75, 76, 77, 78, 79, 80, 81, 82, 83, 84, 85, 86, 87, 88, 89, 90, 91, 92, 93, 94, 95, 96, 97, 98, 99, 100, 101, 102, 103, 104, 105, 106, 107, 108, 109, 110, 111, 112, 113, 114, 115, 116, 117, 118, 119, 120, 121, 122, 123, 124, 125, 126, 127, 128, 129, 130, 131, 132, 133, 134, 135, 136, 137, 138, 139, 140, 141, 142, 143, 144, 145, 146, 147, 148, 149, 150, 151, 152, 153, 154, 155, 156, 157, 158, 159, 160, 161, 162, 163, 164, 165, 166, 167, 168, 169, 170, 171, 172, 173, 174, 175, 176, 177, 178, 179, 180, 181, 182, 183, 184, 185, 186, 187, 188, 189, 190, 191, 192, 193, 194, 195, 196, 197, 198, 199, 200};
}

variable G {
   type discrete[2] {Female, Male};
}

variable A {
   type discrete[76] {0, 1, 2, 3, 4, 5, 6, 7, 8, 9, 10, 11, 12, 13, 14, 15, 16, 17, 18, 19, 20, 21, 22, 23, 24, 25, 26, 27, 28, 29, 30, 31, 32, 33, 34, 35, 36, 37, 38, 39, 40, 41, 42, 43, 44, 45, 46, 47, 48, 49, 50, 51, 52, 53, 54, 55, 56, 57, 58, 59, 60, 61, 62, 63, 64, 65, 66, 67, 68, 69, 70, 71, 72, 73, 74, 75};
}

variable H {
   type discrete[191] {50, 51, 52, 53, 54, 55, 56, 57, 58, 59, 60, 61, 62, 63, 64, 65, 66, 67, 68, 69, 70, 71, 72, 73, 74, 75, 76, 77, 78, 79, 80, 81, 82, 83, 84, 85, 86, 87, 88, 89, 90, 91, 92, 93, 94, 95, 96, 97, 98, 99, 100, 101, 102, 103, 104, 105, 106, 107, 108, 109, 110, 111, 112, 113, 114, 115, 116, 117, 118, 119, 120, 121, 122, 123, 124, 125, 126, 127, 128, 129, 130, 131, 132, 133, 134, 135, 136, 137, 138, 139, 140, 141, 142, 143, 144, 145, 146, 147, 148, 149, 150, 151, 152, 153, 154, 155, 156, 157, 158, 159, 160, 161, 162, 163, 164, 165, 166, 167, 168, 169, 170, 171, 172, 173, 174, 175, 176, 177, 178, 179, 180, 181, 182, 183, 184, 185, 186, 187, 188, 189, 190, 191, 192, 193, 194, 195, 196, 197, 198, 199, 200, 201, 202, 203, 204, 205, 206, 207, 208, 209, 210, 211, 212, 213, 214, 215, 216, 217, 218, 219, 220, 221, 222, 223, 224, 225, 226, 227, 228, 229, 230, 231, 232, 233, 234, 235, 236, 237, 238, 239, 240};
}

variable T {
   type discrete[336] {0, 1, 2, 3, 4, 5, 6, 7, 8, 9, 10, 11, 12, 13, 14, 15, 16, 17, 18, 19, 20, 21, 22, 23, 24, 25, 26, 27, 28, 29, 30, 31, 32, 33, 34, 35, 36, 37, 38, 39, 40, 41, 42, 43, 44, 45, 46, 47, 48, 49, 50, 51, 52, 53, 54, 55, 56, 57, 58, 59, 60, 61, 62, 63, 64, 65, 66, 67, 68, 69, 70, 71, 72, 73, 74, 75, 76, 77, 78, 79, 80, 81, 82, 83, 84, 85, 86, 87, 88, 89, 90, 91, 92, 93, 94, 95, 96, 97, 98, 99, 100, 101, 102, 103, 104, 105, 106, 107, 108, 109, 110, 111, 112, 113, 114, 115, 116, 117, 118, 119, 120, 121, 122, 123, 124, 125, 126, 127, 128, 129, 130, 131, 132, 133, 134, 135, 136, 137, 138, 139, 140, 141, 142, 143, 144, 145, 146, 147, 148, 149, 150, 151, 152, 153, 154, 155, 156, 157, 158, 159, 160, 161, 162, 163, 164, 165, 166, 167, 168, 169, 170, 171, 172, 173, 174, 175, 176, 177, 178, 179, 180, 181, 182, 183, 184, 185, 186, 187, 188, 189, 190, 191, 192, 193, 194, 195, 196, 197, 198, 199, 200, 201, 202, 203, 204, 205, 206, 207, 208, 209, 210, 211, 212, 213, 214, 215, 216, 217, 218, 219, 220, 221, 222, 223, 224, 225, 226, 227, 228, 229, 230, 231, 232, 233, 234, 235, 236, 237, 238, 239, 240, 241, 242, 243, 244, 245, 246, 247, 248, 249, 250, 251, 252, 253, 254, 255, 256, 257, 258, 259, 260, 261, 262, 263, 264, 265, 266, 267, 268, 269, 270, 271, 272, 273, 274, 275, 276, 277, 278, 279, 280, 281, 282, 283, 284, 285, 286, 287, 288, 289, 290, 291, 292, 293, 294, 295, 296, 297, 298, 299, 300, 301, 302, 303, 304, 305, 306, 307, 308, 309, 310, 311, 312, 313, 314, 315, 316, 317, 318, 319, 320, 321, 322, 323, 324, 325, 326, 327, 328, 329, 330, 331, 332, 333, 334, 335};
}

probability (I) {
   default 0.0336936 0.00454936 0.00606553 0.00556014 0.00556014 0.00606553 0.00657092 0.0038755 0.0057286 0.00556014 0.00522321 0.00454936 0.00438089 0.00606553 0.00471782 0.0038755 0.00404396 0.00421243 0.00438089 0.00471782 0.00556014 0.00657092 0.00505475 0.00589706 0.00505475 0.00539167 0.00623399 0.00556014 0.00505475 0.0038755 0.00539167 0.00623399 0.00471782 0.00471782 0.00522321 0.00606553 0.00690785 0.00454936 0.00539167 0.00404396 0.00454936 0.00640246 0.00522321 0.00353857 0.00488628 0.00488628 0.00690785 0.00471782 0.0057286 0.00623399 0.00454936 0.00556014 0.0038755 0.00556014 0.00488628 0.00404396 0.00488628 0.00522321 0.00438089 0.00606553 0.00421243 0.00320165 0.00438089 0.00421243 0.00505475 0.00556014 0.00303318 0.00471782 0.00623399 0.00522321 0.00589706 0.00404396 0.00539167 0.00438089 0.00539167 0.00488628 0.00320165 0.0057286 0.00640246 0.00589706 0.00353857 0.00522321 0.00556014 0.00505475 0.00168547 0.00488628 0.00320165 0.00235933 0.00235933 0.0057286 0.00337011 0.00471782 0.00454936 0.00252779 0.00606553 0.00505475 0.00438089 0.00168547 0.00539167 0.00286472 0.00370704 0.00404396 0.00252779 0.00370704 0.00488628 0.00370704 0.00219087 0.00337011 0.00505475 0.00438089 0.00556014 0.00606553 0.00522321 0.00673938 0.00421243 0.00454936 0.00505475 0.0038755 0.00673938 0.00775016 0.00556014 0.00370704 0.00522321 0.00724477 0.0057286 0.00556014 0.00690785 0.00556014 0.00539167 0.00556014 0.00320165 0.00589706 0.00421243 0.00320165 0.0057286 0.0038755 0.00589706 0.00168547 0.00589706 0.00522321 0.00539167 0.00269626 0.00640246 0.00606553 0.00404396 0.00589706 0.00539167 0.0057286 0.00471782 0.00252779 0.00556014 0.00556014 0.00438089 0.00606553 0.00623399 0.00539167 0.00556014 0.00454936 0.00505475 0.00673938 0.00556014 0.00657092 0.00454936 0.00505475 0.00522321 0.00320165 0.00454936 0.00522321 0.00438089 0.00640246 0.00438089 0.00370704 0.00421243 0.00539167 0.00522321 0.00320165 0.00438089 0.00421243 0.0057286 0.00488628 0.0038755 0.00522321 0.00454936 0.0057286 0.00471782 0.00353857 0.00471782 0.00454936 0.00522321 0.00370704 0.00471782 0.00539167 0.00488628 0.00286472 0.00522321 0.00454936 0.00320165 0.00252779 0.00235933 0.0038755 0.00370704;
}
probability (F | I) {
   (0) 0.984976 0.005 1.23756e-07 1.23756e-07 1.23756e-07 1.23756e-07 1.23756e-07 1.23756e-07 1.23756e-07 1.23756e-07 1.23756e-07 1.23756e-07 1.23756e-07 1.23756e-07 1.23756e-07 1.23756e-07 1.23756e-07 1.23756e-07 1.23756e-07 1.23756e-07 1.23756e-07 1.23756e-07 1.23756e-07 0.005 1.23756e-07 1.23756e-07 1.23756e-07 1.23756e-07 1.23756e-07 1.23756e-07 1.23756e-07 1.23756e-07 1.23756e-07 1.23756e-07 1.23756e-07 1.23756e-07 1.23756e-07 1.23756e-07 1.23756e-07 1.23756e-07 1.23756e-07 1.23756e-07 1.23756e-07 1.23756e-07 0.005 1.23756e-07 1.23756e-07 1.23756e-07 1.23756e-07 1.23756e-07 1.23756e-07 1.23756e-07 1.23756e-07 1.23756e-07 1.23756e-07 1.23756e-07 1.23756e-07 1.23756e-07 1.23756e-07 1.23756e-07 1.23756e-07 1.23756e-07 1.23756e-07 1.23756e-07 1.23756e-07 1.23756e-07 1.23756e-07 1.23756e-07 1.23756e-07 1.23756e-07 1.23756e-07 1.23756e-07 1.23756e-07 1.23756e-07 1.23756e-07 1.23756e-07 1.23756e-07 1.23756e-07 1.23756e-07 1.23756e-07 1.23756e-07 1.23756e-07 1.23756e-07 1.23756e-07 1.23756e-07 1.23756e-07 1.23756e-07 1.23756e-07 1.23756e-07 1.23756e-07 1.23756e-07 1.23756e-07 1.23756e-07 1.23756e-07 1.23756e-07 1.23756e-07 1.23756e-07 1.23756e-07 1.23756e-07 1.23756e-07 1.23756e-07 1.23756e-07 1.23756e-07 1.23756e-07 1.23756e-07 1.23756e-07 1.23756e-07 1.23756e-07 1.23756e-07 1.23756e-07 1.23756e-07 1.23756e-07 1.23756e-07 1.23756e-07 1.23756e-07 1.23756e-07 1.23756e-07 1.23756e-07 1.23756e-07 1.23756e-07 1.23756e-07 1.23756e-07 1.23756e-07 1.23756e-07 1.23756e-07 1.23756e-07 1.23756e-07 1.23756e-07 1.23756e-07 1.23756e-07 1.23756e-07 1.23756e-07 1.23756e-07 1.23756e-07 1.23756e-07 1.23756e-07 1.23756e-07 1.23756e-07 1.23756e-07 1.23756e-07 1.23756e-07 1.23756e-07 1.23756e-07 1.23756e-07 1.23756e-07 1.23756e-07 1.23756e-07 1.23756e-07 1.23756e-07 1.23756e-07 1.23756e-07 1.23756e-07 1.23756e-07 1.23756e-07 1.23756e-07 1.23756e-07 1.23756e-07 1.23756e-07 1.23756e-07 1.23756e-07 1.23756e-07 1.23756e-07 1.23756e-07 1.23756e-07 1.23756e-07 1.23756e-07 1.23756e-07 1.23756e-07 1.23756e-07 1.23756e-07 1.23756e-07 1.23756e-07 1.23756e-07 1.23756e-07 1.23756e-07 1.23756e-07 1.23756e-07 1.23756e-07 1.23756e-07 1.23756e-07 1.23756e-07 1.23756e-07 1.23756e-07 1.23756e-07 1.23756e-07 1.23756e-07 1.23756e-07 1.23756e-07 1.23756e-07 1.23756e-07 1.23756e-07 1.23756e-07 1.23756e-07 1.23756e-07 1.23756e-07 1.23756e-07 1.23756e-07 1.23756e-07 1.23756e-07 1.23756e-07 1.23756e-07;
   (1) 0.888726 0.111092 9.16567e-07 9.16567e-07 9.16567e-07 9.16567e-07 9.16567e-07 9.16567e-07 9.16567e-07 9.16567e-07 9.16567e-07 9.16567e-07 9.16567e-07 9.16567e-07 9.16567e-07 9.16567e-07 9.16567e-07 9.16567e-07 9.16567e-07 9.16567e-07 9.16567e-07 9.16567e-07 9.16567e-07 9.16567e-07 9.16567e-07 9.16567e-07 9.16567e-07 9.16567e-07 9.16567e-07 9.16567e-07 9.16567e-07 9.16567e-07 9.16567e-07 9.16567e-07 9.16567e-07 9.16567e-07 9.16567e-07 9.16567e-07 9.16567e-07 9.16567e-07 9.16567e-07 9.16567e-07 9.16567e-07 9.16567e-07 9.16567e-07 9.16567e-07 9.16567e-07 9.16567e-07 9.16567e-07 9.16567e-07 9.16567e-07 9.16567e-07 9.16567e-07 9.16567e-07 9.16567e-07 9.16567e-07 9.16567e-07 9.16567e-07 9.16567e-07 9.16567e-07 9.16567e-07 9.16567e-07 9.16567e-07 9.16567e-07 9.16567e-07 9.16567e-07 9.16567e-07 9.16567e-07 9.16567e-07 9.16567e-07 9.16567e-07 9.16567e-07 9.16567e-07 9.16567e-07 9.16567e-07 9.16567e-07 9.16567e-07 9.16567e-07 9.16567e-07 9.16567e-07 9.16567e-07 9.16567e-07 9.16567e-07 9.16567e-07 9.16567e-07 9.16567e-07 9.16567e-07 9.16567e-07 9.16567e-07 9.16567e-07 9.16567e-07 9.16567e-07 9.16567e-07 9.16567e-07 9.16567e-07 9.16567e-07 9.16567e-07 9.16567e-07 9.16567e-07 9.16567e-07 9.16567e-07 9.16567e-07 9.16567e-07 9.16567e-07 9.16567e-07 9.16567e-07 9.16567e-07 9.16567e-07 9.16567e-07 9.16567e-07 9.16567e-07 9.16567e-07 9.16567e-07 9.16567e-07 9.16567e-07 9.16567e-07 9.16567e-07 9.16567e-07 9.16567e-07 9.16567e-07 9.16567e-07 9.16567e-07 9.16567e-07 9.16567e-07 9.16567e-07 9.16567e-07 9.16567e-07 9.16567e-07 9.16567e-07 9.16567e-07 9.16567e-07 9.16567e-07 9.16567e-07 9.16567e-07 9.16567e-07 9.16567e-07 9.16567e-07 9.16567e-07 9.16567e-07 9.16567e-07 9.16567e-07 9.16567e-07 9.16567e-07 9.16567e-07 9.16567e-07 9.16567e-07 9.16567e-07 9.16567e-07 9.16567e-07 9.16567e-07 9.16567e-07 9.16567e-07 9.16567e-07 9.16567e-07 9.16567e-07 9.16567e-07 9.16567e-07 9.16567e-07 9.16567e-07 9.16567e-07 9.16567e-07 9.16567e-07 9.16567e-07 9.16567e-07 9.16567e-07 9.16567e-07 9.16567e-07 9.16567e-07 9.16567e-07 9.16567e-07 9.16567e-07 9.16567e-07 9.16567e-07 9.16567e-07 9.16567e-07 9.16567e-07 9.16567e-07 9.16567e-07 9.16567e-07 9.16567e-07 9.16567e-07 9.16567e-07 9.16567e-07 9.16567e-07 9.16567e-07 9.16567e-07 9.16567e-07 9.16567e-07 9.16567e-07 9.16567e-07 9.16567e-07 9.16567e-07 9.16567e-07 9.16567e-07 9.16567e-07 9.16567e-07 9.16567e-07 9.16567e-07 9.16567e-07 9.16567e-07 9.16567e-07;
   (2) 0.583253 6.87457e-07 0.388836 6.87457e-07 6.87457e-07 6.87457e-07 6.87457e-07 6.87457e-07 6.87457e-07 6.87457e-07 0.0277746 6.87457e-07 6.87457e-07 6.87457e-07 6.87457e-07 6.87457e-07 6.87457e-07 6.87457e-07 6.87457e-07 6.87457e-07 6.87457e-07 6.87457e-07 6.87457e-07 6.87457e-07 6.87457e-07 6.87457e-07 6.87457e-07 6.87457e-07 6.87457e-07 6.87457e-07 6.87457e-07 6.87457e-07 6.87457e-07 6.87457e-07 6.87457e-07 6.87457e-07 6.87457e-07 6.87457e-07 6.87457e-07 6.87457e-07 6.87457e-07 6.87457e-07 6.87457e-07 6.87457e-07 6.87457e-07 6.87457e-07 6.87457e-07 6.87457e-07 6.87457e-07 6.87457e-07 6.87457e-07 6.87457e-07 6.87457e-07 6.87457e-07 6.87457e-07 6.87457e-07 6.87457e-07 6.87457e-07 6.87457e-07 6.87457e-07 6.87457e-07 6.87457e-07 6.87457e-07 6.87457e-07 6.87457e-07 6.87457e-07 6.87457e-07 6.87457e-07 6.87457e-07 6.87457e-07 6.87457e-07 6.87457e-07 6.87457e-07 6.87457e-07 6.87457e-07 6.87457e-07 6.87457e-07 6.87457e-07 6.87457e-07 6.87457e-07 6.87457e-07 6.87457e-07 6.87457e-07 6.87457e-07 6.87457e-07 6.87457e-07 6.87457e-07 6.87457e-07 6.87457e-07 6.87457e-07 6.87457e-07 6.87457e-07 6.87457e-07 6.87457e-07 6.87457e-07 6.87457e-07 6.87457e-07 6.87457e-07 6.87457e-07 6.87457e-07 6.87457e-07 6.87457e-07 6.87457e-07 6.87457e-07 6.87457e-07 6.87457e-07 6.87457e-07 6.87457e-07 6.87457e-07 6.87457e-07 6.87457e-07 6.87457e-07 6.87457e-07 6.87457e-07 6.87457e-07 6.87457e-07 6.87457e-07 6.87457e-07 6.87457e-07 6.87457e-07 6.87457e-07 6.87457e-07 6.87457e-07 6.87457e-07 6.87457e-07 6.87457e-07 6.87457e-07 6.87457e-07 6.87457e-07 6.87457e-07 6.87457e-07 6.87457e-07 6.87457e-07 6.87457e-07 6.87457e-07 6.87457e-07 6.87457e-07 6.87457e-07 6.87457e-07 6.87457e-07 6.87457e-07 6.87457e-07 6.87457e-07 6.87457e-07 6.87457e-07 6.87457e-07 6.87457e-07 6.87457e-07 6.87457e-07 6.87457e-07 6.87457e-07 6.87457e-07 6.87457e-07 6.87457e-07 6.87457e-07 6.87457e-07 6.87457e-07 6.87457e-07 6.87457e-07 6.87457e-07 6.87457e-07 6.87457e-07 6.87457e-07 6.87457e-07 6.87457e-07 6.87457e-07 6.87457e-07 6.87457e-07 6.87457e-07 6.87457e-07 6.87457e-07 6.87457e-07 6.87457e-07 6.87457e-07 6.87457e-07 6.87457e-07 6.87457e-07 6.87457e-07 6.87457e-07 6.87457e-07 6.87457e-07 6.87457e-07 6.87457e-07 6.87457e-07 6.87457e-07 6.87457e-07 6.87457e-07 6.87457e-07 6.87457e-07 6.87457e-07 6.87457e-07 6.87457e-07 6.87457e-07 6.87457e-07 6.87457e-07 6.87457e-07 6.87457e-07 6.87457e-07 6.87457e-07 6.87457e-07 6.87457e-07;
   (3) 0.696865 7.49943e-07 7.49943e-07 0.302985 7.49943e-07 7.49943e-07 7.49943e-07 7.49943e-07 7.49943e-07 7.49943e-07 7.49943e-07 7.49943e-07 7.49943e-07 7.49943e-07 7.49943e-07 7.49943e-07 7.49943e-07 7.49943e-07 7.49943e-07 7.49943e-07 7.49943e-07 7.49943e-07 7.49943e-07 7.49943e-07 7.49943e-07 7.49943e-07 7.49943e-07 7.49943e-07 7.49943e-07 7.49943e-07 7.49943e-07 7.49943e-07 7.49943e-07 7.49943e-07 7.49943e-07 7.49943e-07 7.49943e-07 7.49943e-07 7.49943e-07 7.49943e-07 7.49943e-07 7.49943e-07 7.49943e-07 7.49943e-07 7.49943e-07 7.49943e-07 7.49943e-07 7.49943e-07 7.49943e-07 7.49943e-07 7.49943e-07 7.49943e-07 7.49943e-07 7.49943e-07 7.49943e-07 7.49943e-07 7.49943e-07 7.49943e-07 7.49943e-07 7.49943e-07 7.49943e-07 7.49943e-07 7.49943e-07 7.49943e-07 7.49943e-07 7.49943e-07 7.49943e-07 7.49943e-07 7.49943e-07 7.49943e-07 7.49943e-07 7.49943e-07 7.49943e-07 7.49943e-07 7.49943e-07 7.49943e-07 7.49943e-07 7.49943e-07 7.49943e-07 7.49943e-07 7.49943e-07 7.49943e-07 7.49943e-07 7.49943e-07 7.49943e-07 7.49943e-07 7.49943e-07 7.49943e-07 7.49943e-07 7.49943e-07 7.49943e-07 7.49943e-07 7.49943e-07 7.49943e-07 7.49943e-07 7.49943e-07 7.49943e-07 7.49943e-07 7.49943e-07 7.49943e-07 7.49943e-07 7.49943e-07 7.49943e-07 7.49943e-07 7.49943e-07 7.49943e-07 7.49943e-07 7.49943e-07 7.49943e-07 7.49943e-07 7.49943e-07 7.49943e-07 7.49943e-07 7.49943e-07 7.49943e-07 7.49943e-07 7.49943e-07 7.49943e-07 7.49943e-07 7.49943e-07 7.49943e-07 7.49943e-07 7.49943e-07 7.49943e-07 7.49943e-07 7.49943e-07 7.49943e-07 7.49943e-07 7.49943e-07 7.49943e-07 7.49943e-07 7.49943e-07 7.49943e-07 7.49943e-07 7.49943e-07 7.49943e-07 7.49943e-07 7.49943e-07 7.49943e-07 7.49943e-07 7.49943e-07 7.49943e-07 7.49943e-07 7.49943e-07 7.49943e-07 7.49943e-07 7.49943e-07 7.49943e-07 7.49943e-07 7.49943e-07 7.49943e-07 7.49943e-07 7.49943e-07 7.49943e-07 7.49943e-07 7.49943e-07 7.49943e-07 7.49943e-07 7.49943e-07 7.49943e-07 7.49943e-07 7.49943e-07 7.49943e-07 7.49943e-07 7.49943e-07 7.49943e-07 7.49943e-07 7.49943e-07 7.49943e-07 7.49943e-07 7.49943e-07 7.49943e-07 7.49943e-07 7.49943e-07 7.49943e-07 7.49943e-07 7.49943e-07 7.49943e-07 7.49943e-07 7.49943e-07 7.49943e-07 7.49943e-07 7.49943e-07 7.49943e-07 7.49943e-07 7.49943e-07 7.49943e-07 7.49943e-07 7.49943e-07 7.49943e-07 7.49943e-07 7.49943e-07 7.49943e-07 7.49943e-07 7.49943e-07 7.49943e-07 7.49943e-07 7.49943e-07 7.49943e-07 7.49943e-07 7.49943e-07;
   (4) 0.818059 7.49943e-07 7.49943e-07 7.49943e-07 0.181792 7.49943e-07 7.49943e-07 7.49943e-07 7.49943e-07 7.49943e-07 7.49943e-07 7.49943e-07 7.49943e-07 7.49943e-07 7.49943e-07 7.49943e-07 7.49943e-07 7.49943e-07 7.49943e-07 7.49943e-07 7.49943e-07 7.49943e-07 7.49943e-07 7.49943e-07 7.49943e-07 7.49943e-07 7.49943e-07 7.49943e-07 7.49943e-07 7.49943e-07 7.49943e-07 7.49943e-07 7.49943e-07 7.49943e-07 7.49943e-07 7.49943e-07 7.49943e-07 7.49943e-07 7.49943e-07 7.49943e-07 7.49943e-07 7.49943e-07 7.49943e-07 7.49943e-07 7.49943e-07 7.49943e-07 7.49943e-07 7.49943e-07 7.49943e-07 7.49943e-07 7.49943e-07 7.49943e-07 7.49943e-07 7.49943e-07 7.49943e-07 7.49943e-07 7.49943e-07 7.49943e-07 7.49943e-07 7.49943e-07 7.49943e-07 7.49943e-07 7.49943e-07 7.49943e-07 7.49943e-07 7.49943e-07 7.49943e-07 7.49943e-07 7.49943e-07 7.49943e-07 7.49943e-07 7.49943e-07 7.49943e-07 7.49943e-07 7.49943e-07 7.49943e-07 7.49943e-07 7.49943e-07 7.49943e-07 7.49943e-07 7.49943e-07 7.49943e-07 7.49943e-07 7.49943e-07 7.49943e-07 7.49943e-07 7.49943e-07 7.49943e-07 7.49943e-07 7.49943e-07 7.49943e-07 7.49943e-07 7.49943e-07 7.49943e-07 7.49943e-07 7.49943e-07 7.49943e-07 7.49943e-07 7.49943e-07 7.49943e-07 7.49943e-07 7.49943e-07 7.49943e-07 7.49943e-07 7.49943e-07 7.49943e-07 7.49943e-07 7.49943e-07 7.49943e-07 7.49943e-07 7.49943e-07 7.49943e-07 7.49943e-07 7.49943e-07 7.49943e-07 7.49943e-07 7.49943e-07 7.49943e-07 7.49943e-07 7.49943e-07 7.49943e-07 7.49943e-07 7.49943e-07 7.49943e-07 7.49943e-07 7.49943e-07 7.49943e-07 7.49943e-07 7.49943e-07 7.49943e-07 7.49943e-07 7.49943e-07 7.49943e-07 7.49943e-07 7.49943e-07 7.49943e-07 7.49943e-07 7.49943e-07 7.49943e-07 7.49943e-07 7.49943e-07 7.49943e-07 7.49943e-07 7.49943e-07 7.49943e-07 7.49943e-07 7.49943e-07 7.49943e-07 7.49943e-07 7.49943e-07 7.49943e-07 7.49943e-07 7.49943e-07 7.49943e-07 7.49943e-07 7.49943e-07 7.49943e-07 7.49943e-07 7.49943e-07 7.49943e-07 7.49943e-07 7.49943e-07 7.49943e-07 7.49943e-07 7.49943e-07 7.49943e-07 7.49943e-07 7.49943e-07 7.49943e-07 7.49943e-07 7.49943e-07 7.49943e-07 7.49943e-07 7.49943e-07 7.49943e-07 7.49943e-07 7.49943e-07 7.49943e-07 7.49943e-07 7.49943e-07 7.49943e-07 7.49943e-07 7.49943e-07 7.49943e-07 7.49943e-07 7.49943e-07 7.49943e-07 7.49943e-07 7.49943e-07 7.49943e-07 7.49943e-07 7.49943e-07 7.49943e-07 7.49943e-07 7.49943e-07 7.49943e-07 7.49943e-07 7.49943e-07 7.49943e-07 7.49943e-07 7.49943e-07;
   (5) 0.583253 6.87457e-07 6.87457e-07 6.87457e-07 6.87457e-07 0.41661 6.87457e-07 6.87457e-07 6.87457e-07 6.87457e-07 6.87457e-07 6.87457e-07 6.87457e-07 6.87457e-07 6.87457e-07 6.87457e-07 6.87457e-07 6.87457e-07 6.87457e-07 6.87457e-07 6.87457e-07 6.87457e-07 6.87457e-07 6.87457e-07 6.87457e-07 6.87457e-07 6.87457e-07 6.87457e-07 6.87457e-07 6.87457e-07 6.87457e-07 6.87457e-07 6.87457e-07 6.87457e-07 6.87457e-07 6.87457e-07 6.87457e-07 6.87457e-07 6.87457e-07 6.87457e-07 6.87457e-07 6.87457e-07 6.87457e-07 6.87457e-07 6.87457e-07 6.87457e-07 6.87457e-07 6.87457e-07 6.87457e-07 6.87457e-07 6.87457e-07 6.87457e-07 6.87457e-07 6.87457e-07 6.87457e-07 6.87457e-07 6.87457e-07 6.87457e-07 6.87457e-07 6.87457e-07 6.87457e-07 6.87457e-07 6.87457e-07 6.87457e-07 6.87457e-07 6.87457e-07 6.87457e-07 6.87457e-07 6.87457e-07 6.87457e-07 6.87457e-07 6.87457e-07 6.87457e-07 6.87457e-07 6.87457e-07 6.87457e-07 6.87457e-07 6.87457e-07 6.87457e-07 6.87457e-07 6.87457e-07 6.87457e-07 6.87457e-07 6.87457e-07 6.87457e-07 6.87457e-07 6.87457e-07 6.87457e-07 6.87457e-07 6.87457e-07 6.87457e-07 6.87457e-07 6.87457e-07 6.87457e-07 6.87457e-07 6.87457e-07 6.87457e-07 6.87457e-07 6.87457e-07 6.87457e-07 6.87457e-07 6.87457e-07 6.87457e-07 6.87457e-07 6.87457e-07 6.87457e-07 6.87457e-07 6.87457e-07 6.87457e-07 6.87457e-07 6.87457e-07 6.87457e-07 6.87457e-07 6.87457e-07 6.87457e-07 6.87457e-07 6.87457e-07 6.87457e-07 6.87457e-07 6.87457e-07 6.87457e-07 6.87457e-07 6.87457e-07 6.87457e-07 6.87457e-07 6.87457e-07 6.87457e-07 6.87457e-07 6.87457e-07 6.87457e-07 6.87457e-07 6.87457e-07 6.87457e-07 6.87457e-07 6.87457e-07 6.87457e-07 6.87457e-07 6.87457e-07 6.87457e-07 6.87457e-07 6.87457e-07 6.87457e-07 6.87457e-07 6.87457e-07 6.87457e-07 6.87457e-07 6.87457e-07 6.87457e-07 6.87457e-07 6.87457e-07 6.87457e-07 6.87457e-07 6.87457e-07 6.87457e-07 6.87457e-07 6.87457e-07 6.87457e-07 6.87457e-07 6.87457e-07 6.87457e-07 6.87457e-07 6.87457e-07 6.87457e-07 6.87457e-07 6.87457e-07 6.87457e-07 6.87457e-07 6.87457e-07 6.87457e-07 6.87457e-07 6.87457e-07 6.87457e-07 6.87457e-07 6.87457e-07 6.87457e-07 6.87457e-07 6.87457e-07 6.87457e-07 6.87457e-07 6.87457e-07 6.87457e-07 6.87457e-07 6.87457e-07 6.87457e-07 6.87457e-07 6.87457e-07 6.87457e-07 6.87457e-07 6.87457e-07 6.87457e-07 6.87457e-07 6.87457e-07 6.87457e-07 6.87457e-07 6.87457e-07 6.87457e-07 6.87457e-07 6.87457e-07 6.87457e-07 6.87457e-07 6.87457e-07;
   (6) 0.794771 6.34582e-07 6.34582e-07 6.34582e-07 6.34582e-07 6.34582e-07 0.205103 6.34582e-07 6.34582e-07 6.34582e-07 6.34582e-07 6.34582e-07 6.34582e-07 6.34582e-07 6.34582e-07 6.34582e-07 6.34582e-07 6.34582e-07 6.34582e-07 6.34582e-07 6.34582e-07 6.34582e-07 6.34582e-07 6.34582e-07 6.34582e-07 6.34582e-07 6.34582e-07 6.34582e-07 6.34582e-07 6.34582e-07 6.34582e-07 6.34582e-07 6.34582e-07 6.34582e-07 6.34582e-07 6.34582e-07 6.34582e-07 6.34582e-07 6.34582e-07 6.34582e-07 6.34582e-07 6.34582e-07 6.34582e-07 6.34582e-07 6.34582e-07 6.34582e-07 6.34582e-07 6.34582e-07 6.34582e-07 6.34582e-07 6.34582e-07 6.34582e-07 6.34582e-07 6.34582e-07 6.34582e-07 6.34582e-07 6.34582e-07 6.34582e-07 6.34582e-07 6.34582e-07 6.34582e-07 6.34582e-07 6.34582e-07 6.34582e-07 6.34582e-07 6.34582e-07 6.34582e-07 6.34582e-07 6.34582e-07 6.34582e-07 6.34582e-07 6.34582e-07 6.34582e-07 6.34582e-07 6.34582e-07 6.34582e-07 6.34582e-07 6.34582e-07 6.34582e-07 6.34582e-07 6.34582e-07 6.34582e-07 6.34582e-07 6.34582e-07 6.34582e-07 6.34582e-07 6.34582e-07 6.34582e-07 6.34582e-07 6.34582e-07 6.34582e-07 6.34582e-07 6.34582e-07 6.34582e-07 6.34582e-07 6.34582e-07 6.34582e-07 6.34582e-07 6.34582e-07 6.34582e-07 6.34582e-07 6.34582e-07 6.34582e-07 6.34582e-07 6.34582e-07 6.34582e-07 6.34582e-07 6.34582e-07 6.34582e-07 6.34582e-07 6.34582e-07 6.34582e-07 6.34582e-07 6.34582e-07 6.34582e-07 6.34582e-07 6.34582e-07 6.34582e-07 6.34582e-07 6.34582e-07 6.34582e-07 6.34582e-07 6.34582e-07 6.34582e-07 6.34582e-07 6.34582e-07 6.34582e-07 6.34582e-07 6.34582e-07 6.34582e-07 6.34582e-07 6.34582e-07 6.34582e-07 6.34582e-07 6.34582e-07 6.34582e-07 6.34582e-07 6.34582e-07 6.34582e-07 6.34582e-07 6.34582e-07 6.34582e-07 6.34582e-07 6.34582e-07 6.34582e-07 6.34582e-07 6.34582e-07 6.34582e-07 6.34582e-07 6.34582e-07 6.34582e-07 6.34582e-07 6.34582e-07 6.34582e-07 6.34582e-07 6.34582e-07 6.34582e-07 6.34582e-07 6.34582e-07 6.34582e-07 6.34582e-07 6.34582e-07 6.34582e-07 6.34582e-07 6.34582e-07 6.34582e-07 6.34582e-07 6.34582e-07 6.34582e-07 6.34582e-07 6.34582e-07 6.34582e-07 6.34582e-07 6.34582e-07 6.34582e-07 6.34582e-07 6.34582e-07 6.34582e-07 6.34582e-07 6.34582e-07 6.34582e-07 6.34582e-07 6.34582e-07 6.34582e-07 6.34582e-07 6.34582e-07 6.34582e-07 6.34582e-07 6.34582e-07 6.34582e-07 6.34582e-07 6.34582e-07 6.34582e-07 6.34582e-07 6.34582e-07 6.34582e-07 6.34582e-07 6.34582e-07 6.34582e-07 6.34582e-07 6.34582e-07;
   (7) 0.565096 1.07594e-06 1.07594e-06 1.07594e-06 1.07594e-06 1.07594e-06 1.07594e-06 0.43469 1.07594e-06 1.07594e-06 1.07594e-06 1.07594e-06 1.07594e-06 1.07594e-06 1.07594e-06 1.07594e-06 1.07594e-06 1.07594e-06 1.07594e-06 1.07594e-06 1.07594e-06 1.07594e-06 1.07594e-06 1.07594e-06 1.07594e-06 1.07594e-06 1.07594e-06 1.07594e-06 1.07594e-06 1.07594e-06 1.07594e-06 1.07594e-06 1.07594e-06 1.07594e-06 1.07594e-06 1.07594e-06 1.07594e-06 1.07594e-06 1.07594e-06 1.07594e-06 1.07594e-06 1.07594e-06 1.07594e-06 1.07594e-06 1.07594e-06 1.07594e-06 1.07594e-06 1.07594e-06 1.07594e-06 1.07594e-06 1.07594e-06 1.07594e-06 1.07594e-06 1.07594e-06 1.07594e-06 1.07594e-06 1.07594e-06 1.07594e-06 1.07594e-06 1.07594e-06 1.07594e-06 1.07594e-06 1.07594e-06 1.07594e-06 1.07594e-06 1.07594e-06 1.07594e-06 1.07594e-06 1.07594e-06 1.07594e-06 1.07594e-06 1.07594e-06 1.07594e-06 1.07594e-06 1.07594e-06 1.07594e-06 1.07594e-06 1.07594e-06 1.07594e-06 1.07594e-06 1.07594e-06 1.07594e-06 1.07594e-06 1.07594e-06 1.07594e-06 1.07594e-06 1.07594e-06 1.07594e-06 1.07594e-06 1.07594e-06 1.07594e-06 1.07594e-06 1.07594e-06 1.07594e-06 1.07594e-06 1.07594e-06 1.07594e-06 1.07594e-06 1.07594e-06 1.07594e-06 1.07594e-06 1.07594e-06 1.07594e-06 1.07594e-06 1.07594e-06 1.07594e-06 1.07594e-06 1.07594e-06 1.07594e-06 1.07594e-06 1.07594e-06 1.07594e-06 1.07594e-06 1.07594e-06 1.07594e-06 1.07594e-06 1.07594e-06 1.07594e-06 1.07594e-06 1.07594e-06 1.07594e-06 1.07594e-06 1.07594e-06 1.07594e-06 1.07594e-06 1.07594e-06 1.07594e-06 1.07594e-06 1.07594e-06 1.07594e-06 1.07594e-06 1.07594e-06 1.07594e-06 1.07594e-06 1.07594e-06 1.07594e-06 1.07594e-06 1.07594e-06 1.07594e-06 1.07594e-06 1.07594e-06 1.07594e-06 1.07594e-06 1.07594e-06 1.07594e-06 1.07594e-06 1.07594e-06 1.07594e-06 1.07594e-06 1.07594e-06 1.07594e-06 1.07594e-06 1.07594e-06 1.07594e-06 1.07594e-06 1.07594e-06 1.07594e-06 1.07594e-06 1.07594e-06 1.07594e-06 1.07594e-06 1.07594e-06 1.07594e-06 1.07594e-06 1.07594e-06 1.07594e-06 1.07594e-06 1.07594e-06 1.07594e-06 1.07594e-06 1.07594e-06 1.07594e-06 1.07594e-06 1.07594e-06 1.07594e-06 1.07594e-06 1.07594e-06 1.07594e-06 1.07594e-06 1.07594e-06 1.07594e-06 1.07594e-06 1.07594e-06 1.07594e-06 1.07594e-06 1.07594e-06 1.07594e-06 1.07594e-06 1.07594e-06 1.07594e-06 1.07594e-06 1.07594e-06 1.07594e-06 1.07594e-06 1.07594e-06 1.07594e-06 1.07594e-06 1.07594e-06 1.07594e-06 1.07594e-06 1.07594e-06;
   (8) 0.47052 7.27889e-07 7.27889e-07 7.27889e-07 7.27889e-07 7.27889e-07 7.27889e-07 7.27889e-07 0.529335 7.27889e-07 7.27889e-07 7.27889e-07 7.27889e-07 7.27889e-07 7.27889e-07 7.27889e-07 7.27889e-07 7.27889e-07 7.27889e-07 7.27889e-07 7.27889e-07 7.27889e-07 7.27889e-07 7.27889e-07 7.27889e-07 7.27889e-07 7.27889e-07 7.27889e-07 7.27889e-07 7.27889e-07 7.27889e-07 7.27889e-07 7.27889e-07 7.27889e-07 7.27889e-07 7.27889e-07 7.27889e-07 7.27889e-07 7.27889e-07 7.27889e-07 7.27889e-07 7.27889e-07 7.27889e-07 7.27889e-07 7.27889e-07 7.27889e-07 7.27889e-07 7.27889e-07 7.27889e-07 7.27889e-07 7.27889e-07 7.27889e-07 7.27889e-07 7.27889e-07 7.27889e-07 7.27889e-07 7.27889e-07 7.27889e-07 7.27889e-07 7.27889e-07 7.27889e-07 7.27889e-07 7.27889e-07 7.27889e-07 7.27889e-07 7.27889e-07 7.27889e-07 7.27889e-07 7.27889e-07 7.27889e-07 7.27889e-07 7.27889e-07 7.27889e-07 7.27889e-07 7.27889e-07 7.27889e-07 7.27889e-07 7.27889e-07 7.27889e-07 7.27889e-07 7.27889e-07 7.27889e-07 7.27889e-07 7.27889e-07 7.27889e-07 7.27889e-07 7.27889e-07 7.27889e-07 7.27889e-07 7.27889e-07 7.27889e-07 7.27889e-07 7.27889e-07 7.27889e-07 7.27889e-07 7.27889e-07 7.27889e-07 7.27889e-07 7.27889e-07 7.27889e-07 7.27889e-07 7.27889e-07 7.27889e-07 7.27889e-07 7.27889e-07 7.27889e-07 7.27889e-07 7.27889e-07 7.27889e-07 7.27889e-07 7.27889e-07 7.27889e-07 7.27889e-07 7.27889e-07 7.27889e-07 7.27889e-07 7.27889e-07 7.27889e-07 7.27889e-07 7.27889e-07 7.27889e-07 7.27889e-07 7.27889e-07 7.27889e-07 7.27889e-07 7.27889e-07 7.27889e-07 7.27889e-07 7.27889e-07 7.27889e-07 7.27889e-07 7.27889e-07 7.27889e-07 7.27889e-07 7.27889e-07 7.27889e-07 7.27889e-07 7.27889e-07 7.27889e-07 7.27889e-07 7.27889e-07 7.27889e-07 7.27889e-07 7.27889e-07 7.27889e-07 7.27889e-07 7.27889e-07 7.27889e-07 7.27889e-07 7.27889e-07 7.27889e-07 7.27889e-07 7.27889e-07 7.27889e-07 7.27889e-07 7.27889e-07 7.27889e-07 7.27889e-07 7.27889e-07 7.27889e-07 7.27889e-07 7.27889e-07 7.27889e-07 7.27889e-07 7.27889e-07 7.27889e-07 7.27889e-07 7.27889e-07 7.27889e-07 7.27889e-07 7.27889e-07 7.27889e-07 7.27889e-07 7.27889e-07 7.27889e-07 7.27889e-07 7.27889e-07 7.27889e-07 7.27889e-07 7.27889e-07 7.27889e-07 7.27889e-07 7.27889e-07 7.27889e-07 7.27889e-07 7.27889e-07 7.27889e-07 7.27889e-07 7.27889e-07 7.27889e-07 7.27889e-07 7.27889e-07 7.27889e-07 7.27889e-07 7.27889e-07 7.27889e-07 7.27889e-07 7.27889e-07 7.27889e-07 7.27889e-07 7.27889e-07;
   (9) 0.666567 7.49943e-07 7.49943e-07 7.49943e-07 7.49943e-07 7.49943e-07 7.49943e-07 7.49943e-07 7.49943e-07 0.333284 7.49943e-07 7.49943e-07 7.49943e-07 7.49943e-07 7.49943e-07 7.49943e-07 7.49943e-07 7.49943e-07 7.49943e-07 7.49943e-07 7.49943e-07 7.49943e-07 7.49943e-07 7.49943e-07 7.49943e-07 7.49943e-07 7.49943e-07 7.49943e-07 7.49943e-07 7.49943e-07 7.49943e-07 7.49943e-07 7.49943e-07 7.49943e-07 7.49943e-07 7.49943e-07 7.49943e-07 7.49943e-07 7.49943e-07 7.49943e-07 7.49943e-07 7.49943e-07 7.49943e-07 7.49943e-07 7.49943e-07 7.49943e-07 7.49943e-07 7.49943e-07 7.49943e-07 7.49943e-07 7.49943e-07 7.49943e-07 7.49943e-07 7.49943e-07 7.49943e-07 7.49943e-07 7.49943e-07 7.49943e-07 7.49943e-07 7.49943e-07 7.49943e-07 7.49943e-07 7.49943e-07 7.49943e-07 7.49943e-07 7.49943e-07 7.49943e-07 7.49943e-07 7.49943e-07 7.49943e-07 7.49943e-07 7.49943e-07 7.49943e-07 7.49943e-07 7.49943e-07 7.49943e-07 7.49943e-07 7.49943e-07 7.49943e-07 7.49943e-07 7.49943e-07 7.49943e-07 7.49943e-07 7.49943e-07 7.49943e-07 7.49943e-07 7.49943e-07 7.49943e-07 7.49943e-07 7.49943e-07 7.49943e-07 7.49943e-07 7.49943e-07 7.49943e-07 7.49943e-07 7.49943e-07 7.49943e-07 7.49943e-07 7.49943e-07 7.49943e-07 7.49943e-07 7.49943e-07 7.49943e-07 7.49943e-07 7.49943e-07 7.49943e-07 7.49943e-07 7.49943e-07 7.49943e-07 7.49943e-07 7.49943e-07 7.49943e-07 7.49943e-07 7.49943e-07 7.49943e-07 7.49943e-07 7.49943e-07 7.49943e-07 7.49943e-07 7.49943e-07 7.49943e-07 7.49943e-07 7.49943e-07 7.49943e-07 7.49943e-07 7.49943e-07 7.49943e-07 7.49943e-07 7.49943e-07 7.49943e-07 7.49943e-07 7.49943e-07 7.49943e-07 7.49943e-07 7.49943e-07 7.49943e-07 7.49943e-07 7.49943e-07 7.49943e-07 7.49943e-07 7.49943e-07 7.49943e-07 7.49943e-07 7.49943e-07 7.49943e-07 7.49943e-07 7.49943e-07 7.49943e-07 7.49943e-07 7.49943e-07 7.49943e-07 7.49943e-07 7.49943e-07 7.49943e-07 7.49943e-07 7.49943e-07 7.49943e-07 7.49943e-07 7.49943e-07 7.49943e-07 7.49943e-07 7.49943e-07 7.49943e-07 7.49943e-07 7.49943e-07 7.49943e-07 7.49943e-07 7.49943e-07 7.49943e-07 7.49943e-07 7.49943e-07 7.49943e-07 7.49943e-07 7.49943e-07 7.49943e-07 7.49943e-07 7.49943e-07 7.49943e-07 7.49943e-07 7.49943e-07 7.49943e-07 7.49943e-07 7.49943e-07 7.49943e-07 7.49943e-07 7.49943e-07 7.49943e-07 7.49943e-07 7.49943e-07 7.49943e-07 7.49943e-07 7.49943e-07 7.49943e-07 7.49943e-07 7.49943e-07 7.49943e-07 7.49943e-07 7.49943e-07 7.49943e-07 7.49943e-07 7.49943e-07;
   (10) 0.451541 7.98319e-07 7.98319e-07 7.98319e-07 7.98319e-07 7.98319e-07 7.98319e-07 7.98319e-07 7.98319e-07 7.98319e-07 0.5483 7.98319e-07 7.98319e-07 7.98319e-07 7.98319e-07 7.98319e-07 7.98319e-07 7.98319e-07 7.98319e-07 7.98319e-07 7.98319e-07 7.98319e-07 7.98319e-07 7.98319e-07 7.98319e-07 7.98319e-07 7.98319e-07 7.98319e-07 7.98319e-07 7.98319e-07 7.98319e-07 7.98319e-07 7.98319e-07 7.98319e-07 7.98319e-07 7.98319e-07 7.98319e-07 7.98319e-07 7.98319e-07 7.98319e-07 7.98319e-07 7.98319e-07 7.98319e-07 7.98319e-07 7.98319e-07 7.98319e-07 7.98319e-07 7.98319e-07 7.98319e-07 7.98319e-07 7.98319e-07 7.98319e-07 7.98319e-07 7.98319e-07 7.98319e-07 7.98319e-07 7.98319e-07 7.98319e-07 7.98319e-07 7.98319e-07 7.98319e-07 7.98319e-07 7.98319e-07 7.98319e-07 7.98319e-07 7.98319e-07 7.98319e-07 7.98319e-07 7.98319e-07 7.98319e-07 7.98319e-07 7.98319e-07 7.98319e-07 7.98319e-07 7.98319e-07 7.98319e-07 7.98319e-07 7.98319e-07 7.98319e-07 7.98319e-07 7.98319e-07 7.98319e-07 7.98319e-07 7.98319e-07 7.98319e-07 7.98319e-07 7.98319e-07 7.98319e-07 7.98319e-07 7.98319e-07 7.98319e-07 7.98319e-07 7.98319e-07 7.98319e-07 7.98319e-07 7.98319e-07 7.98319e-07 7.98319e-07 7.98319e-07 7.98319e-07 7.98319e-07 7.98319e-07 7.98319e-07 7.98319e-07 7.98319e-07 7.98319e-07 7.98319e-07 7.98319e-07 7.98319e-07 7.98319e-07 7.98319e-07 7.98319e-07 7.98319e-07 7.98319e-07 7.98319e-07 7.98319e-07 7.98319e-07 7.98319e-07 7.98319e-07 7.98319e-07 7.98319e-07 7.98319e-07 7.98319e-07 7.98319e-07 7.98319e-07 7.98319e-07 7.98319e-07 7.98319e-07 7.98319e-07 7.98319e-07 7.98319e-07 7.98319e-07 7.98319e-07 7.98319e-07 7.98319e-07 7.98319e-07 7.98319e-07 7.98319e-07 7.98319e-07 7.98319e-07 7.98319e-07 7.98319e-07 7.98319e-07 7.98319e-07 7.98319e-07 7.98319e-07 7.98319e-07 7.98319e-07 7.98319e-07 7.98319e-07 7.98319e-07 7.98319e-07 7.98319e-07 7.98319e-07 7.98319e-07 7.98319e-07 7.98319e-07 7.98319e-07 7.98319e-07 7.98319e-07 7.98319e-07 7.98319e-07 7.98319e-07 7.98319e-07 7.98319e-07 7.98319e-07 7.98319e-07 7.98319e-07 7.98319e-07 7.98319e-07 7.98319e-07 7.98319e-07 7.98319e-07 7.98319e-07 7.98319e-07 7.98319e-07 7.98319e-07 7.98319e-07 7.98319e-07 7.98319e-07 7.98319e-07 7.98319e-07 7.98319e-07 7.98319e-07 7.98319e-07 7.98319e-07 7.98319e-07 7.98319e-07 7.98319e-07 7.98319e-07 7.98319e-07 7.98319e-07 7.98319e-07 7.98319e-07 7.98319e-07 7.98319e-07 7.98319e-07 7.98319e-07 7.98319e-07 7.98319e-07 7.98319e-07;
   (11) 0.481394 9.16567e-07 9.16567e-07 9.16567e-07 9.16567e-07 9.16567e-07 9.16567e-07 9.16567e-07 9.16567e-07 9.16567e-07 9.16567e-07 0.518424 9.16567e-07 9.16567e-07 9.16567e-07 9.16567e-07 9.16567e-07 9.16567e-07 9.16567e-07 9.16567e-07 9.16567e-07 9.16567e-07 9.16567e-07 9.16567e-07 9.16567e-07 9.16567e-07 9.16567e-07 9.16567e-07 9.16567e-07 9.16567e-07 9.16567e-07 9.16567e-07 9.16567e-07 9.16567e-07 9.16567e-07 9.16567e-07 9.16567e-07 9.16567e-07 9.16567e-07 9.16567e-07 9.16567e-07 9.16567e-07 9.16567e-07 9.16567e-07 9.16567e-07 9.16567e-07 9.16567e-07 9.16567e-07 9.16567e-07 9.16567e-07 9.16567e-07 9.16567e-07 9.16567e-07 9.16567e-07 9.16567e-07 9.16567e-07 9.16567e-07 9.16567e-07 9.16567e-07 9.16567e-07 9.16567e-07 9.16567e-07 9.16567e-07 9.16567e-07 9.16567e-07 9.16567e-07 9.16567e-07 9.16567e-07 9.16567e-07 9.16567e-07 9.16567e-07 9.16567e-07 9.16567e-07 9.16567e-07 9.16567e-07 9.16567e-07 9.16567e-07 9.16567e-07 9.16567e-07 9.16567e-07 9.16567e-07 9.16567e-07 9.16567e-07 9.16567e-07 9.16567e-07 9.16567e-07 9.16567e-07 9.16567e-07 9.16567e-07 9.16567e-07 9.16567e-07 9.16567e-07 9.16567e-07 9.16567e-07 9.16567e-07 9.16567e-07 9.16567e-07 9.16567e-07 9.16567e-07 9.16567e-07 9.16567e-07 9.16567e-07 9.16567e-07 9.16567e-07 9.16567e-07 9.16567e-07 9.16567e-07 9.16567e-07 9.16567e-07 9.16567e-07 9.16567e-07 9.16567e-07 9.16567e-07 9.16567e-07 9.16567e-07 9.16567e-07 9.16567e-07 9.16567e-07 9.16567e-07 9.16567e-07 9.16567e-07 9.16567e-07 9.16567e-07 9.16567e-07 9.16567e-07 9.16567e-07 9.16567e-07 9.16567e-07 9.16567e-07 9.16567e-07 9.16567e-07 9.16567e-07 9.16567e-07 9.16567e-07 9.16567e-07 9.16567e-07 9.16567e-07 9.16567e-07 9.16567e-07 9.16567e-07 9.16567e-07 9.16567e-07 9.16567e-07 9.16567e-07 9.16567e-07 9.16567e-07 9.16567e-07 9.16567e-07 9.16567e-07 9.16567e-07 9.16567e-07 9.16567e-07 9.16567e-07 9.16567e-07 9.16567e-07 9.16567e-07 9.16567e-07 9.16567e-07 9.16567e-07 9.16567e-07 9.16567e-07 9.16567e-07 9.16567e-07 9.16567e-07 9.16567e-07 9.16567e-07 9.16567e-07 9.16567e-07 9.16567e-07 9.16567e-07 9.16567e-07 9.16567e-07 9.16567e-07 9.16567e-07 9.16567e-07 9.16567e-07 9.16567e-07 9.16567e-07 9.16567e-07 9.16567e-07 9.16567e-07 9.16567e-07 9.16567e-07 9.16567e-07 9.16567e-07 9.16567e-07 9.16567e-07 9.16567e-07 9.16567e-07 9.16567e-07 9.16567e-07 9.16567e-07 9.16567e-07 9.16567e-07 9.16567e-07 9.16567e-07 9.16567e-07 9.16567e-07 9.16567e-07 9.16567e-07 9.16567e-07;
   (12) 0.961355 9.51813e-07 9.51813e-07 9.51813e-07 9.51813e-07 9.51813e-07 9.51813e-07 9.51813e-07 9.51813e-07 9.51813e-07 9.51813e-07 9.51813e-07 0.0384551 9.51813e-07 9.51813e-07 9.51813e-07 9.51813e-07 9.51813e-07 9.51813e-07 9.51813e-07 9.51813e-07 9.51813e-07 9.51813e-07 9.51813e-07 9.51813e-07 9.51813e-07 9.51813e-07 9.51813e-07 9.51813e-07 9.51813e-07 9.51813e-07 9.51813e-07 9.51813e-07 9.51813e-07 9.51813e-07 9.51813e-07 9.51813e-07 9.51813e-07 9.51813e-07 9.51813e-07 9.51813e-07 9.51813e-07 9.51813e-07 9.51813e-07 9.51813e-07 9.51813e-07 9.51813e-07 9.51813e-07 9.51813e-07 9.51813e-07 9.51813e-07 9.51813e-07 9.51813e-07 9.51813e-07 9.51813e-07 9.51813e-07 9.51813e-07 9.51813e-07 9.51813e-07 9.51813e-07 9.51813e-07 9.51813e-07 9.51813e-07 9.51813e-07 9.51813e-07 9.51813e-07 9.51813e-07 9.51813e-07 9.51813e-07 9.51813e-07 9.51813e-07 9.51813e-07 9.51813e-07 9.51813e-07 9.51813e-07 9.51813e-07 9.51813e-07 9.51813e-07 9.51813e-07 9.51813e-07 9.51813e-07 9.51813e-07 9.51813e-07 9.51813e-07 9.51813e-07 9.51813e-07 9.51813e-07 9.51813e-07 9.51813e-07 9.51813e-07 9.51813e-07 9.51813e-07 9.51813e-07 9.51813e-07 9.51813e-07 9.51813e-07 9.51813e-07 9.51813e-07 9.51813e-07 9.51813e-07 9.51813e-07 9.51813e-07 9.51813e-07 9.51813e-07 9.51813e-07 9.51813e-07 9.51813e-07 9.51813e-07 9.51813e-07 9.51813e-07 9.51813e-07 9.51813e-07 9.51813e-07 9.51813e-07 9.51813e-07 9.51813e-07 9.51813e-07 9.51813e-07 9.51813e-07 9.51813e-07 9.51813e-07 9.51813e-07 9.51813e-07 9.51813e-07 9.51813e-07 9.51813e-07 9.51813e-07 9.51813e-07 9.51813e-07 9.51813e-07 9.51813e-07 9.51813e-07 9.51813e-07 9.51813e-07 9.51813e-07 9.51813e-07 9.51813e-07 9.51813e-07 9.51813e-07 9.51813e-07 9.51813e-07 9.51813e-07 9.51813e-07 9.51813e-07 9.51813e-07 9.51813e-07 9.51813e-07 9.51813e-07 9.51813e-07 9.51813e-07 9.51813e-07 9.51813e-07 9.51813e-07 9.51813e-07 9.51813e-07 9.51813e-07 9.51813e-07 9.51813e-07 9.51813e-07 9.51813e-07 9.51813e-07 9.51813e-07 9.51813e-07 9.51813e-07 9.51813e-07 9.51813e-07 9.51813e-07 9.51813e-07 9.51813e-07 9.51813e-07 9.51813e-07 9.51813e-07 9.51813e-07 9.51813e-07 9.51813e-07 9.51813e-07 9.51813e-07 9.51813e-07 9.51813e-07 9.51813e-07 9.51813e-07 9.51813e-07 9.51813e-07 9.51813e-07 9.51813e-07 9.51813e-07 9.51813e-07 9.51813e-07 9.51813e-07 9.51813e-07 9.51813e-07 9.51813e-07 9.51813e-07 9.51813e-07 9.51813e-07 9.51813e-07 9.51813e-07 9.51813e-07 9.51813e-07 9.51813e-07 9.51813e-07;
   (13) 0.583253 6.87457e-07 6.87457e-07 6.87457e-07 6.87457e-07 6.87457e-07 6.87457e-07 6.87457e-07 6.87457e-07 6.87457e-07 6.87457e-07 6.87457e-07 6.87457e-07 0.41661 6.87457e-07 6.87457e-07 6.87457e-07 6.87457e-07 6.87457e-07 6.87457e-07 6.87457e-07 6.87457e-07 6.87457e-07 6.87457e-07 6.87457e-07 6.87457e-07 6.87457e-07 6.87457e-07 6.87457e-07 6.87457e-07 6.87457e-07 6.87457e-07 6.87457e-07 6.87457e-07 6.87457e-07 6.87457e-07 6.87457e-07 6.87457e-07 6.87457e-07 6.87457e-07 6.87457e-07 6.87457e-07 6.87457e-07 6.87457e-07 6.87457e-07 6.87457e-07 6.87457e-07 6.87457e-07 6.87457e-07 6.87457e-07 6.87457e-07 6.87457e-07 6.87457e-07 6.87457e-07 6.87457e-07 6.87457e-07 6.87457e-07 6.87457e-07 6.87457e-07 6.87457e-07 6.87457e-07 6.87457e-07 6.87457e-07 6.87457e-07 6.87457e-07 6.87457e-07 6.87457e-07 6.87457e-07 6.87457e-07 6.87457e-07 6.87457e-07 6.87457e-07 6.87457e-07 6.87457e-07 6.87457e-07 6.87457e-07 6.87457e-07 6.87457e-07 6.87457e-07 6.87457e-07 6.87457e-07 6.87457e-07 6.87457e-07 6.87457e-07 6.87457e-07 6.87457e-07 6.87457e-07 6.87457e-07 6.87457e-07 6.87457e-07 6.87457e-07 6.87457e-07 6.87457e-07 6.87457e-07 6.87457e-07 6.87457e-07 6.87457e-07 6.87457e-07 6.87457e-07 6.87457e-07 6.87457e-07 6.87457e-07 6.87457e-07 6.87457e-07 6.87457e-07 6.87457e-07 6.87457e-07 6.87457e-07 6.87457e-07 6.87457e-07 6.87457e-07 6.87457e-07 6.87457e-07 6.87457e-07 6.87457e-07 6.87457e-07 6.87457e-07 6.87457e-07 6.87457e-07 6.87457e-07 6.87457e-07 6.87457e-07 6.87457e-07 6.87457e-07 6.87457e-07 6.87457e-07 6.87457e-07 6.87457e-07 6.87457e-07 6.87457e-07 6.87457e-07 6.87457e-07 6.87457e-07 6.87457e-07 6.87457e-07 6.87457e-07 6.87457e-07 6.87457e-07 6.87457e-07 6.87457e-07 6.87457e-07 6.87457e-07 6.87457e-07 6.87457e-07 6.87457e-07 6.87457e-07 6.87457e-07 6.87457e-07 6.87457e-07 6.87457e-07 6.87457e-07 6.87457e-07 6.87457e-07 6.87457e-07 6.87457e-07 6.87457e-07 6.87457e-07 6.87457e-07 6.87457e-07 6.87457e-07 6.87457e-07 6.87457e-07 6.87457e-07 6.87457e-07 6.87457e-07 6.87457e-07 6.87457e-07 6.87457e-07 6.87457e-07 6.87457e-07 6.87457e-07 6.87457e-07 6.87457e-07 6.87457e-07 6.87457e-07 6.87457e-07 6.87457e-07 6.87457e-07 6.87457e-07 6.87457e-07 6.87457e-07 6.87457e-07 6.87457e-07 6.87457e-07 6.87457e-07 6.87457e-07 6.87457e-07 6.87457e-07 6.87457e-07 6.87457e-07 6.87457e-07 6.87457e-07 6.87457e-07 6.87457e-07 6.87457e-07 6.87457e-07 6.87457e-07 6.87457e-07 6.87457e-07 6.87457e-07 6.87457e-07;
   (14) 0.928407 8.83838e-07 8.83838e-07 8.83838e-07 8.83838e-07 8.83838e-07 8.83838e-07 8.83838e-07 8.83838e-07 8.83838e-07 8.83838e-07 8.83838e-07 8.83838e-07 8.83838e-07 0.0714168 8.83838e-07 8.83838e-07 8.83838e-07 8.83838e-07 8.83838e-07 8.83838e-07 8.83838e-07 8.83838e-07 8.83838e-07 8.83838e-07 8.83838e-07 8.83838e-07 8.83838e-07 8.83838e-07 8.83838e-07 8.83838e-07 8.83838e-07 8.83838e-07 8.83838e-07 8.83838e-07 8.83838e-07 8.83838e-07 8.83838e-07 8.83838e-07 8.83838e-07 8.83838e-07 8.83838e-07 8.83838e-07 8.83838e-07 8.83838e-07 8.83838e-07 8.83838e-07 8.83838e-07 8.83838e-07 8.83838e-07 8.83838e-07 8.83838e-07 8.83838e-07 8.83838e-07 8.83838e-07 8.83838e-07 8.83838e-07 8.83838e-07 8.83838e-07 8.83838e-07 8.83838e-07 8.83838e-07 8.83838e-07 8.83838e-07 8.83838e-07 8.83838e-07 8.83838e-07 8.83838e-07 8.83838e-07 8.83838e-07 8.83838e-07 8.83838e-07 8.83838e-07 8.83838e-07 8.83838e-07 8.83838e-07 8.83838e-07 8.83838e-07 8.83838e-07 8.83838e-07 8.83838e-07 8.83838e-07 8.83838e-07 8.83838e-07 8.83838e-07 8.83838e-07 8.83838e-07 8.83838e-07 8.83838e-07 8.83838e-07 8.83838e-07 8.83838e-07 8.83838e-07 8.83838e-07 8.83838e-07 8.83838e-07 8.83838e-07 8.83838e-07 8.83838e-07 8.83838e-07 8.83838e-07 8.83838e-07 8.83838e-07 8.83838e-07 8.83838e-07 8.83838e-07 8.83838e-07 8.83838e-07 8.83838e-07 8.83838e-07 8.83838e-07 8.83838e-07 8.83838e-07 8.83838e-07 8.83838e-07 8.83838e-07 8.83838e-07 8.83838e-07 8.83838e-07 8.83838e-07 8.83838e-07 8.83838e-07 8.83838e-07 8.83838e-07 8.83838e-07 8.83838e-07 8.83838e-07 8.83838e-07 8.83838e-07 8.83838e-07 8.83838e-07 8.83838e-07 8.83838e-07 8.83838e-07 8.83838e-07 8.83838e-07 8.83838e-07 8.83838e-07 8.83838e-07 8.83838e-07 8.83838e-07 8.83838e-07 8.83838e-07 8.83838e-07 8.83838e-07 8.83838e-07 8.83838e-07 8.83838e-07 8.83838e-07 8.83838e-07 8.83838e-07 8.83838e-07 8.83838e-07 8.83838e-07 8.83838e-07 8.83838e-07 8.83838e-07 8.83838e-07 8.83838e-07 8.83838e-07 8.83838e-07 8.83838e-07 8.83838e-07 8.83838e-07 8.83838e-07 8.83838e-07 8.83838e-07 8.83838e-07 8.83838e-07 8.83838e-07 8.83838e-07 8.83838e-07 8.83838e-07 8.83838e-07 8.83838e-07 8.83838e-07 8.83838e-07 8.83838e-07 8.83838e-07 8.83838e-07 8.83838e-07 8.83838e-07 8.83838e-07 8.83838e-07 8.83838e-07 8.83838e-07 8.83838e-07 8.83838e-07 8.83838e-07 8.83838e-07 8.83838e-07 8.83838e-07 8.83838e-07 8.83838e-07 8.83838e-07 8.83838e-07 8.83838e-07 8.83838e-07 8.83838e-07 8.83838e-07 8.83838e-07;
   (15) 0.652034 1.07594e-06 1.07594e-06 1.07594e-06 1.07594e-06 1.07594e-06 1.07594e-06 1.07594e-06 1.07594e-06 1.07594e-06 1.07594e-06 1.07594e-06 1.07594e-06 1.07594e-06 1.07594e-06 0.347752 1.07594e-06 1.07594e-06 1.07594e-06 1.07594e-06 1.07594e-06 1.07594e-06 1.07594e-06 1.07594e-06 1.07594e-06 1.07594e-06 1.07594e-06 1.07594e-06 1.07594e-06 1.07594e-06 1.07594e-06 1.07594e-06 1.07594e-06 1.07594e-06 1.07594e-06 1.07594e-06 1.07594e-06 1.07594e-06 1.07594e-06 1.07594e-06 1.07594e-06 1.07594e-06 1.07594e-06 1.07594e-06 1.07594e-06 1.07594e-06 1.07594e-06 1.07594e-06 1.07594e-06 1.07594e-06 1.07594e-06 1.07594e-06 1.07594e-06 1.07594e-06 1.07594e-06 1.07594e-06 1.07594e-06 1.07594e-06 1.07594e-06 1.07594e-06 1.07594e-06 1.07594e-06 1.07594e-06 1.07594e-06 1.07594e-06 1.07594e-06 1.07594e-06 1.07594e-06 1.07594e-06 1.07594e-06 1.07594e-06 1.07594e-06 1.07594e-06 1.07594e-06 1.07594e-06 1.07594e-06 1.07594e-06 1.07594e-06 1.07594e-06 1.07594e-06 1.07594e-06 1.07594e-06 1.07594e-06 1.07594e-06 1.07594e-06 1.07594e-06 1.07594e-06 1.07594e-06 1.07594e-06 1.07594e-06 1.07594e-06 1.07594e-06 1.07594e-06 1.07594e-06 1.07594e-06 1.07594e-06 1.07594e-06 1.07594e-06 1.07594e-06 1.07594e-06 1.07594e-06 1.07594e-06 1.07594e-06 1.07594e-06 1.07594e-06 1.07594e-06 1.07594e-06 1.07594e-06 1.07594e-06 1.07594e-06 1.07594e-06 1.07594e-06 1.07594e-06 1.07594e-06 1.07594e-06 1.07594e-06 1.07594e-06 1.07594e-06 1.07594e-06 1.07594e-06 1.07594e-06 1.07594e-06 1.07594e-06 1.07594e-06 1.07594e-06 1.07594e-06 1.07594e-06 1.07594e-06 1.07594e-06 1.07594e-06 1.07594e-06 1.07594e-06 1.07594e-06 1.07594e-06 1.07594e-06 1.07594e-06 1.07594e-06 1.07594e-06 1.07594e-06 1.07594e-06 1.07594e-06 1.07594e-06 1.07594e-06 1.07594e-06 1.07594e-06 1.07594e-06 1.07594e-06 1.07594e-06 1.07594e-06 1.07594e-06 1.07594e-06 1.07594e-06 1.07594e-06 1.07594e-06 1.07594e-06 1.07594e-06 1.07594e-06 1.07594e-06 1.07594e-06 1.07594e-06 1.07594e-06 1.07594e-06 1.07594e-06 1.07594e-06 1.07594e-06 1.07594e-06 1.07594e-06 1.07594e-06 1.07594e-06 1.07594e-06 1.07594e-06 1.07594e-06 1.07594e-06 1.07594e-06 1.07594e-06 1.07594e-06 1.07594e-06 1.07594e-06 1.07594e-06 1.07594e-06 1.07594e-06 1.07594e-06 1.07594e-06 1.07594e-06 1.07594e-06 1.07594e-06 1.07594e-06 1.07594e-06 1.07594e-06 1.07594e-06 1.07594e-06 1.07594e-06 1.07594e-06 1.07594e-06 1.07594e-06 1.07594e-06 1.07594e-06 1.07594e-06 1.07594e-06 1.07594e-06 1.07594e-06;
   (16) 0.624871 1.03111e-06 1.03111e-06 1.03111e-06 1.03111e-06 1.03111e-06 1.03111e-06 1.03111e-06 1.03111e-06 1.03111e-06 1.03111e-06 1.03111e-06 1.03111e-06 1.03111e-06 1.03111e-06 1.03111e-06 0.374923 1.03111e-06 1.03111e-06 1.03111e-06 1.03111e-06 1.03111e-06 1.03111e-06 1.03111e-06 1.03111e-06 1.03111e-06 1.03111e-06 1.03111e-06 1.03111e-06 1.03111e-06 1.03111e-06 1.03111e-06 1.03111e-06 1.03111e-06 1.03111e-06 1.03111e-06 1.03111e-06 1.03111e-06 1.03111e-06 1.03111e-06 1.03111e-06 1.03111e-06 1.03111e-06 1.03111e-06 1.03111e-06 1.03111e-06 1.03111e-06 1.03111e-06 1.03111e-06 1.03111e-06 1.03111e-06 1.03111e-06 1.03111e-06 1.03111e-06 1.03111e-06 1.03111e-06 1.03111e-06 1.03111e-06 1.03111e-06 1.03111e-06 1.03111e-06 1.03111e-06 1.03111e-06 1.03111e-06 1.03111e-06 1.03111e-06 1.03111e-06 1.03111e-06 1.03111e-06 1.03111e-06 1.03111e-06 1.03111e-06 1.03111e-06 1.03111e-06 1.03111e-06 1.03111e-06 1.03111e-06 1.03111e-06 1.03111e-06 1.03111e-06 1.03111e-06 1.03111e-06 1.03111e-06 1.03111e-06 1.03111e-06 1.03111e-06 1.03111e-06 1.03111e-06 1.03111e-06 1.03111e-06 1.03111e-06 1.03111e-06 1.03111e-06 1.03111e-06 1.03111e-06 1.03111e-06 1.03111e-06 1.03111e-06 1.03111e-06 1.03111e-06 1.03111e-06 1.03111e-06 1.03111e-06 1.03111e-06 1.03111e-06 1.03111e-06 1.03111e-06 1.03111e-06 1.03111e-06 1.03111e-06 1.03111e-06 1.03111e-06 1.03111e-06 1.03111e-06 1.03111e-06 1.03111e-06 1.03111e-06 1.03111e-06 1.03111e-06 1.03111e-06 1.03111e-06 1.03111e-06 1.03111e-06 1.03111e-06 1.03111e-06 1.03111e-06 1.03111e-06 1.03111e-06 1.03111e-06 1.03111e-06 1.03111e-06 1.03111e-06 1.03111e-06 1.03111e-06 1.03111e-06 1.03111e-06 1.03111e-06 1.03111e-06 1.03111e-06 1.03111e-06 1.03111e-06 1.03111e-06 1.03111e-06 1.03111e-06 1.03111e-06 1.03111e-06 1.03111e-06 1.03111e-06 1.03111e-06 1.03111e-06 1.03111e-06 1.03111e-06 1.03111e-06 1.03111e-06 1.03111e-06 1.03111e-06 1.03111e-06 1.03111e-06 1.03111e-06 1.03111e-06 1.03111e-06 1.03111e-06 1.03111e-06 1.03111e-06 1.03111e-06 1.03111e-06 1.03111e-06 1.03111e-06 1.03111e-06 1.03111e-06 1.03111e-06 1.03111e-06 1.03111e-06 1.03111e-06 1.03111e-06 1.03111e-06 1.03111e-06 1.03111e-06 1.03111e-06 1.03111e-06 1.03111e-06 1.03111e-06 1.03111e-06 1.03111e-06 1.03111e-06 1.03111e-06 1.03111e-06 1.03111e-06 1.03111e-06 1.03111e-06 1.03111e-06 1.03111e-06 1.03111e-06 1.03111e-06 1.03111e-06 1.03111e-06 1.03111e-06 1.03111e-06 1.03111e-06 1.03111e-06 1.03111e-06;
   (17) 0.799842 9.89878e-07 9.89878e-07 9.89878e-07 9.89878e-07 9.89878e-07 9.89878e-07 9.89878e-07 9.89878e-07 9.89878e-07 9.89878e-07 9.89878e-07 9.89878e-07 9.89878e-07 9.89878e-07 9.89878e-07 9.89878e-07 0.199961 9.89878e-07 9.89878e-07 9.89878e-07 9.89878e-07 9.89878e-07 9.89878e-07 9.89878e-07 9.89878e-07 9.89878e-07 9.89878e-07 9.89878e-07 9.89878e-07 9.89878e-07 9.89878e-07 9.89878e-07 9.89878e-07 9.89878e-07 9.89878e-07 9.89878e-07 9.89878e-07 9.89878e-07 9.89878e-07 9.89878e-07 9.89878e-07 9.89878e-07 9.89878e-07 9.89878e-07 9.89878e-07 9.89878e-07 9.89878e-07 9.89878e-07 9.89878e-07 9.89878e-07 9.89878e-07 9.89878e-07 9.89878e-07 9.89878e-07 9.89878e-07 9.89878e-07 9.89878e-07 9.89878e-07 9.89878e-07 9.89878e-07 9.89878e-07 9.89878e-07 9.89878e-07 9.89878e-07 9.89878e-07 9.89878e-07 9.89878e-07 9.89878e-07 9.89878e-07 9.89878e-07 9.89878e-07 9.89878e-07 9.89878e-07 9.89878e-07 9.89878e-07 9.89878e-07 9.89878e-07 9.89878e-07 9.89878e-07 9.89878e-07 9.89878e-07 9.89878e-07 9.89878e-07 9.89878e-07 9.89878e-07 9.89878e-07 9.89878e-07 9.89878e-07 9.89878e-07 9.89878e-07 9.89878e-07 9.89878e-07 9.89878e-07 9.89878e-07 9.89878e-07 9.89878e-07 9.89878e-07 9.89878e-07 9.89878e-07 9.89878e-07 9.89878e-07 9.89878e-07 9.89878e-07 9.89878e-07 9.89878e-07 9.89878e-07 9.89878e-07 9.89878e-07 9.89878e-07 9.89878e-07 9.89878e-07 9.89878e-07 9.89878e-07 9.89878e-07 9.89878e-07 9.89878e-07 9.89878e-07 9.89878e-07 9.89878e-07 9.89878e-07 9.89878e-07 9.89878e-07 9.89878e-07 9.89878e-07 9.89878e-07 9.89878e-07 9.89878e-07 9.89878e-07 9.89878e-07 9.89878e-07 9.89878e-07 9.89878e-07 9.89878e-07 9.89878e-07 9.89878e-07 9.89878e-07 9.89878e-07 9.89878e-07 9.89878e-07 9.89878e-07 9.89878e-07 9.89878e-07 9.89878e-07 9.89878e-07 9.89878e-07 9.89878e-07 9.89878e-07 9.89878e-07 9.89878e-07 9.89878e-07 9.89878e-07 9.89878e-07 9.89878e-07 9.89878e-07 9.89878e-07 9.89878e-07 9.89878e-07 9.89878e-07 9.89878e-07 9.89878e-07 9.89878e-07 9.89878e-07 9.89878e-07 9.89878e-07 9.89878e-07 9.89878e-07 9.89878e-07 9.89878e-07 9.89878e-07 9.89878e-07 9.89878e-07 9.89878e-07 9.89878e-07 9.89878e-07 9.89878e-07 9.89878e-07 9.89878e-07 9.89878e-07 9.89878e-07 9.89878e-07 9.89878e-07 9.89878e-07 9.89878e-07 9.89878e-07 9.89878e-07 9.89878e-07 9.89878e-07 9.89878e-07 9.89878e-07 9.89878e-07 9.89878e-07 9.89878e-07 9.89878e-07 9.89878e-07 9.89878e-07 9.89878e-07 9.89878e-07 9.89878e-07 9.89878e-07 9.89878e-07;
   (18) 0.615268 9.51813e-07 9.51813e-07 9.51813e-07 9.51813e-07 9.51813e-07 9.51813e-07 9.51813e-07 9.51813e-07 9.51813e-07 9.51813e-07 9.51813e-07 9.51813e-07 9.51813e-07 9.51813e-07 9.51813e-07 9.51813e-07 9.51813e-07 0.384543 9.51813e-07 9.51813e-07 9.51813e-07 9.51813e-07 9.51813e-07 9.51813e-07 9.51813e-07 9.51813e-07 9.51813e-07 9.51813e-07 9.51813e-07 9.51813e-07 9.51813e-07 9.51813e-07 9.51813e-07 9.51813e-07 9.51813e-07 9.51813e-07 9.51813e-07 9.51813e-07 9.51813e-07 9.51813e-07 9.51813e-07 9.51813e-07 9.51813e-07 9.51813e-07 9.51813e-07 9.51813e-07 9.51813e-07 9.51813e-07 9.51813e-07 9.51813e-07 9.51813e-07 9.51813e-07 9.51813e-07 9.51813e-07 9.51813e-07 9.51813e-07 9.51813e-07 9.51813e-07 9.51813e-07 9.51813e-07 9.51813e-07 9.51813e-07 9.51813e-07 9.51813e-07 9.51813e-07 9.51813e-07 9.51813e-07 9.51813e-07 9.51813e-07 9.51813e-07 9.51813e-07 9.51813e-07 9.51813e-07 9.51813e-07 9.51813e-07 9.51813e-07 9.51813e-07 9.51813e-07 9.51813e-07 9.51813e-07 9.51813e-07 9.51813e-07 9.51813e-07 9.51813e-07 9.51813e-07 9.51813e-07 9.51813e-07 9.51813e-07 9.51813e-07 9.51813e-07 9.51813e-07 9.51813e-07 9.51813e-07 9.51813e-07 9.51813e-07 9.51813e-07 9.51813e-07 9.51813e-07 9.51813e-07 9.51813e-07 9.51813e-07 9.51813e-07 9.51813e-07 9.51813e-07 9.51813e-07 9.51813e-07 9.51813e-07 9.51813e-07 9.51813e-07 9.51813e-07 9.51813e-07 9.51813e-07 9.51813e-07 9.51813e-07 9.51813e-07 9.51813e-07 9.51813e-07 9.51813e-07 9.51813e-07 9.51813e-07 9.51813e-07 9.51813e-07 9.51813e-07 9.51813e-07 9.51813e-07 9.51813e-07 9.51813e-07 9.51813e-07 9.51813e-07 9.51813e-07 9.51813e-07 9.51813e-07 9.51813e-07 9.51813e-07 9.51813e-07 9.51813e-07 9.51813e-07 9.51813e-07 9.51813e-07 9.51813e-07 9.51813e-07 9.51813e-07 9.51813e-07 9.51813e-07 9.51813e-07 9.51813e-07 9.51813e-07 9.51813e-07 9.51813e-07 9.51813e-07 9.51813e-07 9.51813e-07 9.51813e-07 9.51813e-07 9.51813e-07 9.51813e-07 9.51813e-07 9.51813e-07 9.51813e-07 9.51813e-07 9.51813e-07 9.51813e-07 9.51813e-07 9.51813e-07 9.51813e-07 9.51813e-07 9.51813e-07 9.51813e-07 9.51813e-07 9.51813e-07 9.51813e-07 9.51813e-07 9.51813e-07 9.51813e-07 9.51813e-07 9.51813e-07 9.51813e-07 9.51813e-07 9.51813e-07 9.51813e-07 9.51813e-07 9.51813e-07 9.51813e-07 9.51813e-07 9.51813e-07 9.51813e-07 9.51813e-07 9.51813e-07 9.51813e-07 9.51813e-07 9.51813e-07 9.51813e-07 9.51813e-07 9.51813e-07 9.51813e-07 9.51813e-07 9.51813e-07 9.51813e-07 9.51813e-07 9.51813e-07;
   (19) 0.71416 8.83838e-07 8.83838e-07 8.83838e-07 8.83838e-07 8.83838e-07 8.83838e-07 8.83838e-07 8.83838e-07 8.83838e-07 8.83838e-07 8.83838e-07 8.83838e-07 8.83838e-07 8.83838e-07 8.83838e-07 8.83838e-07 8.83838e-07 8.83838e-07 0.285664 8.83838e-07 8.83838e-07 8.83838e-07 8.83838e-07 8.83838e-07 8.83838e-07 8.83838e-07 8.83838e-07 8.83838e-07 8.83838e-07 8.83838e-07 8.83838e-07 8.83838e-07 8.83838e-07 8.83838e-07 8.83838e-07 8.83838e-07 8.83838e-07 8.83838e-07 8.83838e-07 8.83838e-07 8.83838e-07 8.83838e-07 8.83838e-07 8.83838e-07 8.83838e-07 8.83838e-07 8.83838e-07 8.83838e-07 8.83838e-07 8.83838e-07 8.83838e-07 8.83838e-07 8.83838e-07 8.83838e-07 8.83838e-07 8.83838e-07 8.83838e-07 8.83838e-07 8.83838e-07 8.83838e-07 8.83838e-07 8.83838e-07 8.83838e-07 8.83838e-07 8.83838e-07 8.83838e-07 8.83838e-07 8.83838e-07 8.83838e-07 8.83838e-07 8.83838e-07 8.83838e-07 8.83838e-07 8.83838e-07 8.83838e-07 8.83838e-07 8.83838e-07 8.83838e-07 8.83838e-07 8.83838e-07 8.83838e-07 8.83838e-07 8.83838e-07 8.83838e-07 8.83838e-07 8.83838e-07 8.83838e-07 8.83838e-07 8.83838e-07 8.83838e-07 8.83838e-07 8.83838e-07 8.83838e-07 8.83838e-07 8.83838e-07 8.83838e-07 8.83838e-07 8.83838e-07 8.83838e-07 8.83838e-07 8.83838e-07 8.83838e-07 8.83838e-07 8.83838e-07 8.83838e-07 8.83838e-07 8.83838e-07 8.83838e-07 8.83838e-07 8.83838e-07 8.83838e-07 8.83838e-07 8.83838e-07 8.83838e-07 8.83838e-07 8.83838e-07 8.83838e-07 8.83838e-07 8.83838e-07 8.83838e-07 8.83838e-07 8.83838e-07 8.83838e-07 8.83838e-07 8.83838e-07 8.83838e-07 8.83838e-07 8.83838e-07 8.83838e-07 8.83838e-07 8.83838e-07 8.83838e-07 8.83838e-07 8.83838e-07 8.83838e-07 8.83838e-07 8.83838e-07 8.83838e-07 8.83838e-07 8.83838e-07 8.83838e-07 8.83838e-07 8.83838e-07 8.83838e-07 8.83838e-07 8.83838e-07 8.83838e-07 8.83838e-07 8.83838e-07 8.83838e-07 8.83838e-07 8.83838e-07 8.83838e-07 8.83838e-07 8.83838e-07 8.83838e-07 8.83838e-07 8.83838e-07 8.83838e-07 8.83838e-07 8.83838e-07 8.83838e-07 8.83838e-07 8.83838e-07 8.83838e-07 8.83838e-07 8.83838e-07 8.83838e-07 8.83838e-07 8.83838e-07 8.83838e-07 8.83838e-07 8.83838e-07 8.83838e-07 8.83838e-07 8.83838e-07 8.83838e-07 8.83838e-07 8.83838e-07 8.83838e-07 8.83838e-07 8.83838e-07 8.83838e-07 8.83838e-07 8.83838e-07 8.83838e-07 8.83838e-07 8.83838e-07 8.83838e-07 8.83838e-07 8.83838e-07 8.83838e-07 8.83838e-07 8.83838e-07 8.83838e-07 8.83838e-07 8.83838e-07 8.83838e-07 8.83838e-07 8.83838e-07;
   (20) 0.848358 7.49943e-07 7.49943e-07 7.49943e-07 7.49943e-07 7.49943e-07 7.49943e-07 7.49943e-07 7.49943e-07 7.49943e-07 7.49943e-07 7.49943e-07 7.49943e-07 7.49943e-07 7.49943e-07 7.49943e-07 7.49943e-07 7.49943e-07 7.49943e-07 7.49943e-07 0.151493 7.49943e-07 7.49943e-07 7.49943e-07 7.49943e-07 7.49943e-07 7.49943e-07 7.49943e-07 7.49943e-07 7.49943e-07 7.49943e-07 7.49943e-07 7.49943e-07 7.49943e-07 7.49943e-07 7.49943e-07 7.49943e-07 7.49943e-07 7.49943e-07 7.49943e-07 7.49943e-07 7.49943e-07 7.49943e-07 7.49943e-07 7.49943e-07 7.49943e-07 7.49943e-07 7.49943e-07 7.49943e-07 7.49943e-07 7.49943e-07 7.49943e-07 7.49943e-07 7.49943e-07 7.49943e-07 7.49943e-07 7.49943e-07 7.49943e-07 7.49943e-07 7.49943e-07 7.49943e-07 7.49943e-07 7.49943e-07 7.49943e-07 7.49943e-07 7.49943e-07 7.49943e-07 7.49943e-07 7.49943e-07 7.49943e-07 7.49943e-07 7.49943e-07 7.49943e-07 7.49943e-07 7.49943e-07 7.49943e-07 7.49943e-07 7.49943e-07 7.49943e-07 7.49943e-07 7.49943e-07 7.49943e-07 7.49943e-07 7.49943e-07 7.49943e-07 7.49943e-07 7.49943e-07 7.49943e-07 7.49943e-07 7.49943e-07 7.49943e-07 7.49943e-07 7.49943e-07 7.49943e-07 7.49943e-07 7.49943e-07 7.49943e-07 7.49943e-07 7.49943e-07 7.49943e-07 7.49943e-07 7.49943e-07 7.49943e-07 7.49943e-07 7.49943e-07 7.49943e-07 7.49943e-07 7.49943e-07 7.49943e-07 7.49943e-07 7.49943e-07 7.49943e-07 7.49943e-07 7.49943e-07 7.49943e-07 7.49943e-07 7.49943e-07 7.49943e-07 7.49943e-07 7.49943e-07 7.49943e-07 7.49943e-07 7.49943e-07 7.49943e-07 7.49943e-07 7.49943e-07 7.49943e-07 7.49943e-07 7.49943e-07 7.49943e-07 7.49943e-07 7.49943e-07 7.49943e-07 7.49943e-07 7.49943e-07 7.49943e-07 7.49943e-07 7.49943e-07 7.49943e-07 7.49943e-07 7.49943e-07 7.49943e-07 7.49943e-07 7.49943e-07 7.49943e-07 7.49943e-07 7.49943e-07 7.49943e-07 7.49943e-07 7.49943e-07 7.49943e-07 7.49943e-07 7.49943e-07 7.49943e-07 7.49943e-07 7.49943e-07 7.49943e-07 7.49943e-07 7.49943e-07 7.49943e-07 7.49943e-07 7.49943e-07 7.49943e-07 7.49943e-07 7.49943e-07 7.49943e-07 7.49943e-07 7.49943e-07 7.49943e-07 7.49943e-07 7.49943e-07 7.49943e-07 7.49943e-07 7.49943e-07 7.49943e-07 7.49943e-07 7.49943e-07 7.49943e-07 7.49943e-07 7.49943e-07 7.49943e-07 7.49943e-07 7.49943e-07 7.49943e-07 7.49943e-07 7.49943e-07 7.49943e-07 7.49943e-07 7.49943e-07 7.49943e-07 7.49943e-07 7.49943e-07 7.49943e-07 7.49943e-07 7.49943e-07 7.49943e-07 7.49943e-07 7.49943e-07 7.49943e-07 7.49943e-07 7.49943e-07;
   (21) 0.0769139 6.34582e-07 6.34582e-07 6.34582e-07 6.34582e-07 6.34582e-07 6.34582e-07 6.34582e-07 6.34582e-07 6.34582e-07 6.34582e-07 6.34582e-07 6.34582e-07 6.34582e-07 6.34582e-07 6.34582e-07 6.34582e-07 6.34582e-07 6.34582e-07 6.34582e-07 6.34582e-07 0.92296 6.34582e-07 6.34582e-07 6.34582e-07 6.34582e-07 6.34582e-07 6.34582e-07 6.34582e-07 6.34582e-07 6.34582e-07 6.34582e-07 6.34582e-07 6.34582e-07 6.34582e-07 6.34582e-07 6.34582e-07 6.34582e-07 6.34582e-07 6.34582e-07 6.34582e-07 6.34582e-07 6.34582e-07 6.34582e-07 6.34582e-07 6.34582e-07 6.34582e-07 6.34582e-07 6.34582e-07 6.34582e-07 6.34582e-07 6.34582e-07 6.34582e-07 6.34582e-07 6.34582e-07 6.34582e-07 6.34582e-07 6.34582e-07 6.34582e-07 6.34582e-07 6.34582e-07 6.34582e-07 6.34582e-07 6.34582e-07 6.34582e-07 6.34582e-07 6.34582e-07 6.34582e-07 6.34582e-07 6.34582e-07 6.34582e-07 6.34582e-07 6.34582e-07 6.34582e-07 6.34582e-07 6.34582e-07 6.34582e-07 6.34582e-07 6.34582e-07 6.34582e-07 6.34582e-07 6.34582e-07 6.34582e-07 6.34582e-07 6.34582e-07 6.34582e-07 6.34582e-07 6.34582e-07 6.34582e-07 6.34582e-07 6.34582e-07 6.34582e-07 6.34582e-07 6.34582e-07 6.34582e-07 6.34582e-07 6.34582e-07 6.34582e-07 6.34582e-07 6.34582e-07 6.34582e-07 6.34582e-07 6.34582e-07 6.34582e-07 6.34582e-07 6.34582e-07 6.34582e-07 6.34582e-07 6.34582e-07 6.34582e-07 6.34582e-07 6.34582e-07 6.34582e-07 6.34582e-07 6.34582e-07 6.34582e-07 6.34582e-07 6.34582e-07 6.34582e-07 6.34582e-07 6.34582e-07 6.34582e-07 6.34582e-07 6.34582e-07 6.34582e-07 6.34582e-07 6.34582e-07 6.34582e-07 6.34582e-07 6.34582e-07 6.34582e-07 6.34582e-07 6.34582e-07 6.34582e-07 6.34582e-07 6.34582e-07 6.34582e-07 6.34582e-07 6.34582e-07 6.34582e-07 6.34582e-07 6.34582e-07 6.34582e-07 6.34582e-07 6.34582e-07 6.34582e-07 6.34582e-07 6.34582e-07 6.34582e-07 6.34582e-07 6.34582e-07 6.34582e-07 6.34582e-07 6.34582e-07 6.34582e-07 6.34582e-07 6.34582e-07 6.34582e-07 6.34582e-07 6.34582e-07 6.34582e-07 6.34582e-07 6.34582e-07 6.34582e-07 6.34582e-07 6.34582e-07 6.34582e-07 6.34582e-07 6.34582e-07 6.34582e-07 6.34582e-07 6.34582e-07 6.34582e-07 6.34582e-07 6.34582e-07 6.34582e-07 6.34582e-07 6.34582e-07 6.34582e-07 6.34582e-07 6.34582e-07 6.34582e-07 6.34582e-07 6.34582e-07 6.34582e-07 6.34582e-07 6.34582e-07 6.34582e-07 6.34582e-07 6.34582e-07 6.34582e-07 6.34582e-07 6.34582e-07 6.34582e-07 6.34582e-07 6.34582e-07 6.34582e-07 6.34582e-07 6.34582e-07 6.34582e-07 6.34582e-07;
   (22) 0.366607 8.24925e-07 8.24925e-07 8.24925e-07 8.24925e-07 8.24925e-07 8.24925e-07 8.24925e-07 8.24925e-07 8.24925e-07 8.24925e-07 8.24925e-07 8.24925e-07 8.24925e-07 8.24925e-07 8.24925e-07 8.24925e-07 8.24925e-07 8.24925e-07 8.24925e-07 8.24925e-07 8.24925e-07 0.633229 8.24925e-07 8.24925e-07 8.24925e-07 8.24925e-07 8.24925e-07 8.24925e-07 8.24925e-07 8.24925e-07 8.24925e-07 8.24925e-07 8.24925e-07 8.24925e-07 8.24925e-07 8.24925e-07 8.24925e-07 8.24925e-07 8.24925e-07 8.24925e-07 8.24925e-07 8.24925e-07 8.24925e-07 8.24925e-07 8.24925e-07 8.24925e-07 8.24925e-07 8.24925e-07 8.24925e-07 8.24925e-07 8.24925e-07 8.24925e-07 8.24925e-07 8.24925e-07 8.24925e-07 8.24925e-07 8.24925e-07 8.24925e-07 8.24925e-07 8.24925e-07 8.24925e-07 8.24925e-07 8.24925e-07 8.24925e-07 8.24925e-07 8.24925e-07 8.24925e-07 8.24925e-07 8.24925e-07 8.24925e-07 8.24925e-07 8.24925e-07 8.24925e-07 8.24925e-07 8.24925e-07 8.24925e-07 8.24925e-07 8.24925e-07 8.24925e-07 8.24925e-07 8.24925e-07 8.24925e-07 8.24925e-07 8.24925e-07 8.24925e-07 8.24925e-07 8.24925e-07 8.24925e-07 8.24925e-07 8.24925e-07 8.24925e-07 8.24925e-07 8.24925e-07 8.24925e-07 8.24925e-07 8.24925e-07 8.24925e-07 8.24925e-07 8.24925e-07 8.24925e-07 8.24925e-07 8.24925e-07 8.24925e-07 8.24925e-07 8.24925e-07 8.24925e-07 8.24925e-07 8.24925e-07 8.24925e-07 8.24925e-07 8.24925e-07 8.24925e-07 8.24925e-07 8.24925e-07 8.24925e-07 8.24925e-07 8.24925e-07 8.24925e-07 8.24925e-07 8.24925e-07 8.24925e-07 8.24925e-07 8.24925e-07 8.24925e-07 8.24925e-07 8.24925e-07 8.24925e-07 8.24925e-07 8.24925e-07 8.24925e-07 8.24925e-07 8.24925e-07 8.24925e-07 8.24925e-07 8.24925e-07 8.24925e-07 8.24925e-07 8.24925e-07 8.24925e-07 8.24925e-07 8.24925e-07 8.24925e-07 8.24925e-07 8.24925e-07 8.24925e-07 8.24925e-07 8.24925e-07 8.24925e-07 8.24925e-07 8.24925e-07 8.24925e-07 8.24925e-07 8.24925e-07 8.24925e-07 8.24925e-07 8.24925e-07 8.24925e-07 8.24925e-07 8.24925e-07 8.24925e-07 8.24925e-07 8.24925e-07 8.24925e-07 8.24925e-07 8.24925e-07 8.24925e-07 8.24925e-07 8.24925e-07 8.24925e-07 8.24925e-07 8.24925e-07 8.24925e-07 8.24925e-07 8.24925e-07 8.24925e-07 8.24925e-07 8.24925e-07 8.24925e-07 8.24925e-07 8.24925e-07 8.24925e-07 8.24925e-07 8.24925e-07 8.24925e-07 8.24925e-07 8.24925e-07 8.24925e-07 8.24925e-07 8.24925e-07 8.24925e-07 8.24925e-07 8.24925e-07 8.24925e-07 8.24925e-07 8.24925e-07 8.24925e-07 8.24925e-07 8.24925e-07 8.24925e-07 8.24925e-07;
   (23) 0.77132 7.07096e-07 7.07096e-07 7.07096e-07 7.07096e-07 7.07096e-07 7.07096e-07 7.07096e-07 7.07096e-07 7.07096e-07 7.07096e-07 7.07096e-07 7.07096e-07 7.07096e-07 7.07096e-07 7.07096e-07 7.07096e-07 7.07096e-07 7.07096e-07 7.07096e-07 7.07096e-07 7.07096e-07 7.07096e-07 0.22854 7.07096e-07 7.07096e-07 7.07096e-07 7.07096e-07 7.07096e-07 7.07096e-07 7.07096e-07 7.07096e-07 7.07096e-07 7.07096e-07 7.07096e-07 7.07096e-07 7.07096e-07 7.07096e-07 7.07096e-07 7.07096e-07 7.07096e-07 7.07096e-07 7.07096e-07 7.07096e-07 7.07096e-07 7.07096e-07 7.07096e-07 7.07096e-07 7.07096e-07 7.07096e-07 7.07096e-07 7.07096e-07 7.07096e-07 7.07096e-07 7.07096e-07 7.07096e-07 7.07096e-07 7.07096e-07 7.07096e-07 7.07096e-07 7.07096e-07 7.07096e-07 7.07096e-07 7.07096e-07 7.07096e-07 7.07096e-07 7.07096e-07 7.07096e-07 7.07096e-07 7.07096e-07 7.07096e-07 7.07096e-07 7.07096e-07 7.07096e-07 7.07096e-07 7.07096e-07 7.07096e-07 7.07096e-07 7.07096e-07 7.07096e-07 7.07096e-07 7.07096e-07 7.07096e-07 7.07096e-07 7.07096e-07 7.07096e-07 7.07096e-07 7.07096e-07 7.07096e-07 7.07096e-07 7.07096e-07 7.07096e-07 7.07096e-07 7.07096e-07 7.07096e-07 7.07096e-07 7.07096e-07 7.07096e-07 7.07096e-07 7.07096e-07 7.07096e-07 7.07096e-07 7.07096e-07 7.07096e-07 7.07096e-07 7.07096e-07 7.07096e-07 7.07096e-07 7.07096e-07 7.07096e-07 7.07096e-07 7.07096e-07 7.07096e-07 7.07096e-07 7.07096e-07 7.07096e-07 7.07096e-07 7.07096e-07 7.07096e-07 7.07096e-07 7.07096e-07 7.07096e-07 7.07096e-07 7.07096e-07 7.07096e-07 7.07096e-07 7.07096e-07 7.07096e-07 7.07096e-07 7.07096e-07 7.07096e-07 7.07096e-07 7.07096e-07 7.07096e-07 7.07096e-07 7.07096e-07 7.07096e-07 7.07096e-07 7.07096e-07 7.07096e-07 7.07096e-07 7.07096e-07 7.07096e-07 7.07096e-07 7.07096e-07 7.07096e-07 7.07096e-07 7.07096e-07 7.07096e-07 7.07096e-07 7.07096e-07 7.07096e-07 7.07096e-07 7.07096e-07 7.07096e-07 7.07096e-07 7.07096e-07 7.07096e-07 7.07096e-07 7.07096e-07 7.07096e-07 7.07096e-07 7.07096e-07 7.07096e-07 7.07096e-07 7.07096e-07 7.07096e-07 7.07096e-07 7.07096e-07 7.07096e-07 7.07096e-07 7.07096e-07 7.07096e-07 7.07096e-07 7.07096e-07 7.07096e-07 7.07096e-07 7.07096e-07 7.07096e-07 7.07096e-07 7.07096e-07 7.07096e-07 7.07096e-07 7.07096e-07 7.07096e-07 7.07096e-07 7.07096e-07 7.07096e-07 7.07096e-07 7.07096e-07 7.07096e-07 7.07096e-07 7.07096e-07 7.07096e-07 7.07096e-07 7.07096e-07 7.07096e-07 7.07096e-07 7.07096e-07 7.07096e-07 7.07096e-07;
   (24) 0.733213 8.24925e-07 8.24925e-07 8.24925e-07 8.24925e-07 8.24925e-07 8.24925e-07 8.24925e-07 8.24925e-07 8.24925e-07 8.24925e-07 8.24925e-07 8.24925e-07 8.24925e-07 8.24925e-07 8.24925e-07 8.24925e-07 8.24925e-07 8.24925e-07 8.24925e-07 8.24925e-07 8.24925e-07 8.24925e-07 8.24925e-07 0.266623 8.24925e-07 8.24925e-07 8.24925e-07 8.24925e-07 8.24925e-07 8.24925e-07 8.24925e-07 8.24925e-07 8.24925e-07 8.24925e-07 8.24925e-07 8.24925e-07 8.24925e-07 8.24925e-07 8.24925e-07 8.24925e-07 8.24925e-07 8.24925e-07 8.24925e-07 8.24925e-07 8.24925e-07 8.24925e-07 8.24925e-07 8.24925e-07 8.24925e-07 8.24925e-07 8.24925e-07 8.24925e-07 8.24925e-07 8.24925e-07 8.24925e-07 8.24925e-07 8.24925e-07 8.24925e-07 8.24925e-07 8.24925e-07 8.24925e-07 8.24925e-07 8.24925e-07 8.24925e-07 8.24925e-07 8.24925e-07 8.24925e-07 8.24925e-07 8.24925e-07 8.24925e-07 8.24925e-07 8.24925e-07 8.24925e-07 8.24925e-07 8.24925e-07 8.24925e-07 8.24925e-07 8.24925e-07 8.24925e-07 8.24925e-07 8.24925e-07 8.24925e-07 8.24925e-07 8.24925e-07 8.24925e-07 8.24925e-07 8.24925e-07 8.24925e-07 8.24925e-07 8.24925e-07 8.24925e-07 8.24925e-07 8.24925e-07 8.24925e-07 8.24925e-07 8.24925e-07 8.24925e-07 8.24925e-07 8.24925e-07 8.24925e-07 8.24925e-07 8.24925e-07 8.24925e-07 8.24925e-07 8.24925e-07 8.24925e-07 8.24925e-07 8.24925e-07 8.24925e-07 8.24925e-07 8.24925e-07 8.24925e-07 8.24925e-07 8.24925e-07 8.24925e-07 8.24925e-07 8.24925e-07 8.24925e-07 8.24925e-07 8.24925e-07 8.24925e-07 8.24925e-07 8.24925e-07 8.24925e-07 8.24925e-07 8.24925e-07 8.24925e-07 8.24925e-07 8.24925e-07 8.24925e-07 8.24925e-07 8.24925e-07 8.24925e-07 8.24925e-07 8.24925e-07 8.24925e-07 8.24925e-07 8.24925e-07 8.24925e-07 8.24925e-07 8.24925e-07 8.24925e-07 8.24925e-07 8.24925e-07 8.24925e-07 8.24925e-07 8.24925e-07 8.24925e-07 8.24925e-07 8.24925e-07 8.24925e-07 8.24925e-07 8.24925e-07 8.24925e-07 8.24925e-07 8.24925e-07 8.24925e-07 8.24925e-07 8.24925e-07 8.24925e-07 8.24925e-07 8.24925e-07 8.24925e-07 8.24925e-07 8.24925e-07 8.24925e-07 8.24925e-07 8.24925e-07 8.24925e-07 8.24925e-07 8.24925e-07 8.24925e-07 8.24925e-07 8.24925e-07 8.24925e-07 8.24925e-07 8.24925e-07 8.24925e-07 8.24925e-07 8.24925e-07 8.24925e-07 8.24925e-07 8.24925e-07 8.24925e-07 8.24925e-07 8.24925e-07 8.24925e-07 8.24925e-07 8.24925e-07 8.24925e-07 8.24925e-07 8.24925e-07 8.24925e-07 8.24925e-07 8.24925e-07 8.24925e-07 8.24925e-07 8.24925e-07 8.24925e-07 8.24925e-07;
   (25) 0.499923 7.73375e-07 7.73375e-07 7.73375e-07 7.73375e-07 7.73375e-07 7.73375e-07 7.73375e-07 7.73375e-07 7.73375e-07 7.73375e-07 7.73375e-07 7.73375e-07 7.73375e-07 7.73375e-07 7.73375e-07 7.73375e-07 7.73375e-07 7.73375e-07 7.73375e-07 7.73375e-07 7.73375e-07 7.73375e-07 7.73375e-07 7.73375e-07 0.499923 7.73375e-07 7.73375e-07 7.73375e-07 7.73375e-07 7.73375e-07 7.73375e-07 7.73375e-07 7.73375e-07 7.73375e-07 7.73375e-07 7.73375e-07 7.73375e-07 7.73375e-07 7.73375e-07 7.73375e-07 7.73375e-07 7.73375e-07 7.73375e-07 7.73375e-07 7.73375e-07 7.73375e-07 7.73375e-07 7.73375e-07 7.73375e-07 7.73375e-07 7.73375e-07 7.73375e-07 7.73375e-07 7.73375e-07 7.73375e-07 7.73375e-07 7.73375e-07 7.73375e-07 7.73375e-07 7.73375e-07 7.73375e-07 7.73375e-07 7.73375e-07 7.73375e-07 7.73375e-07 7.73375e-07 7.73375e-07 7.73375e-07 7.73375e-07 7.73375e-07 7.73375e-07 7.73375e-07 7.73375e-07 7.73375e-07 7.73375e-07 7.73375e-07 7.73375e-07 7.73375e-07 7.73375e-07 7.73375e-07 7.73375e-07 7.73375e-07 7.73375e-07 7.73375e-07 7.73375e-07 7.73375e-07 7.73375e-07 7.73375e-07 7.73375e-07 7.73375e-07 7.73375e-07 7.73375e-07 7.73375e-07 7.73375e-07 7.73375e-07 7.73375e-07 7.73375e-07 7.73375e-07 7.73375e-07 7.73375e-07 7.73375e-07 7.73375e-07 7.73375e-07 7.73375e-07 7.73375e-07 7.73375e-07 7.73375e-07 7.73375e-07 7.73375e-07 7.73375e-07 7.73375e-07 7.73375e-07 7.73375e-07 7.73375e-07 7.73375e-07 7.73375e-07 7.73375e-07 7.73375e-07 7.73375e-07 7.73375e-07 7.73375e-07 7.73375e-07 7.73375e-07 7.73375e-07 7.73375e-07 7.73375e-07 7.73375e-07 7.73375e-07 7.73375e-07 7.73375e-07 7.73375e-07 7.73375e-07 7.73375e-07 7.73375e-07 7.73375e-07 7.73375e-07 7.73375e-07 7.73375e-07 7.73375e-07 7.73375e-07 7.73375e-07 7.73375e-07 7.73375e-07 7.73375e-07 7.73375e-07 7.73375e-07 7.73375e-07 7.73375e-07 7.73375e-07 7.73375e-07 7.73375e-07 7.73375e-07 7.73375e-07 7.73375e-07 7.73375e-07 7.73375e-07 7.73375e-07 7.73375e-07 7.73375e-07 7.73375e-07 7.73375e-07 7.73375e-07 7.73375e-07 7.73375e-07 7.73375e-07 7.73375e-07 7.73375e-07 7.73375e-07 7.73375e-07 7.73375e-07 7.73375e-07 7.73375e-07 7.73375e-07 7.73375e-07 7.73375e-07 7.73375e-07 7.73375e-07 7.73375e-07 7.73375e-07 7.73375e-07 7.73375e-07 7.73375e-07 7.73375e-07 7.73375e-07 7.73375e-07 7.73375e-07 7.73375e-07 7.73375e-07 7.73375e-07 7.73375e-07 7.73375e-07 7.73375e-07 7.73375e-07 7.73375e-07 7.73375e-07 7.73375e-07 7.73375e-07 7.73375e-07 7.73375e-07 7.73375e-07;
   (26) 0.675586 6.68879e-07 6.68879e-07 6.68879e-07 6.68879e-07 6.68879e-07 6.68879e-07 6.68879e-07 6.68879e-07 6.68879e-07 6.68879e-07 6.68879e-07 6.68879e-07 6.68879e-07 6.68879e-07 6.68879e-07 6.68879e-07 6.68879e-07 6.68879e-07 6.68879e-07 6.68879e-07 6.68879e-07 6.68879e-07 6.68879e-07 6.68879e-07 6.68879e-07 0.324281 6.68879e-07 6.68879e-07 6.68879e-07 6.68879e-07 6.68879e-07 6.68879e-07 6.68879e-07 6.68879e-07 6.68879e-07 6.68879e-07 6.68879e-07 6.68879e-07 6.68879e-07 6.68879e-07 6.68879e-07 6.68879e-07 6.68879e-07 6.68879e-07 6.68879e-07 6.68879e-07 6.68879e-07 6.68879e-07 6.68879e-07 6.68879e-07 6.68879e-07 6.68879e-07 6.68879e-07 6.68879e-07 6.68879e-07 6.68879e-07 6.68879e-07 6.68879e-07 6.68879e-07 6.68879e-07 6.68879e-07 6.68879e-07 6.68879e-07 6.68879e-07 6.68879e-07 6.68879e-07 6.68879e-07 6.68879e-07 6.68879e-07 6.68879e-07 6.68879e-07 6.68879e-07 6.68879e-07 6.68879e-07 6.68879e-07 6.68879e-07 6.68879e-07 6.68879e-07 6.68879e-07 6.68879e-07 6.68879e-07 6.68879e-07 6.68879e-07 6.68879e-07 6.68879e-07 6.68879e-07 6.68879e-07 6.68879e-07 6.68879e-07 6.68879e-07 6.68879e-07 6.68879e-07 6.68879e-07 6.68879e-07 6.68879e-07 6.68879e-07 6.68879e-07 6.68879e-07 6.68879e-07 6.68879e-07 6.68879e-07 6.68879e-07 6.68879e-07 6.68879e-07 6.68879e-07 6.68879e-07 6.68879e-07 6.68879e-07 6.68879e-07 6.68879e-07 6.68879e-07 6.68879e-07 6.68879e-07 6.68879e-07 6.68879e-07 6.68879e-07 6.68879e-07 6.68879e-07 6.68879e-07 6.68879e-07 6.68879e-07 6.68879e-07 6.68879e-07 6.68879e-07 6.68879e-07 6.68879e-07 6.68879e-07 6.68879e-07 6.68879e-07 6.68879e-07 6.68879e-07 6.68879e-07 6.68879e-07 6.68879e-07 6.68879e-07 6.68879e-07 6.68879e-07 6.68879e-07 6.68879e-07 6.68879e-07 6.68879e-07 6.68879e-07 6.68879e-07 6.68879e-07 6.68879e-07 6.68879e-07 6.68879e-07 6.68879e-07 6.68879e-07 6.68879e-07 6.68879e-07 6.68879e-07 6.68879e-07 6.68879e-07 6.68879e-07 6.68879e-07 6.68879e-07 6.68879e-07 6.68879e-07 6.68879e-07 6.68879e-07 6.68879e-07 6.68879e-07 6.68879e-07 6.68879e-07 6.68879e-07 6.68879e-07 6.68879e-07 6.68879e-07 6.68879e-07 6.68879e-07 6.68879e-07 6.68879e-07 6.68879e-07 6.68879e-07 6.68879e-07 6.68879e-07 6.68879e-07 6.68879e-07 6.68879e-07 6.68879e-07 6.68879e-07 6.68879e-07 6.68879e-07 6.68879e-07 6.68879e-07 6.68879e-07 6.68879e-07 6.68879e-07 6.68879e-07 6.68879e-07 6.68879e-07 6.68879e-07 6.68879e-07 6.68879e-07 6.68879e-07 6.68879e-07 6.68879e-07 6.68879e-07 6.68879e-07;
   (27) 0.848358 7.49943e-07 7.49943e-07 7.49943e-07 7.49943e-07 7.49943e-07 7.49943e-07 7.49943e-07 7.49943e-07 7.49943e-07 7.49943e-07 7.49943e-07 7.49943e-07 7.49943e-07 7.49943e-07 7.49943e-07 7.49943e-07 7.49943e-07 7.49943e-07 7.49943e-07 7.49943e-07 7.49943e-07 7.49943e-07 7.49943e-07 7.49943e-07 7.49943e-07 7.49943e-07 0.151493 7.49943e-07 7.49943e-07 7.49943e-07 7.49943e-07 7.49943e-07 7.49943e-07 7.49943e-07 7.49943e-07 7.49943e-07 7.49943e-07 7.49943e-07 7.49943e-07 7.49943e-07 7.49943e-07 7.49943e-07 7.49943e-07 7.49943e-07 7.49943e-07 7.49943e-07 7.49943e-07 7.49943e-07 7.49943e-07 7.49943e-07 7.49943e-07 7.49943e-07 7.49943e-07 7.49943e-07 7.49943e-07 7.49943e-07 7.49943e-07 7.49943e-07 7.49943e-07 7.49943e-07 7.49943e-07 7.49943e-07 7.49943e-07 7.49943e-07 7.49943e-07 7.49943e-07 7.49943e-07 7.49943e-07 7.49943e-07 7.49943e-07 7.49943e-07 7.49943e-07 7.49943e-07 7.49943e-07 7.49943e-07 7.49943e-07 7.49943e-07 7.49943e-07 7.49943e-07 7.49943e-07 7.49943e-07 7.49943e-07 7.49943e-07 7.49943e-07 7.49943e-07 7.49943e-07 7.49943e-07 7.49943e-07 7.49943e-07 7.49943e-07 7.49943e-07 7.49943e-07 7.49943e-07 7.49943e-07 7.49943e-07 7.49943e-07 7.49943e-07 7.49943e-07 7.49943e-07 7.49943e-07 7.49943e-07 7.49943e-07 7.49943e-07 7.49943e-07 7.49943e-07 7.49943e-07 7.49943e-07 7.49943e-07 7.49943e-07 7.49943e-07 7.49943e-07 7.49943e-07 7.49943e-07 7.49943e-07 7.49943e-07 7.49943e-07 7.49943e-07 7.49943e-07 7.49943e-07 7.49943e-07 7.49943e-07 7.49943e-07 7.49943e-07 7.49943e-07 7.49943e-07 7.49943e-07 7.49943e-07 7.49943e-07 7.49943e-07 7.49943e-07 7.49943e-07 7.49943e-07 7.49943e-07 7.49943e-07 7.49943e-07 7.49943e-07 7.49943e-07 7.49943e-07 7.49943e-07 7.49943e-07 7.49943e-07 7.49943e-07 7.49943e-07 7.49943e-07 7.49943e-07 7.49943e-07 7.49943e-07 7.49943e-07 7.49943e-07 7.49943e-07 7.49943e-07 7.49943e-07 7.49943e-07 7.49943e-07 7.49943e-07 7.49943e-07 7.49943e-07 7.49943e-07 7.49943e-07 7.49943e-07 7.49943e-07 7.49943e-07 7.49943e-07 7.49943e-07 7.49943e-07 7.49943e-07 7.49943e-07 7.49943e-07 7.49943e-07 7.49943e-07 7.49943e-07 7.49943e-07 7.49943e-07 7.49943e-07 7.49943e-07 7.49943e-07 7.49943e-07 7.49943e-07 7.49943e-07 7.49943e-07 7.49943e-07 7.49943e-07 7.49943e-07 7.49943e-07 7.49943e-07 7.49943e-07 7.49943e-07 7.49943e-07 7.49943e-07 7.49943e-07 7.49943e-07 7.49943e-07 7.49943e-07 7.49943e-07 7.49943e-07 7.49943e-07 7.49943e-07 7.49943e-07 7.49943e-07 7.49943e-07;
   (28) 0.566574 8.24925e-07 8.24925e-07 8.24925e-07 8.24925e-07 8.24925e-07 8.24925e-07 8.24925e-07 8.24925e-07 8.24925e-07 8.24925e-07 8.24925e-07 8.24925e-07 8.24925e-07 8.24925e-07 8.24925e-07 8.24925e-07 8.24925e-07 8.24925e-07 8.24925e-07 8.24925e-07 8.24925e-07 8.24925e-07 8.24925e-07 8.24925e-07 8.24925e-07 8.24925e-07 8.24925e-07 0.433262 8.24925e-07 8.24925e-07 8.24925e-07 8.24925e-07 8.24925e-07 8.24925e-07 8.24925e-07 8.24925e-07 8.24925e-07 8.24925e-07 8.24925e-07 8.24925e-07 8.24925e-07 8.24925e-07 8.24925e-07 8.24925e-07 8.24925e-07 8.24925e-07 8.24925e-07 8.24925e-07 8.24925e-07 8.24925e-07 8.24925e-07 8.24925e-07 8.24925e-07 8.24925e-07 8.24925e-07 8.24925e-07 8.24925e-07 8.24925e-07 8.24925e-07 8.24925e-07 8.24925e-07 8.24925e-07 8.24925e-07 8.24925e-07 8.24925e-07 8.24925e-07 8.24925e-07 8.24925e-07 8.24925e-07 8.24925e-07 8.24925e-07 8.24925e-07 8.24925e-07 8.24925e-07 8.24925e-07 8.24925e-07 8.24925e-07 8.24925e-07 8.24925e-07 8.24925e-07 8.24925e-07 8.24925e-07 8.24925e-07 8.24925e-07 8.24925e-07 8.24925e-07 8.24925e-07 8.24925e-07 8.24925e-07 8.24925e-07 8.24925e-07 8.24925e-07 8.24925e-07 8.24925e-07 8.24925e-07 8.24925e-07 8.24925e-07 8.24925e-07 8.24925e-07 8.24925e-07 8.24925e-07 8.24925e-07 8.24925e-07 8.24925e-07 8.24925e-07 8.24925e-07 8.24925e-07 8.24925e-07 8.24925e-07 8.24925e-07 8.24925e-07 8.24925e-07 8.24925e-07 8.24925e-07 8.24925e-07 8.24925e-07 8.24925e-07 8.24925e-07 8.24925e-07 8.24925e-07 8.24925e-07 8.24925e-07 8.24925e-07 8.24925e-07 8.24925e-07 8.24925e-07 8.24925e-07 8.24925e-07 8.24925e-07 8.24925e-07 8.24925e-07 8.24925e-07 8.24925e-07 8.24925e-07 8.24925e-07 8.24925e-07 8.24925e-07 8.24925e-07 8.24925e-07 8.24925e-07 8.24925e-07 8.24925e-07 8.24925e-07 8.24925e-07 8.24925e-07 8.24925e-07 8.24925e-07 8.24925e-07 8.24925e-07 8.24925e-07 8.24925e-07 8.24925e-07 8.24925e-07 8.24925e-07 8.24925e-07 8.24925e-07 8.24925e-07 8.24925e-07 8.24925e-07 8.24925e-07 8.24925e-07 8.24925e-07 8.24925e-07 8.24925e-07 8.24925e-07 8.24925e-07 8.24925e-07 8.24925e-07 8.24925e-07 8.24925e-07 8.24925e-07 8.24925e-07 8.24925e-07 8.24925e-07 8.24925e-07 8.24925e-07 8.24925e-07 8.24925e-07 8.24925e-07 8.24925e-07 8.24925e-07 8.24925e-07 8.24925e-07 8.24925e-07 8.24925e-07 8.24925e-07 8.24925e-07 8.24925e-07 8.24925e-07 8.24925e-07 8.24925e-07 8.24925e-07 8.24925e-07 8.24925e-07 8.24925e-07 8.24925e-07 8.24925e-07 8.24925e-07 8.24925e-07 8.24925e-07;
   (29) 0.956316 1.07594e-06 1.07594e-06 1.07594e-06 1.07594e-06 1.07594e-06 1.07594e-06 1.07594e-06 1.07594e-06 1.07594e-06 1.07594e-06 1.07594e-06 1.07594e-06 1.07594e-06 1.07594e-06 1.07594e-06 1.07594e-06 1.07594e-06 1.07594e-06 1.07594e-06 1.07594e-06 1.07594e-06 1.07594e-06 1.07594e-06 1.07594e-06 1.07594e-06 1.07594e-06 1.07594e-06 1.07594e-06 0.0434699 1.07594e-06 1.07594e-06 1.07594e-06 1.07594e-06 1.07594e-06 1.07594e-06 1.07594e-06 1.07594e-06 1.07594e-06 1.07594e-06 1.07594e-06 1.07594e-06 1.07594e-06 1.07594e-06 1.07594e-06 1.07594e-06 1.07594e-06 1.07594e-06 1.07594e-06 1.07594e-06 1.07594e-06 1.07594e-06 1.07594e-06 1.07594e-06 1.07594e-06 1.07594e-06 1.07594e-06 1.07594e-06 1.07594e-06 1.07594e-06 1.07594e-06 1.07594e-06 1.07594e-06 1.07594e-06 1.07594e-06 1.07594e-06 1.07594e-06 1.07594e-06 1.07594e-06 1.07594e-06 1.07594e-06 1.07594e-06 1.07594e-06 1.07594e-06 1.07594e-06 1.07594e-06 1.07594e-06 1.07594e-06 1.07594e-06 1.07594e-06 1.07594e-06 1.07594e-06 1.07594e-06 1.07594e-06 1.07594e-06 1.07594e-06 1.07594e-06 1.07594e-06 1.07594e-06 1.07594e-06 1.07594e-06 1.07594e-06 1.07594e-06 1.07594e-06 1.07594e-06 1.07594e-06 1.07594e-06 1.07594e-06 1.07594e-06 1.07594e-06 1.07594e-06 1.07594e-06 1.07594e-06 1.07594e-06 1.07594e-06 1.07594e-06 1.07594e-06 1.07594e-06 1.07594e-06 1.07594e-06 1.07594e-06 1.07594e-06 1.07594e-06 1.07594e-06 1.07594e-06 1.07594e-06 1.07594e-06 1.07594e-06 1.07594e-06 1.07594e-06 1.07594e-06 1.07594e-06 1.07594e-06 1.07594e-06 1.07594e-06 1.07594e-06 1.07594e-06 1.07594e-06 1.07594e-06 1.07594e-06 1.07594e-06 1.07594e-06 1.07594e-06 1.07594e-06 1.07594e-06 1.07594e-06 1.07594e-06 1.07594e-06 1.07594e-06 1.07594e-06 1.07594e-06 1.07594e-06 1.07594e-06 1.07594e-06 1.07594e-06 1.07594e-06 1.07594e-06 1.07594e-06 1.07594e-06 1.07594e-06 1.07594e-06 1.07594e-06 1.07594e-06 1.07594e-06 1.07594e-06 1.07594e-06 1.07594e-06 1.07594e-06 1.07594e-06 1.07594e-06 1.07594e-06 1.07594e-06 1.07594e-06 1.07594e-06 1.07594e-06 1.07594e-06 1.07594e-06 1.07594e-06 1.07594e-06 1.07594e-06 1.07594e-06 1.07594e-06 1.07594e-06 1.07594e-06 1.07594e-06 1.07594e-06 1.07594e-06 1.07594e-06 1.07594e-06 1.07594e-06 1.07594e-06 1.07594e-06 1.07594e-06 1.07594e-06 1.07594e-06 1.07594e-06 1.07594e-06 1.07594e-06 1.07594e-06 1.07594e-06 1.07594e-06 1.07594e-06 1.07594e-06 1.07594e-06 1.07594e-06 1.07594e-06 1.07594e-06 1.07594e-06 1.07594e-06 1.07594e-06 1.07594e-06;
   (30) 0.531168 7.73375e-07 7.73375e-07 7.73375e-07 7.73375e-07 7.73375e-07 7.73375e-07 7.73375e-07 7.73375e-07 7.73375e-07 7.73375e-07 7.73375e-07 7.73375e-07 7.73375e-07 7.73375e-07 7.73375e-07 7.73375e-07 7.73375e-07 7.73375e-07 7.73375e-07 7.73375e-07 7.73375e-07 7.73375e-07 7.73375e-07 7.73375e-07 7.73375e-07 7.73375e-07 7.73375e-07 7.73375e-07 7.73375e-07 0.468678 7.73375e-07 7.73375e-07 7.73375e-07 7.73375e-07 7.73375e-07 7.73375e-07 7.73375e-07 7.73375e-07 7.73375e-07 7.73375e-07 7.73375e-07 7.73375e-07 7.73375e-07 7.73375e-07 7.73375e-07 7.73375e-07 7.73375e-07 7.73375e-07 7.73375e-07 7.73375e-07 7.73375e-07 7.73375e-07 7.73375e-07 7.73375e-07 7.73375e-07 7.73375e-07 7.73375e-07 7.73375e-07 7.73375e-07 7.73375e-07 7.73375e-07 7.73375e-07 7.73375e-07 7.73375e-07 7.73375e-07 7.73375e-07 7.73375e-07 7.73375e-07 7.73375e-07 7.73375e-07 7.73375e-07 7.73375e-07 7.73375e-07 7.73375e-07 7.73375e-07 7.73375e-07 7.73375e-07 7.73375e-07 7.73375e-07 7.73375e-07 7.73375e-07 7.73375e-07 7.73375e-07 7.73375e-07 7.73375e-07 7.73375e-07 7.73375e-07 7.73375e-07 7.73375e-07 7.73375e-07 7.73375e-07 7.73375e-07 7.73375e-07 7.73375e-07 7.73375e-07 7.73375e-07 7.73375e-07 7.73375e-07 7.73375e-07 7.73375e-07 7.73375e-07 7.73375e-07 7.73375e-07 7.73375e-07 7.73375e-07 7.73375e-07 7.73375e-07 7.73375e-07 7.73375e-07 7.73375e-07 7.73375e-07 7.73375e-07 7.73375e-07 7.73375e-07 7.73375e-07 7.73375e-07 7.73375e-07 7.73375e-07 7.73375e-07 7.73375e-07 7.73375e-07 7.73375e-07 7.73375e-07 7.73375e-07 7.73375e-07 7.73375e-07 7.73375e-07 7.73375e-07 7.73375e-07 7.73375e-07 7.73375e-07 7.73375e-07 7.73375e-07 7.73375e-07 7.73375e-07 7.73375e-07 7.73375e-07 7.73375e-07 7.73375e-07 7.73375e-07 7.73375e-07 7.73375e-07 7.73375e-07 7.73375e-07 7.73375e-07 7.73375e-07 7.73375e-07 7.73375e-07 7.73375e-07 7.73375e-07 7.73375e-07 7.73375e-07 7.73375e-07 7.73375e-07 7.73375e-07 7.73375e-07 7.73375e-07 7.73375e-07 7.73375e-07 7.73375e-07 7.73375e-07 7.73375e-07 7.73375e-07 7.73375e-07 7.73375e-07 7.73375e-07 7.73375e-07 7.73375e-07 7.73375e-07 7.73375e-07 7.73375e-07 7.73375e-07 7.73375e-07 7.73375e-07 7.73375e-07 7.73375e-07 7.73375e-07 7.73375e-07 7.73375e-07 7.73375e-07 7.73375e-07 7.73375e-07 7.73375e-07 7.73375e-07 7.73375e-07 7.73375e-07 7.73375e-07 7.73375e-07 7.73375e-07 7.73375e-07 7.73375e-07 7.73375e-07 7.73375e-07 7.73375e-07 7.73375e-07 7.73375e-07 7.73375e-07 7.73375e-07 7.73375e-07 7.73375e-07;
   (31) 0.891773 6.68879e-07 6.68879e-07 6.68879e-07 6.68879e-07 6.68879e-07 6.68879e-07 6.68879e-07 6.68879e-07 6.68879e-07 6.68879e-07 6.68879e-07 6.68879e-07 6.68879e-07 6.68879e-07 6.68879e-07 6.68879e-07 6.68879e-07 6.68879e-07 6.68879e-07 6.68879e-07 6.68879e-07 6.68879e-07 6.68879e-07 6.68879e-07 6.68879e-07 6.68879e-07 6.68879e-07 6.68879e-07 6.68879e-07 6.68879e-07 0.108094 6.68879e-07 6.68879e-07 6.68879e-07 6.68879e-07 6.68879e-07 6.68879e-07 6.68879e-07 6.68879e-07 6.68879e-07 6.68879e-07 6.68879e-07 6.68879e-07 6.68879e-07 6.68879e-07 6.68879e-07 6.68879e-07 6.68879e-07 6.68879e-07 6.68879e-07 6.68879e-07 6.68879e-07 6.68879e-07 6.68879e-07 6.68879e-07 6.68879e-07 6.68879e-07 6.68879e-07 6.68879e-07 6.68879e-07 6.68879e-07 6.68879e-07 6.68879e-07 6.68879e-07 6.68879e-07 6.68879e-07 6.68879e-07 6.68879e-07 6.68879e-07 6.68879e-07 6.68879e-07 6.68879e-07 6.68879e-07 6.68879e-07 6.68879e-07 6.68879e-07 6.68879e-07 6.68879e-07 6.68879e-07 6.68879e-07 6.68879e-07 6.68879e-07 6.68879e-07 6.68879e-07 6.68879e-07 6.68879e-07 6.68879e-07 6.68879e-07 6.68879e-07 6.68879e-07 6.68879e-07 6.68879e-07 6.68879e-07 6.68879e-07 6.68879e-07 6.68879e-07 6.68879e-07 6.68879e-07 6.68879e-07 6.68879e-07 6.68879e-07 6.68879e-07 6.68879e-07 6.68879e-07 6.68879e-07 6.68879e-07 6.68879e-07 6.68879e-07 6.68879e-07 6.68879e-07 6.68879e-07 6.68879e-07 6.68879e-07 6.68879e-07 6.68879e-07 6.68879e-07 6.68879e-07 6.68879e-07 6.68879e-07 6.68879e-07 6.68879e-07 6.68879e-07 6.68879e-07 6.68879e-07 6.68879e-07 6.68879e-07 6.68879e-07 6.68879e-07 6.68879e-07 6.68879e-07 6.68879e-07 6.68879e-07 6.68879e-07 6.68879e-07 6.68879e-07 6.68879e-07 6.68879e-07 6.68879e-07 6.68879e-07 6.68879e-07 6.68879e-07 6.68879e-07 6.68879e-07 6.68879e-07 6.68879e-07 6.68879e-07 6.68879e-07 6.68879e-07 6.68879e-07 6.68879e-07 6.68879e-07 6.68879e-07 6.68879e-07 6.68879e-07 6.68879e-07 6.68879e-07 6.68879e-07 6.68879e-07 6.68879e-07 6.68879e-07 6.68879e-07 6.68879e-07 6.68879e-07 6.68879e-07 6.68879e-07 6.68879e-07 6.68879e-07 6.68879e-07 6.68879e-07 6.68879e-07 6.68879e-07 6.68879e-07 6.68879e-07 6.68879e-07 6.68879e-07 6.68879e-07 6.68879e-07 6.68879e-07 6.68879e-07 6.68879e-07 6.68879e-07 6.68879e-07 6.68879e-07 6.68879e-07 6.68879e-07 6.68879e-07 6.68879e-07 6.68879e-07 6.68879e-07 6.68879e-07 6.68879e-07 6.68879e-07 6.68879e-07 6.68879e-07 6.68879e-07 6.68879e-07 6.68879e-07 6.68879e-07 6.68879e-07 6.68879e-07;
   (32) 0.856991 8.83838e-07 8.83838e-07 8.83838e-07 8.83838e-07 8.83838e-07 8.83838e-07 8.83838e-07 8.83838e-07 8.83838e-07 8.83838e-07 8.83838e-07 8.83838e-07 8.83838e-07 8.83838e-07 8.83838e-07 8.83838e-07 8.83838e-07 8.83838e-07 8.83838e-07 8.83838e-07 8.83838e-07 8.83838e-07 8.83838e-07 8.83838e-07 8.83838e-07 8.83838e-07 8.83838e-07 8.83838e-07 8.83838e-07 8.83838e-07 8.83838e-07 0.142833 8.83838e-07 8.83838e-07 8.83838e-07 8.83838e-07 8.83838e-07 8.83838e-07 8.83838e-07 8.83838e-07 8.83838e-07 8.83838e-07 8.83838e-07 8.83838e-07 8.83838e-07 8.83838e-07 8.83838e-07 8.83838e-07 8.83838e-07 8.83838e-07 8.83838e-07 8.83838e-07 8.83838e-07 8.83838e-07 8.83838e-07 8.83838e-07 8.83838e-07 8.83838e-07 8.83838e-07 8.83838e-07 8.83838e-07 8.83838e-07 8.83838e-07 8.83838e-07 8.83838e-07 8.83838e-07 8.83838e-07 8.83838e-07 8.83838e-07 8.83838e-07 8.83838e-07 8.83838e-07 8.83838e-07 8.83838e-07 8.83838e-07 8.83838e-07 8.83838e-07 8.83838e-07 8.83838e-07 8.83838e-07 8.83838e-07 8.83838e-07 8.83838e-07 8.83838e-07 8.83838e-07 8.83838e-07 8.83838e-07 8.83838e-07 8.83838e-07 8.83838e-07 8.83838e-07 8.83838e-07 8.83838e-07 8.83838e-07 8.83838e-07 8.83838e-07 8.83838e-07 8.83838e-07 8.83838e-07 8.83838e-07 8.83838e-07 8.83838e-07 8.83838e-07 8.83838e-07 8.83838e-07 8.83838e-07 8.83838e-07 8.83838e-07 8.83838e-07 8.83838e-07 8.83838e-07 8.83838e-07 8.83838e-07 8.83838e-07 8.83838e-07 8.83838e-07 8.83838e-07 8.83838e-07 8.83838e-07 8.83838e-07 8.83838e-07 8.83838e-07 8.83838e-07 8.83838e-07 8.83838e-07 8.83838e-07 8.83838e-07 8.83838e-07 8.83838e-07 8.83838e-07 8.83838e-07 8.83838e-07 8.83838e-07 8.83838e-07 8.83838e-07 8.83838e-07 8.83838e-07 8.83838e-07 8.83838e-07 8.83838e-07 8.83838e-07 8.83838e-07 8.83838e-07 8.83838e-07 8.83838e-07 8.83838e-07 8.83838e-07 8.83838e-07 8.83838e-07 8.83838e-07 8.83838e-07 8.83838e-07 8.83838e-07 8.83838e-07 8.83838e-07 8.83838e-07 8.83838e-07 8.83838e-07 8.83838e-07 8.83838e-07 8.83838e-07 8.83838e-07 8.83838e-07 8.83838e-07 8.83838e-07 8.83838e-07 8.83838e-07 8.83838e-07 8.83838e-07 8.83838e-07 8.83838e-07 8.83838e-07 8.83838e-07 8.83838e-07 8.83838e-07 8.83838e-07 8.83838e-07 8.83838e-07 8.83838e-07 8.83838e-07 8.83838e-07 8.83838e-07 8.83838e-07 8.83838e-07 8.83838e-07 8.83838e-07 8.83838e-07 8.83838e-07 8.83838e-07 8.83838e-07 8.83838e-07 8.83838e-07 8.83838e-07 8.83838e-07 8.83838e-07 8.83838e-07 8.83838e-07 8.83838e-07 8.83838e-07 8.83838e-07;
   (33) 0.856991 8.83838e-07 8.83838e-07 8.83838e-07 8.83838e-07 8.83838e-07 8.83838e-07 8.83838e-07 8.83838e-07 8.83838e-07 8.83838e-07 8.83838e-07 8.83838e-07 8.83838e-07 8.83838e-07 8.83838e-07 8.83838e-07 8.83838e-07 8.83838e-07 8.83838e-07 8.83838e-07 8.83838e-07 8.83838e-07 8.83838e-07 8.83838e-07 8.83838e-07 8.83838e-07 8.83838e-07 8.83838e-07 8.83838e-07 8.83838e-07 8.83838e-07 8.83838e-07 0.142833 8.83838e-07 8.83838e-07 8.83838e-07 8.83838e-07 8.83838e-07 8.83838e-07 8.83838e-07 8.83838e-07 8.83838e-07 8.83838e-07 8.83838e-07 8.83838e-07 8.83838e-07 8.83838e-07 8.83838e-07 8.83838e-07 8.83838e-07 8.83838e-07 8.83838e-07 8.83838e-07 8.83838e-07 8.83838e-07 8.83838e-07 8.83838e-07 8.83838e-07 8.83838e-07 8.83838e-07 8.83838e-07 8.83838e-07 8.83838e-07 8.83838e-07 8.83838e-07 8.83838e-07 8.83838e-07 8.83838e-07 8.83838e-07 8.83838e-07 8.83838e-07 8.83838e-07 8.83838e-07 8.83838e-07 8.83838e-07 8.83838e-07 8.83838e-07 8.83838e-07 8.83838e-07 8.83838e-07 8.83838e-07 8.83838e-07 8.83838e-07 8.83838e-07 8.83838e-07 8.83838e-07 8.83838e-07 8.83838e-07 8.83838e-07 8.83838e-07 8.83838e-07 8.83838e-07 8.83838e-07 8.83838e-07 8.83838e-07 8.83838e-07 8.83838e-07 8.83838e-07 8.83838e-07 8.83838e-07 8.83838e-07 8.83838e-07 8.83838e-07 8.83838e-07 8.83838e-07 8.83838e-07 8.83838e-07 8.83838e-07 8.83838e-07 8.83838e-07 8.83838e-07 8.83838e-07 8.83838e-07 8.83838e-07 8.83838e-07 8.83838e-07 8.83838e-07 8.83838e-07 8.83838e-07 8.83838e-07 8.83838e-07 8.83838e-07 8.83838e-07 8.83838e-07 8.83838e-07 8.83838e-07 8.83838e-07 8.83838e-07 8.83838e-07 8.83838e-07 8.83838e-07 8.83838e-07 8.83838e-07 8.83838e-07 8.83838e-07 8.83838e-07 8.83838e-07 8.83838e-07 8.83838e-07 8.83838e-07 8.83838e-07 8.83838e-07 8.83838e-07 8.83838e-07 8.83838e-07 8.83838e-07 8.83838e-07 8.83838e-07 8.83838e-07 8.83838e-07 8.83838e-07 8.83838e-07 8.83838e-07 8.83838e-07 8.83838e-07 8.83838e-07 8.83838e-07 8.83838e-07 8.83838e-07 8.83838e-07 8.83838e-07 8.83838e-07 8.83838e-07 8.83838e-07 8.83838e-07 8.83838e-07 8.83838e-07 8.83838e-07 8.83838e-07 8.83838e-07 8.83838e-07 8.83838e-07 8.83838e-07 8.83838e-07 8.83838e-07 8.83838e-07 8.83838e-07 8.83838e-07 8.83838e-07 8.83838e-07 8.83838e-07 8.83838e-07 8.83838e-07 8.83838e-07 8.83838e-07 8.83838e-07 8.83838e-07 8.83838e-07 8.83838e-07 8.83838e-07 8.83838e-07 8.83838e-07 8.83838e-07 8.83838e-07 8.83838e-07 8.83838e-07 8.83838e-07 8.83838e-07 8.83838e-07 8.83838e-07;
   (34) 0.838576 7.98319e-07 7.98319e-07 7.98319e-07 7.98319e-07 7.98319e-07 7.98319e-07 7.98319e-07 7.98319e-07 7.98319e-07 7.98319e-07 7.98319e-07 7.98319e-07 7.98319e-07 7.98319e-07 7.98319e-07 7.98319e-07 7.98319e-07 7.98319e-07 7.98319e-07 7.98319e-07 7.98319e-07 7.98319e-07 7.98319e-07 7.98319e-07 7.98319e-07 7.98319e-07 7.98319e-07 7.98319e-07 7.98319e-07 7.98319e-07 7.98319e-07 7.98319e-07 7.98319e-07 0.161265 7.98319e-07 7.98319e-07 7.98319e-07 7.98319e-07 7.98319e-07 7.98319e-07 7.98319e-07 7.98319e-07 7.98319e-07 7.98319e-07 7.98319e-07 7.98319e-07 7.98319e-07 7.98319e-07 7.98319e-07 7.98319e-07 7.98319e-07 7.98319e-07 7.98319e-07 7.98319e-07 7.98319e-07 7.98319e-07 7.98319e-07 7.98319e-07 7.98319e-07 7.98319e-07 7.98319e-07 7.98319e-07 7.98319e-07 7.98319e-07 7.98319e-07 7.98319e-07 7.98319e-07 7.98319e-07 7.98319e-07 7.98319e-07 7.98319e-07 7.98319e-07 7.98319e-07 7.98319e-07 7.98319e-07 7.98319e-07 7.98319e-07 7.98319e-07 7.98319e-07 7.98319e-07 7.98319e-07 7.98319e-07 7.98319e-07 7.98319e-07 7.98319e-07 7.98319e-07 7.98319e-07 7.98319e-07 7.98319e-07 7.98319e-07 7.98319e-07 7.98319e-07 7.98319e-07 7.98319e-07 7.98319e-07 7.98319e-07 7.98319e-07 7.98319e-07 7.98319e-07 7.98319e-07 7.98319e-07 7.98319e-07 7.98319e-07 7.98319e-07 7.98319e-07 7.98319e-07 7.98319e-07 7.98319e-07 7.98319e-07 7.98319e-07 7.98319e-07 7.98319e-07 7.98319e-07 7.98319e-07 7.98319e-07 7.98319e-07 7.98319e-07 7.98319e-07 7.98319e-07 7.98319e-07 7.98319e-07 7.98319e-07 7.98319e-07 7.98319e-07 7.98319e-07 7.98319e-07 7.98319e-07 7.98319e-07 7.98319e-07 7.98319e-07 7.98319e-07 7.98319e-07 7.98319e-07 7.98319e-07 7.98319e-07 7.98319e-07 7.98319e-07 7.98319e-07 7.98319e-07 7.98319e-07 7.98319e-07 7.98319e-07 7.98319e-07 7.98319e-07 7.98319e-07 7.98319e-07 7.98319e-07 7.98319e-07 7.98319e-07 7.98319e-07 7.98319e-07 7.98319e-07 7.98319e-07 7.98319e-07 7.98319e-07 7.98319e-07 7.98319e-07 7.98319e-07 7.98319e-07 7.98319e-07 7.98319e-07 7.98319e-07 7.98319e-07 7.98319e-07 7.98319e-07 7.98319e-07 7.98319e-07 7.98319e-07 7.98319e-07 7.98319e-07 7.98319e-07 7.98319e-07 7.98319e-07 7.98319e-07 7.98319e-07 7.98319e-07 7.98319e-07 7.98319e-07 7.98319e-07 7.98319e-07 7.98319e-07 7.98319e-07 7.98319e-07 7.98319e-07 7.98319e-07 7.98319e-07 7.98319e-07 7.98319e-07 7.98319e-07 7.98319e-07 7.98319e-07 7.98319e-07 7.98319e-07 7.98319e-07 7.98319e-07 7.98319e-07 7.98319e-07 7.98319e-07 7.98319e-07 7.98319e-07;
   (35) 0.972089 6.87457e-07 6.87457e-07 6.87457e-07 6.87457e-07 6.87457e-07 6.87457e-07 6.87457e-07 6.87457e-07 6.87457e-07 6.87457e-07 6.87457e-07 6.87457e-07 6.87457e-07 6.87457e-07 6.87457e-07 6.87457e-07 6.87457e-07 6.87457e-07 6.87457e-07 6.87457e-07 6.87457e-07 6.87457e-07 6.87457e-07 6.87457e-07 6.87457e-07 6.87457e-07 6.87457e-07 6.87457e-07 6.87457e-07 6.87457e-07 6.87457e-07 6.87457e-07 6.87457e-07 6.87457e-07 0.0277746 6.87457e-07 6.87457e-07 6.87457e-07 6.87457e-07 6.87457e-07 6.87457e-07 6.87457e-07 6.87457e-07 6.87457e-07 6.87457e-07 6.87457e-07 6.87457e-07 6.87457e-07 6.87457e-07 6.87457e-07 6.87457e-07 6.87457e-07 6.87457e-07 6.87457e-07 6.87457e-07 6.87457e-07 6.87457e-07 6.87457e-07 6.87457e-07 6.87457e-07 6.87457e-07 6.87457e-07 6.87457e-07 6.87457e-07 6.87457e-07 6.87457e-07 6.87457e-07 6.87457e-07 6.87457e-07 6.87457e-07 6.87457e-07 6.87457e-07 6.87457e-07 6.87457e-07 6.87457e-07 6.87457e-07 6.87457e-07 6.87457e-07 6.87457e-07 6.87457e-07 6.87457e-07 6.87457e-07 6.87457e-07 6.87457e-07 6.87457e-07 6.87457e-07 6.87457e-07 6.87457e-07 6.87457e-07 6.87457e-07 6.87457e-07 6.87457e-07 6.87457e-07 6.87457e-07 6.87457e-07 6.87457e-07 6.87457e-07 6.87457e-07 6.87457e-07 6.87457e-07 6.87457e-07 6.87457e-07 6.87457e-07 6.87457e-07 6.87457e-07 6.87457e-07 6.87457e-07 6.87457e-07 6.87457e-07 6.87457e-07 6.87457e-07 6.87457e-07 6.87457e-07 6.87457e-07 6.87457e-07 6.87457e-07 6.87457e-07 6.87457e-07 6.87457e-07 6.87457e-07 6.87457e-07 6.87457e-07 6.87457e-07 6.87457e-07 6.87457e-07 6.87457e-07 6.87457e-07 6.87457e-07 6.87457e-07 6.87457e-07 6.87457e-07 6.87457e-07 6.87457e-07 6.87457e-07 6.87457e-07 6.87457e-07 6.87457e-07 6.87457e-07 6.87457e-07 6.87457e-07 6.87457e-07 6.87457e-07 6.87457e-07 6.87457e-07 6.87457e-07 6.87457e-07 6.87457e-07 6.87457e-07 6.87457e-07 6.87457e-07 6.87457e-07 6.87457e-07 6.87457e-07 6.87457e-07 6.87457e-07 6.87457e-07 6.87457e-07 6.87457e-07 6.87457e-07 6.87457e-07 6.87457e-07 6.87457e-07 6.87457e-07 6.87457e-07 6.87457e-07 6.87457e-07 6.87457e-07 6.87457e-07 6.87457e-07 6.87457e-07 6.87457e-07 6.87457e-07 6.87457e-07 6.87457e-07 6.87457e-07 6.87457e-07 6.87457e-07 6.87457e-07 6.87457e-07 6.87457e-07 6.87457e-07 6.87457e-07 6.87457e-07 6.87457e-07 6.87457e-07 6.87457e-07 6.87457e-07 6.87457e-07 6.87457e-07 6.87457e-07 6.87457e-07 6.87457e-07 6.87457e-07 6.87457e-07 6.87457e-07 6.87457e-07 6.87457e-07 6.87457e-07 6.87457e-07 6.87457e-07;
   (36) 0.63407 6.03631e-07 6.03631e-07 6.03631e-07 6.03631e-07 6.03631e-07 6.03631e-07 6.03631e-07 6.03631e-07 6.03631e-07 6.03631e-07 6.03631e-07 6.03631e-07 6.03631e-07 6.03631e-07 6.03631e-07 6.03631e-07 6.03631e-07 6.03631e-07 6.03631e-07 6.03631e-07 6.03631e-07 6.03631e-07 6.03631e-07 6.03631e-07 6.03631e-07 6.03631e-07 6.03631e-07 6.03631e-07 6.03631e-07 6.03631e-07 6.03631e-07 6.03631e-07 6.03631e-07 6.03631e-07 6.03631e-07 0.36581 6.03631e-07 6.03631e-07 6.03631e-07 6.03631e-07 6.03631e-07 6.03631e-07 6.03631e-07 6.03631e-07 6.03631e-07 6.03631e-07 6.03631e-07 6.03631e-07 6.03631e-07 6.03631e-07 6.03631e-07 6.03631e-07 6.03631e-07 6.03631e-07 6.03631e-07 6.03631e-07 6.03631e-07 6.03631e-07 6.03631e-07 6.03631e-07 6.03631e-07 6.03631e-07 6.03631e-07 6.03631e-07 6.03631e-07 6.03631e-07 6.03631e-07 6.03631e-07 6.03631e-07 6.03631e-07 6.03631e-07 6.03631e-07 6.03631e-07 6.03631e-07 6.03631e-07 6.03631e-07 6.03631e-07 6.03631e-07 6.03631e-07 6.03631e-07 6.03631e-07 6.03631e-07 6.03631e-07 6.03631e-07 6.03631e-07 6.03631e-07 6.03631e-07 6.03631e-07 6.03631e-07 6.03631e-07 6.03631e-07 6.03631e-07 6.03631e-07 6.03631e-07 6.03631e-07 6.03631e-07 6.03631e-07 6.03631e-07 6.03631e-07 6.03631e-07 6.03631e-07 6.03631e-07 6.03631e-07 6.03631e-07 6.03631e-07 6.03631e-07 6.03631e-07 6.03631e-07 6.03631e-07 6.03631e-07 6.03631e-07 6.03631e-07 6.03631e-07 6.03631e-07 6.03631e-07 6.03631e-07 6.03631e-07 6.03631e-07 6.03631e-07 6.03631e-07 6.03631e-07 6.03631e-07 6.03631e-07 6.03631e-07 6.03631e-07 6.03631e-07 6.03631e-07 6.03631e-07 6.03631e-07 6.03631e-07 6.03631e-07 6.03631e-07 6.03631e-07 6.03631e-07 6.03631e-07 6.03631e-07 6.03631e-07 6.03631e-07 6.03631e-07 6.03631e-07 6.03631e-07 6.03631e-07 6.03631e-07 6.03631e-07 6.03631e-07 6.03631e-07 6.03631e-07 6.03631e-07 6.03631e-07 6.03631e-07 6.03631e-07 6.03631e-07 6.03631e-07 6.03631e-07 6.03631e-07 6.03631e-07 6.03631e-07 6.03631e-07 6.03631e-07 6.03631e-07 6.03631e-07 6.03631e-07 6.03631e-07 6.03631e-07 6.03631e-07 6.03631e-07 6.03631e-07 6.03631e-07 6.03631e-07 6.03631e-07 6.03631e-07 6.03631e-07 6.03631e-07 6.03631e-07 6.03631e-07 6.03631e-07 6.03631e-07 6.03631e-07 6.03631e-07 6.03631e-07 6.03631e-07 6.03631e-07 6.03631e-07 6.03631e-07 6.03631e-07 6.03631e-07 6.03631e-07 6.03631e-07 6.03631e-07 6.03631e-07 6.03631e-07 6.03631e-07 6.03631e-07 6.03631e-07 6.03631e-07 6.03631e-07 6.03631e-07 6.03631e-07 6.03631e-07 6.03631e-07;
   (37) 0.592484 9.16567e-07 9.16567e-07 9.16567e-07 9.16567e-07 9.16567e-07 9.16567e-07 9.16567e-07 9.16567e-07 9.16567e-07 9.16567e-07 9.16567e-07 9.16567e-07 9.16567e-07 9.16567e-07 9.16567e-07 9.16567e-07 9.16567e-07 9.16567e-07 9.16567e-07 9.16567e-07 9.16567e-07 9.16567e-07 9.16567e-07 9.16567e-07 9.16567e-07 9.16567e-07 9.16567e-07 9.16567e-07 9.16567e-07 9.16567e-07 9.16567e-07 9.16567e-07 9.16567e-07 9.16567e-07 9.16567e-07 9.16567e-07 0.370303 9.16567e-07 9.16567e-07 9.16567e-07 9.16567e-07 9.16567e-07 9.16567e-07 9.16567e-07 9.16567e-07 9.16567e-07 9.16567e-07 9.16567e-07 9.16567e-07 9.16567e-07 9.16567e-07 9.16567e-07 9.16567e-07 9.16567e-07 9.16567e-07 9.16567e-07 9.16567e-07 9.16567e-07 9.16567e-07 9.16567e-07 9.16567e-07 9.16567e-07 9.16567e-07 9.16567e-07 0.0370311 9.16567e-07 9.16567e-07 9.16567e-07 9.16567e-07 9.16567e-07 9.16567e-07 9.16567e-07 9.16567e-07 9.16567e-07 9.16567e-07 9.16567e-07 9.16567e-07 9.16567e-07 9.16567e-07 9.16567e-07 9.16567e-07 9.16567e-07 9.16567e-07 9.16567e-07 9.16567e-07 9.16567e-07 9.16567e-07 9.16567e-07 9.16567e-07 9.16567e-07 9.16567e-07 9.16567e-07 9.16567e-07 9.16567e-07 9.16567e-07 9.16567e-07 9.16567e-07 9.16567e-07 9.16567e-07 9.16567e-07 9.16567e-07 9.16567e-07 9.16567e-07 9.16567e-07 9.16567e-07 9.16567e-07 9.16567e-07 9.16567e-07 9.16567e-07 9.16567e-07 9.16567e-07 9.16567e-07 9.16567e-07 9.16567e-07 9.16567e-07 9.16567e-07 9.16567e-07 9.16567e-07 9.16567e-07 9.16567e-07 9.16567e-07 9.16567e-07 9.16567e-07 9.16567e-07 9.16567e-07 9.16567e-07 9.16567e-07 9.16567e-07 9.16567e-07 9.16567e-07 9.16567e-07 9.16567e-07 9.16567e-07 9.16567e-07 9.16567e-07 9.16567e-07 9.16567e-07 9.16567e-07 9.16567e-07 9.16567e-07 9.16567e-07 9.16567e-07 9.16567e-07 9.16567e-07 9.16567e-07 9.16567e-07 9.16567e-07 9.16567e-07 9.16567e-07 9.16567e-07 9.16567e-07 9.16567e-07 9.16567e-07 9.16567e-07 9.16567e-07 9.16567e-07 9.16567e-07 9.16567e-07 9.16567e-07 9.16567e-07 9.16567e-07 9.16567e-07 9.16567e-07 9.16567e-07 9.16567e-07 9.16567e-07 9.16567e-07 9.16567e-07 9.16567e-07 9.16567e-07 9.16567e-07 9.16567e-07 9.16567e-07 9.16567e-07 9.16567e-07 9.16567e-07 9.16567e-07 9.16567e-07 9.16567e-07 9.16567e-07 9.16567e-07 9.16567e-07 9.16567e-07 9.16567e-07 9.16567e-07 9.16567e-07 9.16567e-07 9.16567e-07 9.16567e-07 9.16567e-07 9.16567e-07 9.16567e-07 9.16567e-07 9.16567e-07 9.16567e-07 9.16567e-07 9.16567e-07 9.16567e-07 9.16567e-07 9.16567e-07;
